-0.0815687 0 0 0 0 0.0626525 0 0.0964465 0 0 0 -0.0366995 -0.00301231 0.00151208 -0.0287399 0 0 0 0 0 0.0916037 0 -0.0765988 0 0 0 0.00538757 0.104612 0 0.0894901 0 0 0 0.103388 0 0 0.00843932 0 -0.0675621 -0.0855733 0.0438338 0 0 -0.0520726 0 -0.0366188 0 0.0803376 -0.0937373 -0.00246786 0 -0.0855177 0 -0.0936982 0 0.0131946 -0.0605164 0 0 0 0.0316029 0.0611373 0 0 0 -0.00136646 0.0216831 -0.0587854 0 0 0.0362398 -0.0747089 0.0341441 0 0.0382095 -0.0182127 0 0.0731347 0 -0.0326599 0 0 -0.0975798 0 0 0 0 -0.0990714 0 -0.0603637 0.0894127 0 -0.0968651 -0.01926 0.0067597 0 0.100116 0 0 0 
0 -0.0825471 -0.0305326 0 0.0388872 -0.0141846 0.105029 0.0868466 0.0495179 0.0340753 0.0546015 0 -0.0762274 0.0703207 -0.105097 0 -0.0580302 0 0 0 0.0587192 0.0955014 0 -0.0325951 0 -0.039135 -0.0516041 -0.0242025 0.0511717 0 -0.0116181 0 -0.101285 -0.0225023 0.0823719 0 0 0.0675909 -0.093783 -0.0214549 -0.0431073 0 -0.00357168 0 0 0 0.0586535 0 -0.00174362 0 0.0982071 -0.0315836 0.0995223 -0.0978909 0.0473667 0 0.00338877 0 -0.0934388 0 0 0 0 0 0.0994731 0 0 -0.0841905 0 0 0 0 0.0122729 0.0366806 0 -0.0174053 0.0497956 0 0 0.0333502 -0.0553383 -0.00200018 0 0 0 0 0 0 0 0 0.0491145 0.0447316 0 0 0 0.038068 -0.0153514 0 -0.104047 -0.060905 
0 0.084014 0 0.0239254 0 0.0504284 -0.0439513 0 0.0893537 0 0.0268994 0.0638968 -0.105039 0.0771018 -0.00813754 -0.0494327 0 0.0179012 0 0 0 0.0822342 0 0.0903979 0.110028 0.0445569 -0.0705938 0 -0.0514287 0.0588837 -0.0722479 0.0777918 0 -0.0419146 0.0605788 0.0243076 0 0.096378 -0.0420163 0 0 0.0458725 0 0 0.0243114 0.0187658 0 0.0789059 -0.00246633 0.0236466 0.057597 0 -0.0958865 0.0104 0 0.0888799 0 -0.0937758 0 0.0206081 0 0 -0.0997493 0 0 0.102125 -0.0982167 0 0.0108858 -0.0322693 0 0.1078 0.0109782 -0.0775146 0 0 -0.0940467 -0.0824105 0 0 -0.00850503 -0.0614399 0.00575062 0 -0.0036928 0 -0.0457991 0 -0.1081 -0.04705 0 0.088173 0.0339436 0.00705345 -0.0895451 0 0 0.0202926 0 -0.0997812 
-0.0720603 0.0814885 -0.0184501 -0.0742648 0.0319966 0.0636044 0 -0.0950145 -0.0950668 0 0.0504456 0.0510258 0 0 0.0738182 0.095894 -0.0451666 0 -0.00565808 0 0 0.104334 0 -0.0458855 0.0503381 0.0833738 -0.0772956 -0.082403 0 0 -0.08032 0 0 -0.0465034 0 -0.0621783 0 -0.0660655 -0.0282814 -0.087368 0 0 0.00319179 0.0880212 -0.0902526 0 -0.0559793 -0.0162093 0 -0.0481667 0 0.103445 -0.0527404 -0.0292347 0 0 0 0.0865719 -0.0126973 0 0 0.0393166 0 0 0.0569543 -0.0359738 0.00571976 0 0 -0.0773829 0 0 0 -0.0719044 -0.0667531 0 -0.0662658 0 -0.0912627 -0.110254 -0.00976635 0.0588266 -0.0330855 0 0.0286136 0 -0.0772355 0 -0.100063 0 0 0 0.0554122 0 0 0 -0.033858 -0.111524 -0.0573006 0.0930379 
0.0918484 -0.0905328 -0.0135159 0.0245499 0 0 -0.0621378 0.0327338 0.0823189 0.0523159 0 0 -0.0158918 0.0132639 0 0.0133088 0 -0.108214 0 0.095203 0 0.0691406 0 -0.0178783 0.0482234 0 0 0 0 -0.00140224 0 0 0 0 0.0840997 0 0.03435 0 0 -0.0705072 0.0997657 0 0 -0.00859067 0.0607048 0 0 0.0651717 0 0 -0.0319235 0.0916171 0 -0.0315291 0 -0.0589982 0 0.0869206 0 0 0.00723087 0 0.0687327 0.0710808 0 0 0 -0.0739189 -0.0808756 0 0.0121437 0 0 0.0909465 0.0722317 0.084644 0.0787554 0 0 0 -0.0713084 0 0 0.00931939 -0.0719245 0 0.059861 -0.0335887 0 -0.0178903 0.0778199 0 -0.0415569 0 -0.080894 0.0601512 0.0078657 -0.0790751 0 -0.0388147 
0 0 0 -0.0444949 0.0721578 0.0292544 0.0738154 0 0 0 -0.0840695 0.0175118 0 0 0.0166172 0 0 -0.0959519 0 0 -0.097862 0 0 0.0955223 0 0.0649157 -0.102882 0 0 0 0 0 0.0295259 0 -0.0645311 -0.0958287 0 0 0.093227 0.0391083 0 0 0 -0.0150086 0.06795 0 -0.0307674 0 0 0.0164618 -0.0511474 0.0266747 0 0 0.0243791 -0.103311 0 0.0086372 0 0.0695425 0 0 -0.0129031 0 0 -0.0588525 -0.0560983 0 0 0.111437 0 0 -0.00485599 0 -0.096343 0 0.0823454 0 0 0 -0.0590279 0 0 0.0293813 0 -0.0974212 0 0 -0.109647 0 0 -0.000868352 0 -0.0764694 0.101349 0.073403 0.0733103 0.0873512 -0.100424 -0.0619694 
0.108954 -0.00419237 0 -0.0849732 0.110027 0 -0.111189 0 0 0.00929205 0 0 0 -0.0251566 0.0613711 0.103875 0 0 0.0947296 0 -0.0647227 -0.0124909 0 0 0 0 0 0.0598922 0 0.0700526 0 0 0 0.024209 -0.0173712 -0.0688371 -0.0210984 -0.0955525 -0.0270888 -0.0561001 0 0 0 0 0 0 0 0 0 0 0.0176755 0 0 -0.0891618 0.0564311 0 0 0.0456684 -0.028509 0 -0.0124928 0 0 -0.096997 0 0.0767926 0.00981563 -0.110161 0 0.0475204 -0.0858966 0 -0.0241262 0 -0.079264 0 -0.0402041 -0.0545252 -0.0530943 -0.0812059 0.0517092 -0.0794193 -0.061814 0 0.0595704 0.000924635 -0.0452359 0.0550288 0 0.0590474 0.020847 0.100184 0 0 0 -0.100883 0 -0.0329626 0 0 
0 0 -0.0969406 0.0369937 0.0364332 -0.0964996 0 -0.0480546 0 -0.0803965 0 0.0520193 0.0870242 -0.0192366 0.10409 0 -0.0175855 0 0 0 0.087008 0.10343 0 0.00600556 0.0502605 -0.0822259 0 0.0134108 0 0 0.00615621 0 0 0 0.064411 0 -0.055709 0.09225 0.0920795 0 0 7.24655e-05 0.0198206 0 0 0.00526369 0 0.105618 0 0.0133652 0 -0.0920475 0 0.00113293 0 0 0.047957 0.0619279 0.102962 -0.000795182 0 0 0 0 0 -0.0441428 0 0 0 0 0 -0.107165 0 0 0 0 -0.0309847 -0.0802833 0 0.0792425 -0.0438485 0.0817807 0.107086 0 0.106363 0.0151874 0 0.041952 0 0 0 0.0148855 -0.0592606 0 0 0 0 0.0264011 0.0824755 0 
0.0612941 0 0.031506 0 -0.0153101 -0.0802869 0 0 0 -0.0705157 0 -0.0754695 0.0827295 0 0 0.035669 0 0.00480417 0 0 0.0124471 -0.0745639 -0.091125 -0.0122726 -0.058368 -0.0233551 0 -0.0429988 -0.0997735 0 -0.0636742 -0.000632784 0 0 0 0 0 0.0123481 0 0.0996278 0 -0.086505 0 0 0 0 -0.0763621 -0.0276642 0 0 0.0646245 0.11002 0 0.0418893 -0.0209077 -0.0963067 0 0 0 0.0284928 0.0986122 0.099587 0 0.0383462 0 0 -0.082249 -0.105196 0.103559 0 0 0 0.0678997 -0.0239498 -0.0623776 0.0637912 0.000757715 0 -0.0823183 0.0218552 0.0292347 0.0253324 0.0280756 0 0 0 0 0 -0.0936751 0.054477 -0.0221383 0.0393053 0 0 -0.069646 0 0 0 0 0 
0 0.0694222 0 -0.00818416 -0.102032 0 0 0.0772868 0.107577 -0.0262679 0.0996035 0 0 0 0 0.0581796 -0.0981636 0 0 -0.0587566 0.0164479 0 0 -0.0925112 -0.000328777 0 0.0411746 0 0 -0.0873809 -0.029255 0.0995022 0.0814672 0.0074961 0 0 0.0663549 0 0 0 -0.0419121 0 0.0470037 0 0.0161667 0.0691229 0 0 -0.0400067 -0.101647 0 0 0 0.000784633 0.0461702 -0.014902 -0.0250517 0 -0.0864575 0 0 0 0.0600916 0 -0.0109485 0 0 -0.0599782 -0.0676603 0 -0.0577383 0 -0.0954883 0.0120515 0.0770403 -0.0666732 0.106849 0 0 -0.0644646 0 0 0 0.0337941 0 0 0 -0.0379197 -0.0872652 -0.0797994 0.0598194 -0.0402639 -0.0774533 0 0.111156 0.0690244 0 0 0 0 
0 0 -0.100185 0.0882189 0.0962717 -0.0977963 -0.0457949 0 0.0717627 0 0 0 -0.0894316 0 0 0 0.102675 0 0.0472908 -0.0918363 0 0.00907202 -0.00737917 0 -0.0737704 -0.0498122 -0.0136465 0.0855291 0 0 0.0511175 -0.00290818 -0.019487 0.0671794 0 0 -0.0450856 0 0 -0.0533741 0.0952878 0 -0.104259 -0.0732431 0 -0.0216721 0.0753888 0 -0.0600245 0 -0.0638558 -0.108091 0.089248 0 -0.042603 -0.0278736 0 0.0583421 0 0 0 0.0474151 0 0 0.0649755 -0.0475 0 0 0 0.0431012 0.0993992 0.10897 0 0.0866488 0.0246834 0 0 0.0284515 0.0551519 0 0 0 0 -0.0765534 -0.0414043 0 0.0226646 0 -0.0725472 0 0 0.100793 0 0.092101 0 0.042497 0.0638814 0 0 0 
0 0.0518159 -0.101736 0.0398957 0 0.11006 0 0.0211561 0 0.0601777 -0.0917715 -0.0323245 0 0 -0.0925867 0 0 0 -0.00409008 0.1052 -0.0155648 -0.0532921 -0.084184 0.0391168 0 0 0.0489996 0 0.10797 0 0 0 0.10714 0.103111 0.106619 -0.0655163 -0.0466048 0.058075 0 -0.0690586 0 0.0367785 0 0 0 0 -0.0748549 -0.0305753 0 0 -0.109084 -0.013323 0 -0.0217805 -0.0396689 0 0 0 0 -0.106903 0.0746172 0 0 0.0839547 0.0441706 0 0 -0.0265738 0 0 -0.0681237 0 0 0.110868 0 0 0 -0.0417307 0 0 0.103116 0.021095 0 0 -0.0429351 0.0406569 0 0.0889381 -0.011214 0 0 -0.101189 0 0.07245 0 0 0 0 0.0229691 0.0743999 
-0.110014 0.0325182 -0.0117678 0 0.0568659 0 0 0 0 -0.0490471 0 0.0153375 -0.0414459 0.089635 0 0 0 -0.0441953 -0.0365882 0 0 0.0540543 0 -0.0348647 0 0 0 0 0 0.0529833 0.0734439 -0.0551344 0 -0.0552454 0.0308721 0.0111759 0 0 0 0 0 0 0.108547 0.0221785 0 0 0 -0.0759759 0 0 0.00786679 0 0 0 -0.020889 -0.0755486 0.0831003 0.0698239 0 0 0 0 0 -0.0390745 0 -0.0362448 0.00506904 -0.0800459 0.0109263 -0.0596912 -0.028809 0 0 0 0.0364277 0.00588603 0 0 -0.0814516 0 0 0 0 0 0.00492058 0 0.0802446 -0.0991936 0.028022 0 0 0.0447343 0 0 -0.0762452 0 0 0.0589002 -0.0795241 0.0463838 
0 0.0343058 0 0 0.0905674 0.0284242 0 0 0 0 0 0.103106 0 0 0.0785049 -0.0774442 0 0 0.0740112 0 0.106056 -0.0897355 0.00431624 0 -0.102433 0 -0.0926932 0 0 0.074052 -0.0802837 0 0 0.05972 0.0987192 0 0.100979 -0.098262 0.0576154 0 0.101107 -0.10858 -0.0448401 0.00299038 0.0646496 0 0.0154998 0.0990451 0 0 0 0.0706567 0.106573 -0.0939642 0.0472173 -0.0917955 0 0 0 -0.0699628 -0.051602 0 0.0485022 0 0.00158295 0.0867054 0 0.0741816 0 -0.0344825 0 0 0.106351 0.0457468 0 -0.0713698 0.0815303 0 -0.0846291 0.0486711 0 0 -0.0877289 0.0846625 0 0.059799 0.0128698 0.0246183 0.0994981 0 0.0160715 -0.0676717 0 0 -0.0095515 0 0 0 0.01169 -0.103465 
0 0 0 0 -0.107421 0 0.0639471 0 0 0.103414 -0.0372807 -0.0895705 -0.0761473 -0.0709597 0.0806843 -0.0142692 0 0.0567328 0 0 0 0.0468683 0 0.0827297 -0.000258244 0.0524177 0 -0.0843611 0.0474571 -0.0249428 0 0 -0.0877868 -0.0452407 -0.0711842 -0.0532368 0 0 0.0382423 0.0880402 -0.0651864 -0.0552973 -0.0603357 0.0872708 0.0308019 0 -0.0333098 -0.0479259 0.0731235 0 0 0 -0.0587436 0.08094 -0.0577141 0 0 0.0286539 0 0.0750363 0.0103416 -0.00889664 0 0 0.0378326 -0.0136775 -0.0302309 -0.0709003 0.0125183 0 0.0413993 -0.0865284 -0.0701277 0 0.0649174 0.00601838 0 0 0 -0.0877338 0 -0.0807031 0 0 0 0 0 9.93784e-05 0 0 0 -0.00865175 0 0 -0.0297622 0 0.049133 -0.0835783 0 -0.0187133 
0 0 0.0343159 0.0934294 0.0801936 0.0223111 0 -0.0160365 0 -0.0137156 0 0 -0.0127563 0 0.0690504 0 0.00661449 0.0018971 0 0 -0.0974859 0.0807746 0 0 0.00201164 -0.0619288 0 0.0281117 0 0.0480155 0 -0.101268 0.0837471 0.0946056 -0.103014 -0.0637257 0 0 0 0 0.0655281 0.022799 -0.0395921 0 -0.0947136 0 0 0 0.0369788 0 0 0 0 0 -0.0277413 0 0 0 0.0553019 -0.00405374 0 0 0 0 0 0.0905345 -0.0247958 -0.0381061 0 0 -0.0472516 -0.0840036 0 0.0591148 -0.0971865 0 -0.0308848 -0.0462793 0 0 0 -0.104036 0.0705605 0 0 0 0 0 0.00706516 0 0 0 -0.1062 0.0205627 0 0 0 0.041755 0 0 
0 0 0.0548421 -0.0381879 0.0815567 0 0 -0.0505058 -0.0120785 0.0881011 0 0.0291529 -0.0145803 0.101312 -0.103784 0 0 -0.0526975 0.053632 0 0 -0.098554 0 0 -0.0934248 0 0 -0.110231 0.0513218 -0.0575382 0.0953407 -0.086872 0.00613658 0 0.0139217 0 0.0745136 0 0 -0.0629682 0 -0.0499534 0 0 0 0 0 0.0581651 0 -0.00208192 0.0161714 0.00747848 -0.0426455 0.105492 -0.0481559 0 -0.0988908 0 0 0.0989348 -0.104525 0 -0.0163351 0 0 0.0145293 0 -0.0646825 0 0.0705929 -0.0328294 -0.110579 0 0 -0.10368 0 0 0.0192636 0.10502 0 -0.0873057 0 0 0 0.0603268 0 0 0.0786924 0 0.0757243 0 0 0.10526 -0.0216516 0 0 0.0376739 0.0875862 0 0.0611321 
0.00256493 0 0 0 -0.0398184 -0.0639505 0 0.0109056 0 -0.0904897 0 -0.00972318 0.0520665 0 0 0 -0.0242014 0.0250149 0 0 0 0 -0.0676982 0 0 0 0.0144789 -0.0416668 0 0 0 0 0 0.0363987 0 0 -0.0283731 0 0.0534783 0 0 -0.0404257 0 -0.110689 0 0 0 -0.0628665 0.0609647 -0.0144445 0.0816429 0.100105 -0.100792 0 0.041906 -0.0549398 0.0891588 0 0.0237183 0.0168773 -0.0737169 0 -0.070028 0 0.0802219 0.00185909 0 0.0989834 0 -0.0861313 0 0 0 0 0.0781204 0.000719983 0.0649152 0 -0.0229354 0 0 0 0 -0.0554701 0 -0.0265466 0 0 -0.0894566 0 0 0 0.0997334 0 0 0 0 0.102499 0 0 
0.05389 0.0181108 -0.0862824 -0.00868817 0 0.0474106 0.05214 0 0 0.107745 -0.0311449 0 -0.0752122 0 -0.0596605 -0.0959447 0 -0.10697 0 0.0584889 0 0 -0.0335307 -0.0308135 -0.0198795 -0.106084 -0.0741078 0.0335909 0 0 0.10411 -0.0727663 0 -0.0208579 0.0989657 -0.0149976 0 0 0 0.0153586 0.0283594 0 0 0.0674529 -0.0974258 -0.0841342 0 0.0610256 0 0.0634715 0.0355849 0 0.0073577 0 0 -0.0394595 0 0.0347163 -0.0743336 0.0364493 0 -0.0600658 0.0993557 0 0.0607242 -0.09425 -0.0880003 0 0 0.0687742 0.0777454 -0.0624776 0 0 0.00813332 -0.0809725 0 -0.0437373 0 0 0 0.0709987 0 0 0 0 0 0.0680314 -0.00778131 0 0 0 -0.061986 0 -0.0128947 0 -0.0806177 -0.0664971 0 0 
0 0.0137981 0.0396673 0.00704365 0.0281021 -0.04776 0 -0.0912974 -0.0259804 0.0994218 0 -0.074133 -0.0252206 -0.0313956 0 -0.0418029 -0.106098 0 0 0 0 -0.0486208 -0.00350303 0 -0.101921 0 0 0 -0.0936661 0.0162814 -0.0928223 0 0 -0.0249852 -0.0255041 0 0 0 0 -0.0766677 0 0 0.0233852 -0.0407362 -0.0437377 0 0 0 -0.0905903 0.0746616 0 0.0804173 -0.0619497 0 0.0246339 0 0 -0.0201401 -0.0396093 0 0.105891 0.104082 0 -0.048223 0.0970122 0.06712 -0.084173 0 0 0 -0.0590925 0 -0.00947335 -0.0207457 0 0 0.106597 0.106246 -0.0835724 0 0 0 0 0.0945716 0 0.0800149 0 0 0 0 -0.0584714 0.0116652 0 0 0.0961004 0.0706579 0 0 0 -0.106463 
0 0 0.0895908 -0.0130759 0 -0.0300731 0.0955053 -0.103554 -0.011622 -0.00678442 0 -0.106688 0 0 0 0 -0.0561953 0 0 -0.0971448 0 -0.0354376 0 0 0 -0.0941233 -0.0427699 -0.0611553 0 0 0 0 0 0.0370252 0.104605 0.0244342 0.0925175 0 0 0 0 0 0 0.0218909 -0.0576644 -0.0443499 -0.0847428 0 0.0779383 -0.105959 -0.0440879 0 -0.0559321 0 0 -0.000878601 0.0264255 0 -0.0520176 -0.0462591 -0.00420017 0 0.087008 0 0 -0.00919056 0.0647852 0.0964415 0.106426 0.093238 0 0 0.0342007 0 -0.0782467 -0.110733 0 0 0 0.0577912 0 0.0650575 0 -0.0969095 0 0.00546876 0 -0.00528413 0 0 0 0.0802237 0 0 -0.0917795 -0.0196289 0 -0.018793 -0.0571073 0.0606188 
-0.0491818 0 0.0654764 0 0 -0.0876686 0 -0.0148711 0 -0.0278854 -0.0314031 0.0557466 -0.0532698 0 0 0 0 -0.0916917 0 0.0614713 -0.0871632 0 0.0901471 0 0.058979 0.0113852 0.0999523 -0.109273 -0.0313713 0 0 -0.0949369 0.079266 0 0.00636726 0 0 0.0812595 -0.0238531 0 0 -0.0260802 -0.0453665 0 0 -0.0272101 -0.0305432 0 0.029495 0 0 0 0 0.0570542 0 0 0 0.0640874 0 0 -0.038954 -0.075468 0 0.0100206 0 0 0.0826624 0 -0.0344779 0 0.0738157 0 0.0314259 0 0.00566803 0 -0.0394908 -0.10695 0.110322 0.0583747 -0.100818 -0.0439946 -0.00707267 0 0.0759215 0 0 0 0.0592657 0.0879505 0 0 0.0574342 0 0 -0.109749 0 -0.10513 0 0 
-0.0546128 0 0 0 0 0 -0.0399614 0 0 0.0704058 0 0 0 0 0 -0.0408191 0.104822 0 0.0243218 0.106005 -0.102395 -0.0410013 0 -0.00291828 0.0898359 -0.0124168 -0.0487913 -0.103369 0 0 -0.0173539 0.0879838 -0.0364253 0 0 0 0 0.0927183 0 -0.0265669 0 0 0.0394287 -0.0704864 0.0249335 0 0 -0.0165388 0 0 -0.0636318 -0.0740326 -0.0654839 0.0392678 0.00813949 0.0297608 0.0888137 0 0 0 0.0177492 0.0684256 -0.0758077 0 0 0 -0.0977979 0.0940611 -0.00520391 0.0160626 0 0 -0.0598864 0 0.059822 0.0735891 0 0 0 0 0.0715934 -0.0474815 -0.0427152 0.09676 0 -0.0706003 -0.00380069 0.00679742 -0.0576787 0.0233277 0.0850075 0.082265 0.0232633 0 0 0 0.0218837 0 0 0 
0.029702 -0.0626919 0 -0.016058 0 0 0 -0.0515898 0 0 -0.0375646 -0.0608249 0.0482388 -0.046859 -0.0895156 0 -0.0817408 0.0359835 0 0 0 -0.0534214 -0.0684423 0 -0.105736 0.0931724 0.0386255 0 -0.0706431 0 -0.0198992 0 0 0 0.00760857 0 -0.0435619 0 0 0 0 0.00842823 -0.0115567 0 0 0.0105686 0 -0.00782791 0.0594123 0 0.100338 0 0 0 0 0.0819799 0.0570667 0 0 0 0 -0.105643 0 0.0143545 0 0 -0.0472679 0 0 0 0.090407 -0.0897234 -0.0573832 0 0 0 0 -0.00614227 0 -0.0606444 0 0 0 -0.110594 0 0 0 -0.0767829 0.0608075 0.0878963 0 -0.0612394 -0.108079 0.0300698 -0.0287793 0 0.0622744 0 -0.0993986 0 
0 0 -0.000282581 0 0 0 0.107259 0 0.0303711 0 0.00669858 -0.102593 0 -0.0991035 0 0 -0.0111453 0.0722155 -0.0439469 -0.0482695 0 0 0 0 0.0783397 0 0 0.068973 0 -0.0122247 -0.0942126 -0.0743176 0.0515019 -0.0727717 -0.0233402 -0.0535782 0 -0.00244915 0 0.0608502 0 0.0802209 0 0.0469918 0.105981 -0.101346 0 -0.00200154 0 -0.00752768 0 -0.0675947 -0.0202687 -0.109129 0 0 -0.0648842 -0.0108474 0.00636401 0 -0.0249839 -0.0879353 0.0114127 0.070792 0 0.0796069 0.0139374 0 0 0 0 0 0.0264436 0 0 0 0.0937871 0.0626677 0 -0.0425371 0 0.0440478 0 0.0660557 0 0.0252789 0.0613952 0 -0.0362362 -0.0261878 0.0342386 0 0 0 0 0.064226 0 0 0.0441991 0.0143936 
0.0651733 0.0457098 0 0.000196736 -0.0247003 -0.0517291 0 -0.0900236 -0.10525 0 0.0405576 -0.0144113 0 0.0351753 -0.0172718 0 -0.0846416 0 0 -0.0878084 0 0 0 0 -0.107413 0 -0.0475732 -0.104373 0.0316439 0.0808983 0 -0.00542009 0 0.107346 -0.013929 0 0.0428535 0 0 0 0 0 -0.0032484 0 0 0.00429835 -0.0519188 -0.0878533 -0.0693028 -0.031209 -0.0125459 0 0.0167062 0.00195205 0 0 0.100973 -0.014111 0 0 0 0.0768403 0 0.0748802 0 0 0.0359906 0.091126 0 0.0349167 0.0966122 0 0 0.039077 0.10474 -0.00936508 0 0 -0.0404833 0 0 0.0474599 0 -0.0939505 -0.0275704 -0.042988 0.0348258 0 0.00827368 0 0 0 0 0 0 0.103762 0.0415756 0 0.0396211 -0.0891492 
0 0.00184665 -0.0436976 -0.0409942 0.0819341 -0.0855153 0 -0.0373773 -0.0058197 0 0 -0.0720347 0.0836019 0.0962158 0.00247466 0 -0.069473 0.035062 0 -0.0746602 0 0.0348443 0 0 0.0106349 -0.016005 -0.0310676 0.102291 0 0 0 0 0 0 0 0.0115605 0 -0.0873659 0.104868 0.107206 0.0961735 0 0 0 0.0628199 0 0 0 -0.0602219 0 -0.0695 0 0 -0.00475308 0.082109 -0.0225601 0 0 0 0 0 0 -0.0285109 0 0 0 0 0.000275912 0 -0.0564875 -0.00863448 0 -0.0375131 -0.0421093 0.0572163 0.0455166 0 -0.0886124 0.102804 0.0161608 -0.00363471 0.0501454 -0.0912353 -0.0579396 0 0.0747942 0.0616081 -0.0475357 0 0.02652 0 -0.0276168 0.0929047 0 0.0563323 -0.0349118 0 0.0928178 0 0.0629782 
-0.0218364 0.0710513 0 -0.0339907 0.0227974 0.048538 -0.0274838 0.0017817 0.0354751 0 0.016811 -0.0513824 -0.078648 0 0 0.00652352 0.025452 0.0885972 0 0 0 0 -0.0974799 0.0141718 0 -0.0105666 0 0.102784 -0.101421 0.0735211 0 0 0 0.101934 0 0 -0.0576321 0 0 0 0 0.0531143 0 0 0 0 -0.0529084 0 0 0.00502856 0 0 -0.0430811 -0.0644534 -0.0378663 0 0 0 0 0.0854374 0.103126 0 0.101626 0 0 -0.0661653 0 -0.0614622 -0.0234577 -0.0594444 -0.0310232 0 0.0374645 0.00228056 0 0.0715346 0 0.076633 0 0 -0.0446053 0 -0.0545483 0 0 0 0.0528246 0 -0.0547136 0.0825878 0.0375066 0 0.104241 0.0733981 -0.00119775 -0.0450819 0.030841 -0.0436075 0 0.0233561 
-0.0724829 0 0.0349716 -0.00407302 -0.0812795 0.0330826 -0.0842406 0 0 0.00776897 -0.0552158 0.111356 0.101253 0 0 -0.0137441 0 0 0.0274587 0 -0.00373359 0 0 -0.0732215 -0.0225483 0.013705 0.010416 0 0.0893088 -0.0308951 0.0215656 0 0 0.0351652 0 0 0 0 0.0633274 0 0 0 0.0553844 0 0 -0.0938005 -0.0347494 0.0415079 -0.035897 0.0649755 0 0.0990685 0 0 0 0 -0.0094312 0 -0.0915079 0 -0.0345571 0 -0.0929087 0.0220166 0.0873658 -0.00312901 0 0 0 0.0353613 0 -0.0601371 0 -0.0225011 0.0459376 0 0 0 0 -0.0550015 0.00580573 0 0 0.0406703 0 0 -0.0599899 -0.0549878 0 -0.0166089 -0.0640399 0.00259954 0 0 0 0 0 0 0 0 
0.0983187 0 -0.0924896 -0.0903271 0 0 0.0654402 0 -0.106118 0 -0.00192302 -0.0615434 0 -0.033995 0 0 0.104944 0.021999 0 0 0 -0.055065 0.0645664 -0.0113417 0 0.101556 0.0191127 -0.0653644 -0.0410602 0 0 0 -0.0699421 0 0.063213 0 0.0565883 0 0 -0.0206509 0 0 0 0 0.111436 0 0.0651084 0 -0.0273478 0 0.108784 0 -0.0917136 0 -0.0500868 0 -0.0984427 0 0 0.109913 0.0258359 -0.0153821 -0.0980226 0 -0.0981555 0 0.0785217 0 -0.0603949 0 -0.0631797 -0.092918 -0.0147056 0.0181576 -0.0199585 -0.00303053 -0.0105706 0.0704152 0.0845758 0 0.0981221 0 0 0.022105 0 0.0947729 0 0 0 0 0 0 0.0231581 -0.105864 -0.0618657 0.0725994 0 0 -0.0695825 0 
-0.0965755 0 -0.110022 0 -0.110056 0 0 0 0 0.0980948 0.0621439 0 0 0.0761667 0 0 0 0 0.078513 0 0 0.0782698 0 0 0.107983 0 0.0380318 0 0 -0.0318109 -0.0744561 0.0512813 0.0961189 0 0 0 0.0870953 0 0.0767062 0.0417454 -0.0679097 -0.0318782 0 -0.0501839 0 -0.0669431 -0.110742 0 0 0 0 0 0 0 -0.0124594 0 -0.0623253 0 0.0822353 0 0.0722624 0 -0.107216 0 -0.0660505 0 0 0.101828 0 0 -0.024956 -0.0398984 0 0.074661 0.109676 0.0180258 -0.000123775 -0.0559029 0 0 -0.0687638 0.0204465 0 0 0 0 0 0.0642052 0.0415099 0 -0.0950149 0 0 0.105425 0 0.103532 0.0952161 0.0890987 -0.024816 0 
0 -0.00912244 0 0 -0.0184585 -0.0924263 0 0 -0.00637374 0.0831246 0.046986 0.0498132 0 0.0768341 0 0 -0.0295812 0 0 -0.0352075 0.00214119 0 0 0 0 -0.0322574 0 0.0717655 -7.56878e-05 -0.0772704 0.0512763 -0.0558182 0 0 0 -0.0223628 0.00927369 0.0820073 -0.0959649 0 0 0 0 0 0 0 0.0832578 0 0 -0.0583375 0 0 -0.110667 -0.0543234 -0.0734944 0 -0.0071396 -0.0517778 -0.0261957 0.0434254 -0.0345396 -0.104415 0 0.0110998 0 0 -0.0382007 0 0.0150306 0 0 -0.104809 0 -0.0481562 -0.0152207 0 -0.101041 -0.00642541 -0.102312 0.0853091 0 0.0924626 0 -0.00800648 0.105901 0.0616707 0 -0.0348675 0 0 -0.0166125 0 0 0.0952009 -0.0339638 0 -0.0549368 -0.016 0 0 
0 0 -0.061366 0.0432786 0 0.0376113 0 -0.103188 0 0 0.0425505 0 0 0.0920641 0.0112345 0.0928005 0 0 0.0665231 -0.00781673 0.0226126 0.0680552 0.0376931 0.00344301 0 0 0 0 0.0384258 0.0307644 0 0 0 0.0624175 0.00824451 0 0 0 0 -0.0504941 0 -0.0898926 0.0584224 0 -0.0154534 0 0 0.0153039 -0.0103442 0 0 0 0 0 0.0909847 0 0.10534 0 0 0 0 -0.0887603 0.00471604 -0.0587943 -0.00470408 -0.0794916 0 0.0856086 0 0.0479927 0 0 0 0 -0.0925486 -0.0666678 0.0512635 0 0 -0.0835387 0 -0.0607302 -0.0684032 0.0156163 -0.0169919 0 0 0 -0.0802973 -0.0319822 0.0546538 0 -0.088095 0 -0.0534776 0 0.109355 0 0.0977485 0 
0 -0.0535326 0 0 0.00525595 0 0 0 0.103176 0 -0.050253 -0.0739893 0 0 0 0.0240865 -0.0256029 0 0 0 0.0948481 -0.049053 0.0945609 0 0.050787 -0.106596 -0.0280807 0.0707803 0 0 0.0248422 -0.0448937 0 0.00918402 0 0 -0.0800541 0 0.00369773 0 0.0736292 0.0919302 0 0 -0.0041605 -0.0149486 0 0.0418336 0 -0.0172943 0.0519769 0 0 0 0.0921735 0 0.0793849 0 -0.0451791 -0.0354109 0.0240417 0 -0.0309059 0.108682 0.0096408 0 -0.0383197 0.0917286 0 0 0 0.00552728 0.0104429 0 0.0372117 -0.0836844 0 0 0.0459076 -0.0921897 0 0 0.0390435 0.033528 0 -0.0958758 -0.0280628 -0.0229222 0.046396 0 0 0.0530156 0 0 0 -0.00744224 -0.0784438 0.012105 0.0966022 0 
-0.0438711 0 0.0683139 -0.0311351 -0.106018 0 -0.0663265 0 0 0 -0.0987646 -0.0305718 0 -0.0290566 -0.109273 0.107115 0 0 0 0.0439322 -0.0500411 0 0 0.101688 0 0.107239 -0.0757858 -0.045612 -0.0905866 -0.0517213 0 0.0846387 0.0343098 0 0 0.0426056 0 0 0.0676353 0 0 0.0912951 0 0 0.0170935 0.0770852 0 0 0 -0.00760067 0.0769469 0 0 0 -0.0800385 -0.0391926 0.0977072 0 -0.0783295 0 0 0 0 0.103999 0 0 0 0 0.0393611 -0.0767676 0.0151387 0.0732015 0 -0.0695499 0 -0.0380196 -0.0459973 0 -0.0425843 -0.0198756 0 -0.00717195 -0.0585649 0 -0.101831 0 0.0991834 0 0 0 0 0 0 0 0 0.0363367 -0.100879 0.0807977 -0.0547324 0.0336773 
0 0 0.0831301 0 -0.0870037 0 0 0.044996 -0.0896508 0 0 -0.0469927 0 0 0.0540534 -0.0163382 0 0 -0.0798044 0.0388153 -0.102632 0 0 0 0.0678897 0 0 0 0 0 0.0843798 0 -0.10263 0.0836774 -0.0426971 0 -0.0428209 0.0687919 0 0.100556 -0.0761102 0.0635098 -0.107448 0 0 -0.0483116 0 -0.108063 -0.110134 -0.0766011 0 0 0 0.0490274 -0.087922 -0.0756287 0 0.0036856 0 -0.0533098 -0.0616398 0 0 0 0.0823178 0.034456 -0.0828536 0 -0.0814191 0.0826692 -0.000466697 -0.068239 -0.0518182 -0.00772441 -0.00628097 0 -0.0828954 -0.0655023 0.0562056 0.083198 0.0274653 0 -0.0496475 -0.0696766 -0.0665987 0 -0.0954983 0 -0.00293987 0 0 0.00989647 0 -0.107953 -0.0828287 0.05402 -0.0917622 0.0195045 0 -0.064599 
0.0105201 -0.0689174 0 0 0 0 0 -0.0875245 0.100752 -0.070531 0 0.0839989 0 -0.0913954 -0.0988038 -0.0326641 -0.0387186 0 0.0701932 0 -0.0308555 0 0 0 -0.0234746 0 0 0 0 0 0.0254508 0 0 -0.102752 -0.0172126 -0.0167182 0 0 0.028124 0.049027 -0.0884798 0 -0.0077665 0.0104254 0.0191696 0 0 0 0.106719 0.0250001 0 -0.0827429 0.0647171 0.0057002 0.10286 0 0.053478 0 0 -0.0300609 -0.0377954 0.0535396 0 0 0 0 -0.107575 0 0 0 0.0694363 -0.0282127 0.0426589 0 0 -0.0929264 -0.0619572 -0.0720963 0 0 -0.0626416 0.104182 0 0 0.0191362 0 0.107973 -0.0510649 -0.00721138 0.110277 -0.0518222 0 0 -0.0198957 0 0.0776677 -0.00428033 0 0 0 
-0.0536267 0.0285933 0 -0.0141878 0 0.0383751 0 0.098879 0.0166528 0 0 0 0 0 0 0 -0.035204 0 0 0 0 0 -0.0780631 0.0733484 0 0 0 -0.0937266 0.110977 0 -0.0882964 -0.046394 0 -0.0161132 0 -0.000431065 -0.0727636 0 0 -0.0427594 0.0574337 0 0.0909394 0 0 0 -0.0727297 -0.0219938 -0.0118463 0 0 0.077751 -0.0602174 0 0.00889536 0 0 -0.0686776 -0.0540275 0 0 0 0 0.0991726 0 0 -0.0736251 0 0 0 -0.0131192 0 0.102191 0 0 0.0776206 0 -0.0250529 0.0531441 0 -0.0106975 0 0 0.0423937 -0.0760645 -0.0326844 0.0078996 -0.0655958 0 0 0 -0.0647773 -0.109425 0.0263544 0 -0.0922914 -0.0975092 0 0 -0.0553819 
0.011567 -0.0123976 0.0265986 0 0.105483 0 0 -0.0376168 0.0311221 -0.0951173 -0.077264 0.0394056 0.0802774 0 0.0311628 -0.0153456 0 0 -0.0830444 0 0.0161269 0 -0.0723352 0 -0.0443562 -0.0849406 0 0.0577503 -0.0511454 0 0 -0.0480681 0 0.0304499 0.0788901 -0.00652359 0 -0.0772511 0.0646976 0 0.0394924 0.0863985 0 0 0 0 0 0.0696904 -0.0944407 0 -0.00307697 -0.0604776 0 0 0.0461992 0 -0.0718932 0 -0.0375755 0 0.00368399 0 -0.033085 0.104592 -0.012937 -0.0250854 -0.0231365 0 -0.0045916 0 0 0.0886606 0 0 0 -0.0954001 -0.0271335 0 0 -0.0572481 -0.061025 -0.0845777 0 -0.0915543 0 0.0387565 0.0152967 -4.69628e-05 0.0110283 0.0523091 0 0 -0.104012 -0.0159394 0 0.068496 0 0.00378702 0 0.0543309 
0.103167 -0.0197522 0 0 0.0503695 -0.0478598 0 0 -0.034551 0 0 0 0 0 -0.100977 0.100732 0 0 0 0.0912196 0.0324732 -0.0820358 0 0 0.0356848 0 -0.0255145 0 -0.0710939 0 0.00592388 0 0 0 0.0724817 0 0 -0.081595 0.067282 0 0 -0.0301626 -0.0306544 0 0 0 0 0 0 0 0 0.077678 0 0.0197086 0.0345115 0 0 0 -0.00832145 0 0.0216524 -0.0462101 0 -0.110846 -0.0211429 -0.0581201 0 0 0 0 0 0 0 -0.0155149 0 -0.107375 0 -0.0500608 0 0 0 0.0792666 -0.0282655 -0.0799669 0 -0.0792442 0 0.00239286 0 -0.0639907 -0.109212 0 0.0416893 0 0 -0.0872598 0.0696974 0 -0.0834679 0 
0.0897519 0.00593714 0 0 -0.105676 0.0698636 0 0 0 0.0740301 -0.0522925 -0.00593932 0.00650709 0 0 0 0 0 -0.0100695 0 0.0165752 0 0.0109176 0 -0.0516947 -0.0111083 0.0978864 0.0715145 -0.061988 0 0 0 -0.0506683 -0.106268 -0.0587891 0 0 0 -0.00376314 0.0440961 -0.0329272 0 0 -0.0513927 0 0 -0.0152236 0.0423374 -0.0810978 0.0902667 0 0 0 0 0 0 0 0.0567617 0 0 -0.0409341 0 0 0 0.0556642 0.0531519 0.0792113 0.0533394 0.0106282 0.00870972 0 0 0.0268412 0.0764679 0 0 0.0300065 0 -0.00716445 0 0.0634703 0 0 0 0 0 0 0.0888351 0.0101144 0 -0.0908262 0.0712956 0 -0.0528656 -0.0787338 -0.0609708 0 0 0 -0.0242533 
0 0 -0.0862273 0 -0.0508791 0.0280535 0.100642 0 -0.000811933 0 0.0199307 0.000987542 0 0.0596908 0.0626453 0 0 0 0 0.00641538 0 -0.0514679 0 -0.0635776 0 0 0.0280361 -0.0568135 0 0 -0.0422874 0 0.0083518 0.0440776 0 0 0 -0.0643001 -0.0292117 -0.0437375 0 -0.00334596 -0.0344559 -0.026273 -0.0343279 0.105132 0 -0.0846502 0 0 0 0 0.104552 0.0429214 0 -0.077252 0.0877413 -0.00882795 0 0 -0.0129206 0.0056804 0 0.0909763 0 0 0 0.0767752 -0.0613684 0 0 0 0 0.0278147 0 0 -0.0345419 0.0793435 0.026091 0 0.00598149 0 0.0940948 0 0 0 0.100649 0 -0.0992066 0 -0.0490062 0 0 -0.0376916 0.0136402 0 0 -0.0356791 -0.0711941 -0.107487 
-0.0743899 0 0 0 0 -0.108291 0 0.103928 0 -0.106848 -0.0293721 0 0.0527844 0 0 0 0.106367 -0.0837883 -0.0978844 0 -0.0938024 -0.0977509 0 0 -0.0911496 -0.0505558 0.0721 0 0 0 0 0 0.0138074 0 0 -0.0876263 0 -0.0928285 0.0498775 -0.0916601 -0.0455018 0 -0.0316839 0 0 0.0859241 0.0870639 0.105497 -0.0281732 -0.0246094 0 0.100767 -0.0164674 0 0 -0.0333573 0.0718563 0 0.091765 0.0808245 0.0969246 0 0 0 0 0.0868143 -0.0450161 0.0795535 0 -0.0566248 0 0 -0.0011972 0 0 -0.0276125 0 0 0 0 0 0 0 0 0 0 -0.0974502 0 0.0718501 0.101322 0 0 0 0.0512195 -0.041768 -0.0547445 -0.00723341 -0.0260044 0 0 
-0.102171 -0.0150973 0 0 -0.0354196 0.109788 0 -0.0627139 0.101747 0 0.0797741 -0.080541 -0.10254 0 -0.0457157 0 -0.000203662 0.0633566 0 0.0727545 0 0.106592 0 0 0 0 0 0 -0.108672 0.0832196 -0.0453335 0 -0.0143057 0 0 0 0 0 0.0513503 0.0646767 0 0.0128218 0.0865012 -0.0406527 0.0132614 -0.0840611 0 0 -0.0297995 0.0921997 0 0.0320557 0 0.102905 0.0961282 -0.0139645 0 -0.013003 0.110541 0 -0.0367037 -0.0708237 -0.00910932 0 0.0183984 0 0 -0.00848952 0.0080094 0.0151425 0 0 -0.0801673 0.00930707 -0.0878884 0 0 -0.00283114 0.110844 0 -0.0371954 -0.0317984 0.0752271 0 0 0 0.111041 0 0 0 0 0 0 0 0 0 0.106919 0.0937952 0 0 
0 0 -0.0078213 0 0.0665522 0 0.0202475 0 0 0 -0.00113776 -0.0539959 0 0 0.0178793 0.0697379 -0.0973474 0.110841 0.0105103 0.0956099 0 -0.0187117 0 0.0240934 0 -0.0764687 0.0456445 0 0 0.0779033 0.0727429 0 0 0 0.00111548 -0.0668488 0.096464 0 -0.00459454 0 -0.00118046 0.0497218 0 0 0 0 -0.00265347 0 0.0763876 -0.0668083 0.0570929 -0.0459283 0.0043768 0 0.0725569 -0.08375 0.0835818 -0.0587112 0.0690759 -0.0800172 0 0 0 0.102647 -0.0331783 0 -0.0683595 -0.0988611 0.0660974 -0.0715658 0.0230192 -0.021623 -0.0371071 -0.0701094 0 -0.0172518 0 0 -0.107799 0 -0.0418201 0 0 0 0.0900514 0 0.0990559 0 0 0.00740276 0.0194795 0 0 0 0.0747801 0 0 0 0 0 
-0.0247642 0 0.0583788 -0.0561469 -0.109537 0.0188681 -0.0719889 0.0795705 -0.104609 0 0 -0.0705031 0 0 0.0805942 0 0 -0.0543781 0.0635508 0 0 -0.0868013 -0.0445165 0 0 -0.0794209 -0.0619698 -0.0358446 0 -0.0288843 -0.0873264 0.0802526 0 0 0 0 0.0505803 0 0 0 -0.0515325 0.061373 0.109457 0.0534245 0 0 -0.032566 0 0 0.0415718 0 0 -0.0530956 0 0 0 0 0 0.0609311 0 0 0.100505 0 0.0109136 0 0 0 0 0 0 0 0 -0.0407132 0 0 0 0 0 0.0578705 0 0 0 0 0 0 0 0 0.0931056 0 0 0 0.0882506 0.0812504 0 0.063279 0.103457 0 0 0 0 
0 -0.0993119 0 -0.0230526 0.109505 -0.100835 0 0 0.00503717 0.033299 0.0434645 0 -0.0526513 0 -0.091767 -0.0635511 0.039881 -0.0312554 0 0 0 -0.0372582 -0.0771212 0.049023 0 0 0 -0.00899763 0 0 0 0.0867984 0 0 0 0 -0.0576199 -0.0388809 0 0 0.0343835 0.000971578 0.0405361 0.0106672 0 -0.0518786 0.103026 -0.0631419 0.0962236 0 0.0430721 0 0.00423435 0.00758187 0 0 0.101592 -0.0451453 0.0319712 0 -0.00844901 0 0 0.0534104 -0.0496605 -0.0171137 0.0269487 0 0 -0.0278935 0 0 0 0.0636997 0 0 0 -0.0349016 0 -0.0919446 -0.0852631 0.0167582 0 0.0189764 0.0857616 -0.0749044 -0.0049062 0 0 0 0.00610003 0 0.00344758 0 -0.103192 -0.0189047 0 0.0859002 0.0765678 0.0335206 
0.0162969 0.0228841 -0.0151732 0 0.0214912 -0.000317001 0 0 0 -0.00575061 0 0 0 -0.0485168 0 0 0.0364426 0.0184787 0.0716609 0 -0.111356 0.00386217 0 0 0 -0.0373922 0.0858982 0 0 -0.0324997 0 -0.0798279 0 0 0 -0.0395009 -0.0103283 -0.077143 -0.0709697 0.0261677 0 0.0604818 0 -0.0930684 0.0380008 0 0 0 0.104224 0 -0.0909089 0 0.014701 0.0438233 0 0.083156 0 -0.105556 0 -0.111038 0.00177943 0 0 0.0130886 0.0106096 0 0 0 0.0992735 0 0.0101728 0 -0.047187 0 0.108205 0 0.0797923 0 0.0858053 0 0 0.0115188 0.0815974 0 -0.0168828 0 0 0.0521497 0 0 -0.0681374 -0.0615417 0 0.00284021 0 0 0 0 -0.0322999 0.101682 
0 0 -0.0832962 0 0 0 0.0794068 -0.0309158 -0.0959438 0.0107428 0.0610883 -0.0856 0 0 0.00238688 0.0929387 0 -0.0203852 -0.0825218 0.0230689 0 0.0513415 0 0.0496426 -0.00654449 -0.018961 -0.0648828 0 0 -0.0482075 0 -0.0486609 0 0.0652949 -0.0358406 -0.0838784 -0.074847 -0.0864983 0 -0.0276504 -0.0815641 -0.0623629 0 0 0.0229985 0 0 0 -0.047816 -0.0140039 0.0399719 0 -0.0063021 0.0850392 0.04689 0 0.103627 0 -0.0286514 0 0.00135333 0 0 0 -0.0483014 0 0 0 -0.0718751 0 0 -0.0542117 -0.0430934 0 0 0.0401384 0 -0.042617 0 0 0 0 -0.0740685 0 -0.049868 0 0.077324 -0.0141882 0.030558 0 0.0613936 -0.100413 -0.080047 0 -0.0892995 0 0 0.0787336 0.111486 0.0826383 
-0.0313773 -0.0110314 -0.0412983 0.0990175 0.0526515 0 -0.0283594 0 0 0 0.0899887 -0.106489 0 0 0 0.00491693 -0.0306154 -0.010429 0 -0.0386678 -0.0556413 0 0 0 0 0.050655 -0.0511159 0 0 0.111286 -0.0269025 -0.0745493 -0.0753808 0.00552728 0 0 -0.103776 0 0.0709653 0 0.102761 0.00795389 -0.0960698 0.0665592 0.0511284 0 0 0 0.0983239 0.0996487 0.0487206 0 0.0882375 0.0394877 0.0785348 0.0302558 0.00667666 0 0 -0.0239322 -0.0227645 0 -0.0677741 0.0158844 0 -0.0807868 0 0.0424831 0.107975 0 0.109054 -0.111226 0.0889748 0 0 0 0 0 -0.071602 0.0704964 0 0 0 0 0 0 0 0 -0.0428545 0.0844881 0 0.0808938 0.111008 0.0471359 0 0 0.0786599 0 0 0 
0 0 0 0 0.0949454 0.0360543 0.108924 0.0433567 0.0972437 0 0 0 0 0.0394879 0 0.00629858 0 0 0 0 0.0981202 0 0.0539504 -0.0640312 0 -0.0806546 -0.00318413 0.0950291 -0.0318736 0 -0.0313714 -0.0146457 0 0 0.0597226 0.0311408 -0.0850748 0.0257562 0.0277748 0 0 0.0958025 0 0.056564 -0.0567277 0 -0.0732674 0 0 0 0.100121 0.10658 0.0144265 0 0 0 0 0.0223083 0.0174744 0 -0.0966312 -0.02142 0 0 0 0 0 0 0 -0.0826793 0 0 -0.00990027 -0.0392705 -0.0959762 0.0049641 0 0 -0.0872238 0 0 0 0 0.0567571 0 0 0 0 0 -0.0787254 -0.00235849 0.090404 0 0 0 0 0.0450691 0 0 0 
-0.0758276 -0.0973515 0 0 0 0 0 0.0470939 0.00789649 0.0143025 0.103117 -0.0828004 0 -0.103965 0 -0.0196256 -0.0650112 0 0 0 0.0701506 0.0368642 0 0.0213383 0.0242674 0 -0.0402075 0 0.0628148 0.0946287 0.101007 -0.0680154 0 0 0 0 0.0578556 0 0 0 -0.0406503 0 0 -0.010441 0 0 -0.0281652 -0.0904771 0 0 -0.00555783 0 0 0.0489315 -0.0192098 0.0512176 0 0 -0.062095 0.0762737 0 0 0 0 0 -0.109167 0.0493897 0 0 0 0 0 0 0.0470238 0 0 0.0179524 -0.0349493 0.0649656 0 -0.107148 0.0996922 0 -0.0586678 0 0.0313154 0.0174711 0 0 0 0 0 0 0 0 0 -0.0200116 0 0 -0.0841218 
-0.0390797 0 0 0 -0.021589 0 0 0.0882204 0 0 0.107295 -0.0347359 -0.0653364 0 0 0 0 0.0361321 -0.0490397 0.068048 0 -0.0279214 0.058122 -0.0429825 -0.0772421 0 0 0.0805572 0 -0.0230446 -0.0877226 -0.0772253 0 -0.00565211 0.0485152 0.110606 0 0.0488684 0.0883189 -0.00542767 -0.0388691 0 -0.107051 0.0590636 0.0997784 0 0 -0.106561 0.0227251 0 0.0928038 0 0 0 0 0 -0.064077 0 0 0 0 0.0645578 0 -0.108092 0.0838408 0.0343927 -0.0350674 -0.0662236 0 0 0 -0.0968899 -0.0322285 0 0.0234805 -0.0270639 0 0 0.0702726 0.0402476 -0.000415446 0 0 0.035748 0 0 0 -0.0552827 0.0368341 0 0.1056 0.103148 0.0859745 0 -0.00211379 -0.0625675 0 0 -0.0767521 0.107466 
-0.108872 0.0447948 0 0 -0.0144568 0 0 -0.0399167 0 -0.0630169 0 0 0 -0.0686021 -0.0540087 0 0 -0.106172 0 -0.071355 0 0 -0.0784169 0 0.0389105 0 0 0.0339853 0.066283 0 0 -0.0689484 0 -0.0288177 -0.0949689 0.078537 0 0 0.0628499 0 0 -0.0324125 0 0.000739396 0 0 -0.043085 -0.0474653 0 -0.0927511 0 0 -0.0839796 0.00909194 0 0.0256919 0 -0.0284241 0.0740436 -0.0922049 0 0 0 0.0577735 0 0.0632102 0 0.103948 -0.00969377 -0.001307 0 0 0 0 0 -0.109933 0 0 0 0 0 -0.00775279 0 -0.0211064 0.0394868 0.0470624 -0.0212584 0 0 -0.00891674 -0.0315461 0 0 0 0.0672382 0 -0.00108696 0 0 0 
0.0390261 0 -0.0802955 0 0 0 0 0 0 -0.0600286 -0.00478542 -0.0966932 -0.0826857 0.0990061 0 0 0 -0.0147797 -0.0950168 0 0.0844006 0.111564 0 0 0 0.0845412 0 -0.00266494 0 0.0488753 -0.0174753 0.0394566 0 -0.0887828 0.0226487 0.0395488 0.0466335 -0.0547291 0 0 0.0358389 -0.00070562 0 -0.0709234 -0.086636 0 0 -0.0928139 0 0 -0.0250858 0.0816709 0.0996097 0 0 0 0.110099 0 0 -0.0353983 0 0 0 0.0843355 0.068272 0 0.0932048 -0.0960422 0 0 0 0 0 -0.0029563 -0.0308477 0 0 0 0.0388347 0 0 0 0 0.0169867 0 0 0.0391015 0 0 0.0297593 0.0973705 -0.0770464 0 0.0663114 0.0259208 0.0377293 0.0484396 0 -0.0285906 -0.0400396 
0 0.052823 -0.0606533 0.0697944 -0.0648782 0.0995725 0 0.0281042 0.0417464 -0.0887183 0 0 0 0.0807243 0.0551022 -0.0491685 0.100573 0 0 0 0.101922 0 -0.00205791 0.00313426 0 -0.00886206 0.0981221 0.00570513 0.0818688 0.062408 0 0.0108683 0 0 0 0.0682895 0.0749932 -0.01893 -0.031849 0 0 0 -0.0801152 0.0139978 0.0360183 -0.103469 0 0.0363994 -0.0310422 -0.0983392 0 0 0.0289891 0 0 0 -0.0921016 0 0.0739319 0 -0.029575 -0.0820934 0 0 0 0 0 0 -0.0343315 0 0 0.110668 0 0 0 0 0.0511882 0.0305556 0.00182674 0.0796479 0.012386 0 0.0943798 0 0 0.0175859 0 -0.072006 0.0396395 -0.102822 -0.00353972 0.0511578 0 0 0 0 -0.00136303 -0.105006 0 0.0862108 
0 0 -0.0931043 -0.0147507 0 0 0 -0.0675575 0.0660369 0 0.0747841 0 0 0 0 -0.110462 0 0.0823407 0 0.0889036 -0.0291316 0 0 0 0 0 -0.109152 0 0 -0.0396435 0 0 -0.080676 0.101177 0 0.072239 0 0.073346 0 0.0441179 0 0.0214527 0.0905439 0 0 0.102166 0.108711 0 0 0.109835 0 0 0 0 0 -0.0988231 -0.0541423 -0.104318 0.046762 0 -0.0206889 0 -0.110805 0 -0.0258068 0 0 0 0 -0.0421959 -0.0968174 0.0355114 0.00198605 0.0755808 0.0713944 0 0.0448103 0.107705 0.109427 0.0708834 0.00493465 -0.0159027 0 0 -0.00197062 0 0 0 -0.0242673 -0.0754953 0 0 0 0 -0.0418967 0 0 -0.0370403 0 0.0545319 
0.0397611 -0.0588011 -0.0260752 0.0370579 0 -0.0764815 -0.0915854 0.110399 -0.0600522 0.00696023 0 -0.0347159 -0.0805021 0 -0.0333597 -0.00878114 -0.0990749 -0.0618886 0 -0.0171929 0 0 0.0200304 0 0.0504261 0.0908786 0.0443331 0 0 0 0 0 0 0.0766217 0 0 0 0 0 0.0936044 0.102861 0 0 0.00864118 -0.00603526 0.0325309 0 0 0.0282269 0 0.0590534 0 0 -0.0766368 0 0 0 0.0534266 0 0 0 0.0449396 0 0 0 -0.0497485 0 0.0557851 -0.0781936 0.0581573 -0.0902085 0 0.0804137 0 0.099767 0 0 0 0 0 -0.080654 0 -0.0957947 0 0 0 0 0 0 0 0.109531 0 0 0 0 0 0 -0.0937892 0 0 
-0.0305006 0 0 0.0743185 0 0 0 -0.0240833 0 0 0 0.0625161 0 0 0 0 0.109691 0.0441695 0 0 0.104044 0 0 0 -0.104143 -0.0834651 0.0292747 -0.0012854 0 0 0.0323779 0 0.0337424 0 0.0888533 0 -0.0812108 0.010089 -0.0780092 -0.0919844 0 0 0 -0.0216477 0 0.0064561 0 -0.00236195 0 0 0.0892095 -0.0325976 -0.0323691 -0.0580919 0 0 -0.0247266 -0.0184745 0 0 -0.0421834 0.0754737 0 -0.0577428 0.0165832 0 0 0 0 -0.091766 0 0 -0.0373649 0 -0.0889254 -0.0221936 -0.0148951 0 0.0781992 0 -0.0602812 -0.110648 0 0 -0.0425503 0 0 0 -0.0316237 -0.106285 0 0 -0.0581296 0 -0.0252386 -0.067215 0.104857 0.0172165 0 0.0200972 
0 0 0.0957975 0 0 -0.0915499 -0.109049 0 0 0 0 0.0706444 0 -0.099054 0 0 -0.0607361 -0.0601559 0.1111 0 0 0 0.0596244 0 0.0438532 0.0263411 0 -0.0721169 -0.0598017 0 0 0 0 0 -0.0870137 -0.102149 0 -0.0513161 0 -0.00719528 -0.0860915 -0.0845027 -0.094392 0 0 0 -0.0130712 0 0 0.00985327 0 -0.0435786 0 0.0852029 0.0391656 0.0960471 0 -0.0668378 0.088782 0 0 0.106657 0 0 0 0 0 0 0 0 0 -0.0207769 0.0872049 0.0737512 0.10206 -0.0889981 -0.0608221 0 0.071112 0 0.0483251 -0.0183191 0.0844039 0 0.0966688 0 0.0583949 -0.0249029 0.0481205 0 0 0 0 0 0 0.0696311 0.0619165 0.100889 0.079921 0.00989314 
0 0 0 0.103251 0 0 -0.0701092 0.035177 0 0 -0.0427976 0 0.0925278 0.0602201 0.0381667 0 0 0 0 0.0695266 0.0649192 0 0.0837662 0 0 0 0.092279 -0.0575632 -0.0241615 0 0 0 0 0 -0.0987511 0 0 -0.0781105 0 0 -0.0142514 0 0 0.0767147 0.104882 0 0 0 0 0 0 0 -0.0423017 -0.0631543 0 0 0 0 -0.0184778 0 -0.0650007 0.108503 0 -0.0173176 0.00298414 0 0 0 0 0 0 0 0.00086246 -0.0849267 0 0 -0.0885336 0 -0.00826035 -0.0631241 -0.0352518 -0.0917388 0 0 0.100451 -0.0108546 -0.0813569 0 -0.0126006 0 -0.0938554 0.0246047 -0.0622775 0 -0.106344 -0.0546293 0 -0.0575035 0 0.0188135 
-0.104477 -0.0485489 -0.0264752 -0.0609569 -0.0635684 0.0195926 0.000703093 0 0.0233523 0 0 0.0671649 0.0778684 -0.0906449 0 -0.0365796 -0.0208812 0 0 -0.0331238 -0.0638914 0 -0.0132795 -0.0771154 0 0 0 0 0 0.062019 0 0 0.103824 0 0 -0.0718541 0.0735376 -0.050691 -0.014631 0.0388673 0.0467557 0 0 -0.0383036 0.0676622 -0.0530384 0 0 -0.0742245 0 -0.0194182 -0.0554037 -0.110305 0.0390873 -0.0117541 0 0.0409023 0.0516934 0 -0.0131197 0.0956206 0 -0.105941 0.0161021 0 0 -0.0201599 0 0 0 0 0.0999149 -0.0552289 -0.0530537 -0.1087 0.0542352 -0.0948086 -0.0995965 0.0928089 -0.0193513 0.08316 0.0890804 0 0 0 -0.0812931 0 0 -0.0723995 0 0.0585972 -0.034574 0 0 0 0.108474 0 -0.0087346 0 0 
-0.0208118 -0.0261653 0 -0.0486537 0.0254306 0 0 0 0 0.018163 0 0 0.0478676 0.0459606 0 -0.097313 0.00793925 0.0595959 -0.0612072 -0.0282898 0 0.0571137 0 0 0.0303708 0.0510157 0.000946517 -0.0346811 0 0 -0.0119248 0.0168706 0.0916658 0 -0.0833484 0 0 0.0350481 0.0439127 0 0 0.0638719 0 0 0 0.0769148 -0.0469467 -0.0986733 0 0 0.0900171 0.0415375 0 0 0 -0.0557643 0 0 0.0261023 -0.0793122 0.100873 0 0.053176 0 0 0 -0.0673748 0 0.0104865 -0.0879876 0.041896 0.0809344 -0.00265173 0 -0.0909975 0 0 0 0 0 0.0837895 -0.0600812 0.0866447 0 0 0 0.0749513 0 0 0 0.0713647 0.104493 -0.0173666 0.0851253 0 0.0786243 0 0.0104094 0.0233844 0.0308055 
-0.00380088 0.0430391 0 0 0 -0.0291472 -0.0998206 -0.00219136 0.074969 -0.109861 0 0.0755667 0 0 0 -0.0584193 0.0276823 -0.101598 -0.0589919 0 -0.0882676 0 0.0986891 0.100221 0 0 0 0 -0.102385 -0.080112 0 0 0 0.0518559 -0.0103747 0 0.0877806 0.00845144 0 0 0 0 0.0843296 -0.0631474 0 -0.0744952 0 0 0 -0.0600342 0.0275468 0 -0.0823835 0 0 0 0.0220661 -0.00429516 -0.0877254 0 -0.106504 0.0877882 0.0379454 0 0 0.0714167 0 0 -0.0101357 -0.101696 0 -0.0187046 0 -0.0547791 0.0444542 0.0370115 -0.0500494 -0.00467002 0.01975 0 0 -0.0211411 0 0 0 0.0839792 0.0823128 -0.0520009 0 0.0960906 -0.0780831 0 0 0 -0.0689114 0.0189831 0 0 0 0.0601474 
0 0 0 0 0 0.0825544 0.0801704 0 0.0509143 0 0.0399081 0 0 -0.0401793 0 0.0500962 -0.107579 0 0 -0.0224797 0 -0.0739011 -0.0740919 0 0 0.0306448 0 0 -0.0342226 0 0.0630597 0 0 0.0937234 -0.0507846 0 0 0.00314052 0.093929 0.0366555 0.0983369 0 0 0 0.00308587 0 0 -0.0696198 0 0.0077264 0 0 0 0.0616375 0 -0.108302 0 0 0.0087078 -0.0752496 0.00635355 0 0 0 0 0 0 0.0631512 0 0.0968818 0 0 0.0305367 -0.0101413 0.0754018 -0.061634 0 0.059331 -0.0390076 -0.0958565 0.0591067 0 0.0100551 0 0.0701204 0 0 -0.0426576 0 0 0 -0.0862632 0.069757 0 0 0 0 0 -0.101714 0.0641174 
-0.0453897 0.0797279 -0.00967334 0.0237721 0.0228327 0 0 -0.107542 0.055509 0.0310592 0.0363478 0 0 0.0421921 -0.104965 0.0128085 0.0907106 -0.0126934 -0.0663822 -0.0525308 -0.00608894 -0.0705414 -0.046435 0.0398056 -0.0376396 0 0.104988 0.00498144 0.033251 0 -0.0408811 0 0.0834961 0 0 0 0 0 0 0.0302937 -0.0953286 -0.0525571 0 0 0 -0.0873086 -0.0550335 0 0 -0.00212472 0 -0.0571999 0.0783094 0 0.0502367 0 0 0 0 -0.030008 -0.086949 0.079319 0.0469881 0 0 0.0735237 0.0618486 0 -0.0119058 0.107853 0 -0.0609158 0 0 -0.0261511 -0.0811318 -0.106588 0.102814 0 -0.0957036 0.102015 0 0 -0.0882941 0 0 -0.0223289 0 0 0.0760558 0.0268421 0 0 0 0.0191179 0.0612217 0 0 0 0.0887067 
0 0 -0.107443 0 0.0140629 0.0582979 0 -0.0244812 0 0.00271738 0.0143141 -0.0998361 0 0 0.0230455 0 0 -0.0541292 0 -0.0449565 -0.0314917 0 0 0 -0.104682 0 0 -0.083418 0 0 -0.0723839 0 0 0 -0.0676693 -0.0531812 -0.0557405 0.0865864 -0.0994256 0 -0.0328133 0 0 0 0.00856988 0 0 0 0 0.0234172 0 -0.0408755 0.0836589 -0.043474 0 0.100878 0.105947 -0.0567667 0 0 0 0.029523 0 0 -0.0117686 0 0.0631282 0 0 -0.0137774 0 0 0 0.0391881 -0.0684403 0 0 0.0965918 0 0 0 0 0 0.03897 0.0217781 -0.110034 0.0613334 0.0496975 0 0.00742423 0 0.100137 0.0532437 0 0 0.083534 0.0920562 0 0 0 
0 0 0 -0.0941307 -0.0698313 -0.0181934 -0.0966842 0 0 0.0560327 0 -0.105031 -0.0509943 0 0.10098 -0.0651798 0.00592144 0.0116609 0 -0.0884942 0 0 0 0.037732 0 0 0 -0.0139027 0 0 0 -0.0498325 0 0 0.0716916 0 0.0611027 0 0 -0.0028407 -0.0774288 0 -0.0543542 0 0.022228 0 0 0 0 0 -0.0864626 -0.108536 0 0 0 0 0 0 -0.074057 0 -0.0828191 -0.0925303 0 0 0 0 0 -0.0633253 -0.0905165 0 0 -0.068089 -0.0941042 0 -0.0910711 -0.0863204 0.00813689 0 -0.0564065 -0.00447563 -0.0894322 0 0 -0.0490176 -0.0395106 0.0111943 0 0.0322466 0.109682 0 0 0.0997424 0 0 0 -0.00454347 0 0 0 0.109803 
-0.0921197 0 0.0130135 -0.0966679 0 -0.0246096 0 0.0956921 0 0 0 0 0 -0.0674675 0 0 0 -0.108922 -0.0966866 -0.0389024 0 0 0 -0.0060909 0 -0.108512 0 0.0245741 0 0.057286 -0.0242913 -0.0440179 0 0 0.0904368 -0.0338643 0 -0.0312176 0 0 0 0 0 -0.0185742 0 0 -0.0487947 -0.0351926 0 0.0509079 0.0488488 0 -0.0520445 0 0 0 0.0021472 0 0.106893 0 -0.00173229 0.0480946 0 0 0.0553031 0.0936184 0.0491473 0 0 0 0 0.0368533 0 0 0 0 0 0 0 0.0392235 0.0405724 0 0 -0.0787531 0.110692 0 0.0172405 0.0946595 0 0.032238 0 0 0 0 -0.0068594 0 -0.104631 0 0 0.0821948 
0 0.0783814 0 0.0186097 0.0390322 -0.0931869 0 0 0 -0.111302 0.0444111 0 0 0 0.0953077 0.0935012 0.000839651 0 0 0 0.0948038 0 0 -0.0860808 -0.0313428 0 0.100684 -0.0276113 0.0987513 -0.105011 0 0.0390625 0 0 0 -0.0478667 0.07433 0.110226 0 -0.0800282 0 -0.0754757 -0.0231137 0 0.0216333 0.089563 0 0 0 -0.0971136 0 0 0.0299061 0 0 0 0.0478014 0.0512106 0 0 0 0.0977445 0 0 -0.106162 0.0691308 0.0564018 0 0.0295952 0 -0.0100289 0.058978 0.0304331 -0.0397519 0 0 0.0623337 0 -0.0484608 0 0 0.0434335 0.00433654 0 0 0 0.111367 0 0.0836466 0 0.0402121 0 -0.0123788 -0.0773433 0 -0.0628109 0 0 0 -0.0267691 
0 0.0997195 -0.0198113 0 0 0.105337 0.0691553 0.0364647 0 0.0499979 0 -0.0580665 0 0 0 0.0699831 0 0.0699953 0 0 0 0.0500656 0 0 0 -0.0998278 -0.0876724 0.0135303 0 0 -0.0950099 0 0 0 -0.0696424 0 0 0 -0.0775304 0 0.104034 0 0.0535264 0.0103282 0 0 -0.0822204 0 0 0.0636216 -0.0768411 -0.017561 0 0 0 0 0.0127895 -0.0379485 0 0 0 0.0840553 0.108734 -0.0694877 0 0 0 0.0125562 0 0 0 0.0765871 0 0.0277162 0 -0.0564339 0 0 0.0531432 0 0 -0.0892911 0 0.106333 0 0 0 0 0 -0.0878051 -0.00528457 0 0 0 0 0 0 0.0131217 0 0 
0 0 -0.10175 0 0.0250015 0 0.0362739 0 0 0.0466946 0.0780095 0 0.101773 0 0 0 0 0 0 0 0 0 0.0999925 0 0 0.0250482 0 0 0.00553856 0 -0.0697564 -0.0242379 -0.00727892 -0.0672146 0 0 0 0.0145623 0.102603 0 0 0.0358553 0.00597376 -0.0475214 0 0.0890956 0 0.0474189 0.020656 0 0 0 0 0.0709724 0.015279 0 0 0 0 -0.00200071 0.0952283 0 0 0 -0.0956983 0.0844519 0.068009 0.0613603 -0.00217129 0.0659034 0.028708 0.0077498 0 -0.0900318 0 0 -0.0468194 -0.0628869 0.0882494 -0.0896398 0.0518562 0 0.09565 0 0.0520902 0 0 0.0750239 0.0516722 0.109207 0 0.108839 0 0 0 0 0 0 0.0841603 -0.0565367 
0.0500408 0.0567891 0 0 0 -0.0725013 -0.0383516 -0.0328396 0 -0.0927362 -0.0495632 -0.11042 0.0677692 0 0 0 0.0368217 0 -0.0466354 0 0 0.0276805 -0.0157891 0.0636765 0.110805 0 0 0 0.0901224 0.0310612 -0.00208971 0 0 -0.0212166 0.0170763 0 -0.0576709 0 0.00726257 0 0 0.110967 0 0 -0.105956 0.0703727 0 0.0534784 -0.104453 -0.0175978 0 -0.106584 -0.067089 -0.00102149 0 0.102576 0.0240241 0 0.107311 -0.089753 0 -0.0948741 -0.0776313 0 -0.0269501 -0.0330093 0.0274841 0.0183618 0.0552359 -0.0321535 -0.104453 0 -0.0660763 0 0 0.0135218 0 0 -0.0250169 0.0166659 0 0 0 -0.0713793 0 0 -0.0519559 0 0 -0.107828 -0.0102471 0.00693684 0 -0.054929 0 0 0 0 -0.0481735 -0.101892 
-0.0971702 -0.0815126 0 0 0.0696965 0.0173934 0.0486439 0 0.0150498 0.0592207 -0.0875095 0.00167108 0.0112286 -0.0297139 0 0.103191 0.109908 9.28511e-05 0 0 0.042245 0.0436895 -0.0179494 0.0772495 0.109813 0.0457442 0.0653322 0.0747752 -0.0593509 0 0 0.00753339 0 -0.000844626 -0.0842076 0.00284467 0 -0.0785751 -0.0904527 0 0 0 0 0 -0.0871271 -0.0319635 -0.103296 0.0383639 0 0.0756112 0.0554824 0.10038 0.0823 0 0 0 -0.0711731 0 0 0.0203982 0 -0.0880039 0 0 0.0431551 -0.0861062 0 0 -0.0664611 0.00327841 0.0694661 -0.0192741 -0.0798728 0.0498409 0 -0.06732 -0.0780754 0 0.0538916 0.0658789 0 0 0 0.0144661 0.0487764 0 0 0 0 0 -0.036101 0 0 0.0784814 -0.103918 0.106981 0.0610023 0 0 0.0397915 
0.0852504 -0.0164341 0 0 -0.0405412 0.0556561 -0.0100033 0 0.0523032 0 0 0 0.067079 0 0.0747296 0.0235667 0 0.0913675 0.0266903 0.0980564 0 0 -0.0546355 0 0.0163921 -0.0789796 0.0321995 0 0 0 0.0549326 0.0441059 0.0848604 0 0 0 0.0901951 0 -0.0525644 -0.0163532 0 -0.00266143 0 -0.00984083 -0.087679 -0.086501 0 0.0945667 0 0.0739383 0 0 -0.0927643 0.0787354 0.0856922 0 0 0 0 0 -0.100872 0 0.00803531 0 0 -0.028014 0 -0.00294614 0 -0.0199482 0 -0.0575787 -0.00758819 -0.0571153 0 0 -0.0888059 -0.0936729 -0.105462 0.102913 0.0118968 0 0.102973 0.0230331 0 0 0 -0.0544904 0 0.0843657 0 -0.103123 0 -0.0486695 0 0.109761 0 -0.0954808 0 0 
0.03373 0 0 0.109389 -0.0230932 0.0307139 0.0744427 0 -0.111556 0.101571 0 0.110017 0 0 -0.0151121 -0.0520293 0 -0.0359412 0 -0.0834872 0 -0.00756766 0 0.0597561 0.0731468 0 0 0 0 0 0 0 -0.0173397 0 -0.0201176 0 0 0 0.0700343 0 -0.0774757 0.0794254 0.0692216 0.054607 0 0.0027943 -0.0753666 0 0 0 0 0 -0.0349637 0.0909164 -0.0253531 0 0.0967104 0 0.0551759 0 0.0892691 0 0 -0.048902 0 -0.0847917 -0.0142926 -0.0918968 0.0883553 0 0.0515869 -0.00423743 -0.0436391 -0.0598355 0.0598966 0.0627288 0.0920509 0 0 0 0 0.109626 -0.0822206 0 -0.0987508 -0.107612 0 0.0923119 0.0763759 -0.0101705 -0.00215225 0.0839275 0 0 0.0864561 0 0 0.0944634 0 -0.0768444 
0 0 0 0.00414822 0 0 -0.0402551 0 0 -0.103004 0.0843869 0 0 -0.0554152 0 0.0295036 0.106703 -0.040656 0.048477 0 0 0 0.110371 0.077742 0.076642 0 0 0 0 -0.0231251 -0.0284654 0 -0.086613 0 0 0 -0.0937717 0.0473087 0 -0.00218777 0 0.0850052 0.0669188 0 0 0 0.0778472 0 0 0 0 0 0 0 0 0.0882962 0 -0.0349791 0 0 0 0 0 0 -0.0531129 0 -0.0796766 0.0582955 -0.0319582 -0.0206811 0 -0.0717165 0.0531846 0 0 0 0 -0.0370693 0 0 -0.0764618 0 -0.0928173 -0.023033 0 0 -0.0496812 0 0 0 0.109899 0 -0.0673493 0 -0.0187951 -0.0263837 -0.0298367 -0.0333735 0.0236694 0 
0 0.0400749 0 0 0.0834887 0.0834638 0 0 0 -0.00459688 0.0639913 0.0963501 -0.0853885 0 -0.101428 -0.0128538 -0.0720499 -0.0866022 0.0620247 0.0103959 0 -0.023645 0.0760226 -0.0050329 0.111183 0 -0.00498297 0.017909 0 0.014551 0 0.103967 0 0 0 0 -0.0666832 0.0995255 0.0180253 0 0.0105593 -0.102625 0 0 -0.0251611 0.0535881 0.0937325 0.0582344 0 0 0 0 -0.0463855 0 0.0447275 0.0517856 0 0.0397422 -0.0963976 0 0.0257305 -0.031798 0.000335053 0 0 0 0 0.0812141 -0.0374265 0 0.0353589 0 0 -0.0104949 0.0337009 0 0.0117452 0 -0.0148692 -0.0371952 0 0 -0.0874093 0.0875111 0 0 0.0219743 0.044638 0 0.0868689 0.10599 0 0.094963 0 0.0170951 0.073858 0.0142145 0.013971 -0.0386271 0 
0.0485489 0 0 0 0 0 -0.110802 -0.0790158 0 -0.103716 0 0 0 0 0 -0.0744604 0 0.110966 -0.081972 0 0 0 0 -0.0922409 0.0282899 0.0323787 0.00388953 0 0.0945176 0 0.0326387 0 -0.0348195 0.0882139 0 -0.0978153 -0.079532 0 -0.0499351 0 -0.0275999 0 0 -0.021657 0.0130466 0 -0.0946327 0 0 0 0 0.0325236 -0.0642175 0 -0.0875724 0 -0.0738189 0 -0.0606677 0 0 0 0 0 0.0225987 -0.100752 0 0 0 0 0 -0.0313488 0 0 0 -0.0537288 0 -0.0801703 0 0 0 0 0 -0.0639944 0 -0.00197641 -0.0391091 -0.0457085 0 0 -0.0416081 -0.0693889 0.00383646 -0.108872 0 -0.110038 0.0564713 0.00635304 0.0965651 0 
0 -0.039743 0 -0.023567 0 0.0488927 0 0.0577952 0 -0.0953817 0.106713 -0.0269729 0 0.00171044 0.0568009 0 0 -0.016982 0 0.0109825 0 0.0828083 -0.0310742 -0.0059444 0.108134 0 0 0 -0.0668025 -0.0422518 0.0115521 0.0458863 0 -0.0497314 -0.0908493 0.0669241 0 0 -0.0968487 0 0 0 0.00361115 0.0292692 -0.0698026 0 0.0961266 0 0 -0.0537752 0 0 0 0.0219109 -0.105244 -0.0582259 0 0.0570806 0.0961106 -0.0963585 0 -0.0611448 0 0 0 0 0 0 -0.0938523 -0.0245796 0.0143136 -0.0836584 -0.0699215 0 0 -0.0277823 0.0769886 0 0.104944 0 0 0 -0.0592159 -0.0118545 -0.084435 0 0 0.0729738 0.0632662 -0.0556951 0.0339849 0.0804623 0 0 0 -0.00574561 0 0 0 0 
-0.0981273 0.0909848 0.0629855 0 0.106731 0.0347073 0 -0.00388773 0 0 0 0 -0.0330775 0 -0.0690141 0 0 0.0994985 -0.0795226 0 0 -0.0428362 0 -0.0640875 -0.0908506 -0.0933312 0 0 0 0 -0.0777152 0 0 0.0263236 0.00491553 0 0.11016 0 0 0 -0.037322 -0.0801573 -0.00102459 -0.0521523 0 0 0 0 0 0 -0.100019 -0.0680272 0 0.0216744 -0.058647 0.0835956 0 0 -0.0480168 0 0 0.070787 0 0 -0.00207493 -0.0158105 0 0 0 0 0 0.103561 0 0 0 0 0.0572078 -0.0457309 0.100332 0 0.0709498 0.0863862 0 0.0456043 0.0321224 0 0.0889728 0 0.0488311 0.0629898 0.0264897 0.045726 0.090515 -0.085845 0 -0.020007 0 -0.0391542 -0.0513365 -0.0983828 
0 0 0 -0.107422 0.0287514 0 0 0 -0.108943 0.0718853 -0.00707046 0.041923 0.101394 -0.103539 0 0.0681213 0 0 -0.07171 -0.103462 0 0 0.020399 -0.0155036 0 0 0 -0.10973 0.0851942 0.111541 -0.0318026 0 0 -0.00202713 0 0 0 0 0 0 0 0 0.0176101 0.0535947 0 0 0.069004 0.0149583 0 0.0167969 0 -0.0210482 0 0.058718 0 0 0.0479311 0 -0.018025 0.00466815 0.0504135 0 -0.0435453 0.0459337 0 0 -0.00160256 0 0 -0.00602636 0 -0.0542812 0.0517874 0 0.101746 0 0.038108 -0.0824308 -0.100442 0.0561563 -0.105243 0 -0.0366924 0 -0.0748499 0 0.0525727 0 0 0 0 0 -0.0482546 0 0 0.0671062 0 0 0.105094 0 
0 0.0144435 0 0 -0.104758 0 -0.0103286 0 0.0619667 0.0733688 0.0703481 -0.0213103 0 0.042004 0 -0.0705282 -0.00822639 0 0 0 0 -0.010049 0.0936467 -0.103178 -0.0828073 0 0.0603369 -0.0710417 0 0 0 0 -0.0768344 -0.0159786 -0.0703192 0 0 0 0.110319 0 0 0 -0.0804907 0 -0.0243474 0 0 -0.0395936 -0.0468179 0.081488 0 0.0259639 -0.0678566 0.0793252 0.0258679 -0.0197805 0 0.0360477 0 -0.0343939 0 -0.00331572 0 0.0839057 0 0 0.00221836 0.0415018 0 0.032382 0 0 -0.0316658 0.0990648 0 0.108071 0.0708735 -0.0992338 -0.0256763 0 -0.0230651 0 0.0530574 0 -0.0315573 -0.000776337 0 0 0.0741916 0 0 0.0173366 0 0 0 0 0.00133464 0 0 0 
0.0275814 0.053837 -0.0958296 -0.0243363 0 0 -0.0743295 0.0834615 -0.0240785 0.0362197 0 -0.0489283 0.0495132 0.107256 0 -0.00297773 0 0.0615029 0.0220245 0.106943 0.00447764 0 0 0.11083 0 0.00996784 0 0.0974582 0 0 0 -0.0517356 0.0291141 0 0 0.00724796 0 0.00169107 0 0 0 -0.0315468 0 0 0.0843689 0.10312 -0.0416579 0.0379165 -0.0125919 0 -0.053184 0.0879098 0 0 0.0661672 -0.0777267 0 0 0 0 0 -0.104739 -0.0976784 0 0.0982593 -0.0323966 0.0338298 -0.0117654 -0.0434698 0 0.0149151 0.0691314 -0.0689567 0.08973 0.0179989 0 0 0 0 -0.110357 0.0946034 0 -0.040913 -0.0238128 0 -0.101552 -0.0596543 0 0 0 0 -0.0375227 0 0 0 -0.0194494 0 0.0794206 -0.0423663 -0.0699446 
0.0880843 0 0 -0.0162541 0 0 -0.0721477 0.0293864 0 -0.00670205 0 0 0 -0.103952 0 0.00528839 0.105083 0.0344853 0.0901614 0 -0.0625617 0 0 0 -0.0256733 0 0 0 0 -0.0858507 0 0 0 0 -0.00885935 -0.0400502 0 0 0 -0.0443165 0 0 0 0 0.0690409 0 0.0596217 0 -0.0776205 0 0 -0.0380021 0 0.0914514 0 -0.0346755 0.0661549 0.0656068 0 0.030845 0.0217916 0 0 -0.0181685 -0.0291863 -0.0840108 0 0 0 -0.0437396 0.0946638 -0.0302618 0.00970967 -0.10903 -0.105987 0 0 -0.0110656 0 0 0.0553036 0 0 0 -0.0614732 0 -0.0339152 0 0.011993 0 0 -0.105765 -0.020486 0.0131436 0.047436 0.108158 0 0 0 -0.0109062 
0 0 0.065748 0 0.055086 -0.0706361 0.0234735 0.0573986 -0.0896014 0 0 0 0.0247563 0 0 0 -0.0758081 -0.0984719 0 -0.104977 0 0 0 0 0.0604125 0 0 0.0672401 0 0.0664983 0 0 0 0 -0.1069 0 0 0 0 -0.0256951 0.0517183 -0.0610575 -0.00600612 0 0 0 0 0 0 0 -0.109379 -0.082887 -0.00731048 0 -0.0304135 0 0 -0.0321574 -0.0599763 0 0 0 0 -0.0982697 0 0 -0.0912589 0 -0.0354777 0.0503634 0 0.0525527 -0.0474382 0 0 0 0 -0.00478963 0 0 0 0 0.0658726 0.0983919 -0.0145544 -0.00591419 0 0 0 0 0.0904869 0 -0.0860397 0 0.1099 0 -0.0361769 0 -0.101099 0 
-0.0801967 0 -0.00770211 0.0989407 0 0 0 0.033477 0 0 0 -0.0630885 -0.0782257 0 0 0 -0.0609177 0 0 0 0 0.0249443 0 0 -0.0310414 0 0 0 0 -0.0685513 0 0 0.0670411 0 0.0810561 0 0 -0.0203545 -0.0206184 0.0309914 -0.0129129 0 -0.0117415 -0.0421435 0.0151576 0 0 0.0420102 -0.0200615 0.0635447 0.0499534 -0.0194454 -0.0114958 0.102341 -0.109251 0 0 0 -0.0660124 0 -0.108319 0 0 0.0877228 0 -0.0779881 0.0414999 0 0 0 -0.0593728 0 0 -0.0954737 0 0 0 0 -0.0220202 0 0 0 -0.00985227 0 0 0 0 0.0258761 0 0.0594568 -0.031462 -0.0168867 0.00361049 -0.0631599 0 0 0 0.011914 0.0963365 0 
0 -0.0115135 0 0.090203 0 0.0283564 0 -0.0573363 0 0 0 -0.0101285 0 -0.0266317 -0.0285277 0 0 0 0 -0.0601226 0 0 0 0.0685569 0 0 0 0 0.100902 0 0 -0.0523273 -0.00660728 0 0 -0.104109 -0.0433675 -0.0541278 -0.0108636 0 -0.0526165 0.110775 -0.0651862 0.0705241 0 0 -0.0905151 0 -0.085506 0 -0.0262645 0 0.0350976 0.0542966 0.10299 0.111293 0.100908 0 0.0540298 0 0 0 0.0059305 0.00873581 0 0.0134147 0 0 -0.0141207 0.0850659 -0.0281767 -0.00528757 0 -0.0742993 0 -0.0745747 -0.0124747 0 0 0 0 0 -0.0996889 0.0195294 0 0 -0.0775384 0.0400838 0.0248987 0.0149537 0.00494637 0 0.105359 0 0 0 0 0 0.0324521 0 
0 0 0.0895161 -0.0582448 0 0.0739398 0 0.10797 0 0.0378581 0 0 0 0.0955528 0.00211013 0 0 0 0 0.0720952 -0.0982922 0 0 0.081315 0.0329441 0.00635337 0.09701 0.0155333 0 0 0.0197007 0 0.0725125 -0.0755305 0 -0.097756 -0.0353199 0 0 0 0 0 0 0 0 0.0533463 0.0694625 0.0100305 0 0 0.0367463 0 -0.0551218 0 -0.0941781 -0.0364645 -0.0425283 0.0997658 0 0.0897268 0 0.0929645 0 0.0719172 0.0823731 -0.0717098 0 0.0947627 0 0.0199401 0.10642 0 0 0.0937778 0 -0.0387304 0.0863699 0 0 -0.0723754 0 -0.0909797 -0.0779658 0 0 0 0 0 0 0.0521964 -0.056702 0 0 0 0.0502346 -0.092405 0.0810882 0.0422471 0 0 
0 0.0806623 0 0.101251 0 0 0 0.0162682 0 0 -0.0291699 0 0 0 0 0 -0.109995 0 -0.0908309 -0.0945677 0.0267418 0 -0.0899017 0 0 0.0248298 0 -0.0748782 0 0.0529588 -0.0486796 -0.0217618 0.0381008 0 -0.0393596 0.0331339 -0.0963057 0 0 0 -0.0553491 0 0 0 0 0 0 0 -0.10044 -0.028699 0 0 0.0734833 0.068516 0 0 0 0 0 0.0935489 0 0.035852 0 0.0908952 0.0813457 -0.0917599 0 0 0.0749222 0 0 0.0454237 0 -0.0874361 0.0321685 0 -0.00566192 0.0988011 0 0.0807812 0 0 0.10535 0 0 0.0952273 0.0670809 0.0246898 0.0685154 0 0.0219781 0 -0.0930597 0 0 0 -0.109176 -0.0201578 0.0737325 0 
0 0.111296 -0.0475452 0.0598612 0.108836 0 0.10243 0 0 0 0 -0.0302145 0.0211167 -0.000475029 0 0 0 -0.027581 0 0 0 0 0 0 -0.100121 0 0.0713094 0 -0.0305665 -0.0192508 0.0720275 0.0254427 0.00991084 0 0.109774 0.0333397 -0.106471 0 0 -0.00200415 -0.10994 0 -0.0193597 0 0 -0.0948377 -0.0368505 -0.00132571 0 -0.040867 0.0154235 0 0.0951599 -0.00785966 0.0677892 0 0 -0.0726543 0.0866404 0 0 -0.0679016 -0.0339643 0.0458246 0 -0.102595 0.0350548 0.070481 0.0484658 -0.0195793 0 0.0148702 0 -0.0289094 0 0 0 -0.0441139 0 0 0 0 0.00880399 0.0794863 0.00422303 0 -0.0268456 0 0 0 0.0649415 -0.0976074 0.0874666 0 0.108246 0.0941735 0 0 0 -0.0171049 
0.0891014 -0.0339263 0 0 0.0409652 0 0.104568 0 0 -0.0307841 0.0744162 0.0251443 0.0746534 -0.0110647 -0.0576706 0.0451676 0 0.0864598 0.00502611 0 0.0826686 0 0 0 0.0353955 0 0 0 0 -0.0698082 0.0566154 0 0.0152362 0 0 0.0633625 0 -0.0030387 0 -0.0281478 0.0376558 0 0 -0.0253953 0.0254154 -0.017914 -0.0729457 0 0 0 0.0798676 0.01377 -0.0188949 0 -0.0147234 0 0.0725569 0.00411513 -0.0735906 0 -0.0377461 -0.0715398 -0.0102431 -0.108811 0.045809 0 0.0703337 0 0 -0.083497 0.0874185 0.0308684 0.106022 -0.0271341 0.0545902 0 0 0.0447575 -0.0567465 0 0.10325 -0.0257626 0 0 0 0.0758974 0 0 0.0174437 0.00069098 0 -0.0800095 -0.0934137 0 0.0851655 0 0.0342248 -0.0761406 0.110436 0 
0.102116 -0.102412 -0.0844496 -0.090764 0 0.00725775 0 -0.0897864 -0.0928172 0 -0.0519935 0 0 0 0 0 0 0 -0.0122048 0.0368714 0 0.0274191 0 0.012405 0 0.0332099 0 0 0 0 -0.0493187 0 0 0 0.047959 0 0.00965524 0.0432067 0 0 -0.0501825 -0.105055 0 0 0.0380389 0 -0.0692366 0 0 0 -0.103122 0 -0.040872 0 0.0668622 0.0571527 0.0337483 0 -0.0346138 0 0.0465976 0.0888834 0 0 -0.0245242 0 0.0218139 -0.0387934 -0.0651807 0 0 -0.0783742 0 0 0.02423 0 0 -0.0145798 0.0398974 -0.0279584 -0.00259602 0.0747137 0 0.0927785 0.0677532 -0.0637636 0 0.0375982 0.0321412 -0.0534065 0.104775 0.107724 0 0 0 -0.0260066 -0.0149078 0 -0.0290775 0 
0 0.0842881 -0.084723 0 0 0.0465158 0 0 -0.00501985 0.00838322 0 0.00158897 0 -0.0925441 -0.0402254 -0.0589584 -0.0506884 0 0.0318029 0 0 0.0954709 0 -0.0173873 0.0781119 0.0383653 0.00167383 0 0 0.086488 0 0.064963 0.0306707 0.012334 0 -0.100552 -0.0495369 -0.0239953 -0.00808195 0 0.0265972 0.0397296 0 0 0 0 -0.0410368 0 -0.0309797 -0.0759752 0.0808939 0.011337 0 0 -0.0256108 0 0 0 0 0.109636 0 -0.056385 0.0260372 0 0 0 0.0160649 -0.100403 0.0818201 0 0 -0.0391474 0 0.0837584 -0.0286528 0.018058 0.0404144 -0.00813576 -0.0590227 -0.0532746 -0.0681063 0 0.0518612 0 -0.0436428 0 0 0.104893 0 0 0 0 -0.0184022 0 0.0645138 -0.032637 -0.0250658 0 -0.0582177 0 
0 0 0.0754871 0 0 0.0959107 0 -0.104154 0.0971394 0 0 0.111476 0 0 -0.0238528 0 0 0 -0.0297544 -0.0838418 0 0.102115 0 -0.0504732 0 0.111151 0.00777858 0.0933331 0.0944154 0.0159317 0 0.0158391 0 0 0.0151685 -0.0682056 0 0.0136088 0.0891284 0 0 0 -0.0874445 0 0 0 0.0449197 0 0 0 0.0929759 0 0 -0.0782034 0 -0.0612087 -0.0569949 -0.0801266 -0.0558595 -0.0965851 0 0.100079 0 0 -0.0809922 0.0601957 0.0666521 0 -0.0182327 0 0.0873549 0 0 -0.0714392 -0.0520572 0.0221225 -0.051918 0.109529 0 -0.0803398 0.006026 0.0361384 0 0 -0.0327124 0 0 0.0688927 -0.0658156 0.0820762 0.0363636 0.023709 -0.0723983 0.0260347 0.111569 0 0 0 0 0 
0 0 0 0 -0.00517381 -0.0735124 -0.0733437 0.0746908 0.0550637 -0.108115 0 0 0 4.93739e-05 0 -0.0854848 0 -0.0569183 -0.00416686 0 0.038664 0 0 0 0 -0.0802334 0 0 0.0478389 0 -0.00866629 -0.00560786 0.0681368 0 -0.0433827 0 -0.0172986 -0.013839 0 0.0935629 -0.0197247 0.0677878 -0.0848464 0 -0.053511 0.0864584 0.0430582 0 -0.0771769 0.00138 0 0.0904538 0.0723005 0 -0.056567 0 0 0 0 0.00730073 -0.0941667 0 -0.0674443 0 -0.00938652 0 0 0.0700571 0 0.104449 0 0.0572488 -0.00608412 0.0895272 0 -0.0786086 0.0341473 -0.0764996 0 0 0 0 -0.0497038 -0.0952238 0 0 0 0 -0.109737 0.103345 0 0 0 0 0 0 0 0.0848813 0 0 
0 0.0875836 0.0156367 0 0.0639301 0 0 -0.00202862 0 0.0413153 0.105936 -0.0374563 0.0378599 0 0 0 -0.0063252 0 -0.0330127 -0.0372645 -0.0436345 0 0.0835711 0 0 0 0 0 0 0.0121655 0 0.0536975 0 -0.0953276 0.0377315 0 -0.0955851 0.0640908 -0.0154685 0 0.0588358 -0.0350088 -0.104106 0.044966 0.0844946 -0.037902 -0.0106191 0 0.0576738 0.0187737 0.0442023 -0.016292 0.0550856 0.0527458 0 0 0.0386857 0 0 0 0 0.0838505 0 0.00830077 -0.0105002 0 0.0904495 0.0128926 0 0 0 -0.0947431 0.0778078 -0.0401474 0.0266828 0 0.06396 0 0.0485043 0.0582652 -0.0567535 0 0 0 0.0472308 -0.100323 0 0 0 0 0 0 0.0791952 0.0114358 0.0319933 0 -0.000546476 -0.0793626 0.0279455 -0.0234358 
0 0 0 0 0 0 0 -0.0951271 0 0 -0.058595 0 0 0 0 0 0.0270105 0.101344 0 0 -0.0156285 -0.00517213 0 0 -0.0130411 0 0.0787424 0 -0.0152367 -0.109429 -0.106063 0 -0.024116 -0.0477864 0 0 0 0 0.0113389 0.0905346 0 0 -0.00460478 -0.00706193 0 -0.071513 -0.0263328 0 0 0 0.0689666 0.0248438 -0.0729669 -0.103664 0 0 0 0 0 0 0 0 0.0242858 0.0553713 0 0 -0.0135316 0 -0.0439726 -0.10166 0.110414 0.0918203 0 -0.0655915 0 0 0.000292243 0 0.0126718 0 0 -0.0204075 0 0 0 0.0803571 -0.0734301 0.0357452 0 0.0761602 0.0457066 -0.0574796 0.0458805 0 0 0.0514275 -0.0559194 0 0 0 
0.0906512 0 -0.0864596 0.0444264 0 0 -0.0584915 0 0.0680123 -0.0978085 -0.0651456 0 0.0723813 0 0.0327479 0.0834136 0.0225154 0 0 -0.10834 -0.0275895 0 0 0.0717701 0 -0.0263749 0 0.0227941 0 0.0365544 -0.037729 -0.0879971 -0.0747396 0.0674002 -0.0841662 0 0 -0.0189138 -0.0106609 0 0 0 0 0 0 0.0529545 -0.0312701 0 -0.0243611 -0.101711 0 0.0236093 0.103994 0 0.0598257 0 0 0 0.0564767 0.095823 0 0.073712 0 0 -0.072186 0 0.101461 0.0988704 0 0 0 0 0 0.108231 0 0.0571011 0.104397 0 0 -0.0115582 0 -0.027304 0.0813888 0 0.0960004 -0.0771467 0 0 0.0420511 0 0 0 0 -0.0164871 0.0687942 0 0.0143264 -0.0200326 -0.0400281 0 
-0.0417346 0 0 0 0 0 -0.0226456 0.0318363 0 0.0561506 0 -0.0679085 0.0972708 0 -0.0717303 -0.013773 0 0 -0.104624 0 0 -0.0993671 0 0 0 0.0584203 0 -0.0757941 0.0658133 -0.0739665 0.0902876 0 0.0578654 0 0 0 0.019727 0 0.107071 0 0.106838 0.0116026 0.109676 0 0.0346702 0 0.0686472 -0.00481737 -0.00983697 0 0 0 0.0873422 0.061114 -0.0758655 -0.0577899 0.070231 0.0304516 0 0 -0.0605272 -0.00752201 0 -0.0844207 -0.0210706 0 0.0856809 0 0.006897 -0.0522734 0.0161785 -0.101028 0 -0.104629 -0.0705054 0.0417214 0 0 -0.045683 -0.0848442 0 0.0835494 0.00161135 0 0 -0.074978 0 0 -0.105876 0 0 0 -0.108114 -0.0984846 0 0 0 0.106264 -0.0189612 0 
