0.06704 0.0433464 0 0 0 0 0.101925 0 0 0 0 0 0 -0.0286033 -0.0523965 -0.0662131 -0.0168703 0 -0.116825 0 0 0 0 0.0529729 0 -0.116589 0 0 0.0246425 -0.00960591 0 -0.0535221 0 -0.0694268 -0.113517 -0.00985841 0 0 0 0 0 0 0.0604659 0 -0.0658097 0.0976893 0 0.105201 0 0.0116336 0.0786485 0 0 0 0 -0.0443005 -0.113721 0.0533475 0.0855417 0 0 0 0 0 -0.0381362 0.115633 0 0 0 0 0 0 0 0 0.0393017 0 0.0644281 0.0685155 -0.0549497 0.0904232 0 0.0577552 0 0.0605227 0 0.00554649 0 0 -0.036419 0 0.0723992 -0.0350849 0 0.0305216 -0.0233296 0 -0.0232755 0 0 -0.113869 
0 -0.097897 -0.0548107 0.010982 -0.0850205 0.0778459 0 -0.0767828 0 0.113826 0 0 -0.0400456 0.101023 0 0 -0.0866507 0 0 0 0 0 0 0 0 -0.106972 0 -0.0737833 0 0 0 0 0 0 0 0 -0.0078898 -0.026312 0.0347577 0 0.0361436 0.0763302 0 0.0960499 0.00513153 0 0 0 0.0229204 0 -0.0663197 0.101503 -0.0174756 -0.0982294 0 0.0120905 0.0368377 0.0925018 0 0 0 -0.110137 -0.0975623 0 0.0257789 -0.0120448 -0.085314 -0.0635509 0 0 -0.0284848 0.110258 0.0648944 0.0840811 0.0555925 0.0659857 0 0 -0.0778893 -0.112408 -0.0222608 0 0 0 -0.0257926 0 -0.014917 0.0166184 0 0 0 0.0275655 -0.0787623 -0.0250637 0.0810064 -0.0540015 -0.0724948 0 0 -0.0504716 
0.0987554 -0.0901795 0 0.00223761 -0.0348603 0.0996005 0 0 0 0 -0.0737364 -0.0690402 0.0721026 0 0 0.1116 0 0 0 -0.0199402 0 -0.0393944 0.00996517 0 0 -0.0999326 0 0 0 0 0 -0.0821589 0 0 0 -0.105483 0 0 0 0 0.0707753 0 0 -0.0240386 0 0 -0.0957722 0.117656 -0.103174 -0.0103195 -0.100819 0 0 0 0 -0.0231939 -0.0491694 0.0757981 0 0.0944465 0 0 -0.0569725 0 0 0 -0.115333 0.11235 0.0652932 -0.0981636 -0.0944748 0.110813 0 0 0 0 -0.0450273 0 0 -0.0271303 0 0.0808328 0.0973558 -0.0595753 0.043227 -0.0698775 0 -0.0675547 -0.0649504 -0.0311214 0 -0.0385176 -0.056877 0 0 0 0 0 0 -0.0658544 
0 -0.103231 0.0178739 -0.0158304 0 0.0341121 0 0.0781953 0 0 -0.00340151 0 0 0 0 -0.0703498 0.0840128 0 0 0 0 0.097644 0 0.112623 0 0 0.0797348 0.115317 0 -0.0722147 0.0110799 -0.0311322 0 0.0591069 0 0 0 0 -0.0894997 -0.0507612 0.0313175 0 0 0 0.0478459 -0.0400342 0 0 0 0 -0.0995406 0.091488 0 -0.0578539 0 0 0.031633 0 0.0736984 0 0.0367471 -0.0695508 0 0 -0.085217 0.0317281 0.0326521 -0.00270574 0 -0.10326 -0.0393976 0 0 0 0 0.0488251 -0.0345924 0 -0.0791037 0.0886568 -0.0260297 -0.0925016 -0.115221 -0.0486414 0.0339768 0 0 -0.0498507 -0.0719889 0.0627561 0.0677234 -0.0351772 -0.0312485 0.0851152 0 0 0.0331483 0 -0.111091 0.107573 
-0.115222 0 0.0377043 -0.0606301 0 0 -0.0672289 -0.0573141 -0.0424382 0.0336634 0 0 -0.0629558 -0.0729527 0 0.0784053 0 0.085524 0 0 -0.068628 -0.0733258 -0.0502625 0.0361131 0.110192 -0.0138376 0 0 -0.0549221 0 0 0.000489729 -0.0642019 0.105273 0.00594237 0.105521 -0.0379589 -0.0554284 0.0292705 0 0.0972176 0 -0.0761524 0 0.0282196 0.0683176 -0.0363518 0.074472 0.0668822 0 0 -0.0171024 0 0 0 0 0 0 0.0363995 0 0 0.0891274 0.117774 0.0944848 0.0916362 0 0.0417441 -0.0525251 0 0 0.0568091 0.079169 0 0.0926425 0 0 0 -0.0934166 -0.0566019 0 0 0 0.0270047 -0.0263407 -0.0659262 0 -0.0820996 0.102423 0.0969665 0 0 0.0818689 0 -0.0066981 -0.0980351 -0.00127729 0 0 0.106991 -0.00733307 
0.0652331 0 0 0 0 0 0 -0.102965 0 -0.00117005 0 -0.0312671 -0.104487 0.0759253 0.0413096 0 -0.0781774 0.110816 0.012054 -0.0674206 0 -0.047749 -0.060384 0 0 0 0 -0.0995975 -0.109851 -0.0472789 0 0 0 -0.0809761 0 -0.103086 -0.0419711 -0.105613 -0.0677588 0 0 -0.0147701 0.035688 -0.00560638 -0.0313501 0 -0.012738 0.0478599 -0.0260889 -0.0792525 0.0198486 0.0320315 0 0 -0.104126 0.0646189 -0.056257 -0.0210346 0.0161455 0.118179 0 -0.0882679 -0.00712769 0 0 0 0.0927619 0 -0.1047 0 -0.0285095 0.0999483 -0.105828 0 0 -0.0921523 0.107916 0 0.00585202 0 0 0.113939 -0.0253056 0 -0.0101926 0 -0.0356403 0 0 0 0.0305075 0 0.0122461 -0.108294 0 0.0869168 0 0.0766233 0 -0.0357344 
0 0 0 0.0813969 0 -0.0733366 -0.0888868 -0.0418198 0 0.054259 0 0 0.0546697 -0.102427 0 -0.0159553 0.0790044 -0.00829345 0 0 0.0422712 0.103501 0 -0.0106959 0 -0.0168753 -0.0945545 0.0380606 -0.00443611 0.0422752 -0.0865538 0 0 0 -0.000989884 0 0 -0.115178 -0.0916351 -0.109446 0 -0.029118 -0.0664012 -0.0959297 0 0 0 0 0.0636466 0 -0.0122879 0 0 0.104159 0 0 -0.10439 0.0725357 -0.112618 0.0940645 0 0.0383591 -0.0965147 0 -0.0742347 0.0408667 0 0 -0.0828626 -0.0687154 0 0 -0.0283532 -0.041758 0 -0.0279384 0 0 -0.0293195 -0.0352324 0 0 0.0884829 0 -0.0848297 -0.0180243 0 -0.0348952 0.0386067 0.0622186 0 0 0 -0.00576448 -0.040699 -0.0517305 -0.0213692 0 0 -0.0980501 
-0.105219 -0.0314114 0.116581 -0.0860754 0 0.035394 0 -0.044209 0 0.0174568 0 0 0 -0.0910876 0.069573 -0.0655402 0 0 0 0 0 0 -0.0439803 0 0 0 0 0.052947 0 -0.00160156 0.0139812 0 -0.0867717 0.0474196 0 0.0745417 0 0 -0.091472 0 0 0 0 -0.0794683 0.0876796 0.0658772 0 0 0 0.0992428 0 0.0627997 0 0 -0.0441365 0.106725 0 0.0630567 0.0555483 0 0 -0.0427125 -0.10592 -0.0661146 0 0.00547967 0.100488 0 0.0772952 -0.0839193 -0.080691 0 0 0 -0.102943 -0.0473498 -0.088024 0 -0.0932437 0 0 0 0 -0.0470089 0 -0.106801 0 0.111896 0.0160904 -0.0752104 -0.112937 -0.109113 0 0.0418856 -0.0919489 0.0413284 0 0.107863 0 -0.0166507 
0 0 -0.101553 0.0828262 0 0.0932802 0 -0.00883913 0 -0.0766681 0 -0.0675715 -0.0981892 0 -0.0719284 0.0665425 0 0.0561958 -0.108834 0.0113865 0 0 0 0 0 0.0440231 0.07786 0 0 -0.00181511 0 0 0 0.0270515 0 0 -0.0928343 0.000598457 -0.076753 0 -0.0673773 0 0 0 0 0 0 -0.065057 -0.0309256 0 0.0470123 0.00233433 -0.0208439 0.10019 0 0.00820274 0 0 -0.059138 -0.0734783 0 0 0 0 0.0175733 0 0 0 0.070792 0 0 0 0.117599 0 0 -0.108482 -0.0885572 0 0 0 0 0 0 -0.0491084 0 0.00248625 -0.0112874 0 0.0897183 0 0.0730212 0 0 0 -0.0898959 0 0 0 0 -0.0320304 
0 0 -0.0964516 0.0705437 -0.0136078 0.0305397 0.0239215 -0.0119687 0 0 -0.0304856 0 -0.0371823 -0.0602499 -0.0513633 0 0 0 -0.0902457 0 0.042887 0 0 0 0 0.000400949 0.0178773 0 0 0.105961 0 -0.052709 -0.0714442 0 0 0.0378119 0.0339348 0.075185 0.0393486 0 0 0 0 0.102909 0 0 -0.0759737 -0.0100857 0 0 0 0 -0.0851157 -0.0246584 0 0 0.046948 0 -0.0373269 -0.0149813 0.0363605 0 -0.0215994 0.0966756 0.0396193 0 0.0818553 0.043261 0 0 -0.0829016 0 0 0 0 0 0 0.0682898 0.00136482 0 0 0.111855 0 0.00859097 -0.0458743 0.0569 -0.0891559 0 -0.0986016 -0.0370081 -0.0563137 0.00202292 0.0106057 -0.0934895 0.085041 -0.0564213 -0.112446 0 0 0.0198073 
0.00799957 0.101466 0.0522976 0 0.0443346 0 0 0 0 0 0 -0.086591 0 -0.0930811 0 0 0 -0.0521607 0 0.0886666 0.0313893 -0.0561333 0 -0.0728767 -0.0802502 -0.0596541 0.0749364 -0.0744927 -0.10455 -0.013786 -0.0244768 -0.0478027 0.014974 0.053158 0.022523 0.0514799 0 0 0 0 0.027406 0 0 0.0670028 0.0294498 0 0 -0.0039501 0.0219928 0 0.115726 0 0 0 0 0.0776144 -0.0256216 0.0222444 -0.075348 -0.0890275 0 0 0.0345116 0.0226435 0 0 -0.0746372 0 0 0 0.0246868 -0.0757438 0.116994 0 0.0688489 0 -0.0749824 0.0186241 -0.00447754 0 0.0760913 0.0578972 0.0943477 0.0394032 0.008704 -0.0511145 0 0 0 0.00964645 0.0934778 0.103224 -0.0409305 0 0.00229684 0.0158873 0 0.0984999 0 0 
0 0 0.0122257 0 0 0 0.0321779 0 0.0507386 0.097081 0.0353858 0 0.0203997 0 0.0317407 0 0.113952 0.105553 -0.0515366 -0.00911786 0 0 0 0 0 0 0 -0.117939 0 0 -0.0607352 0 0 -0.0682791 0 0 0.0898854 0.0754489 0 -0.0745875 0 0 0 -0.0313178 0 0.105783 0 -0.0443337 0 -0.0440626 0 0 -0.0940008 -0.118077 0 0.0621327 0 0.0338085 0.0549886 0.0432343 0 0.0210344 -0.0573813 0.067333 0.0954994 -0.00463226 0 0 0 0 0.00901569 -0.0599656 0.0141825 0 0 0 0 0 0 0.0609958 0.114948 0.0524467 0 0 0.00748975 0 -0.0152205 0 0 0 0 -0.0751613 -0.0323727 -0.0730858 -0.0469285 0.0459759 0 0.051983 0 0 
0.0488808 0 0 -0.115162 0 0 -0.105153 0.113526 -0.105635 -0.0303455 0 -0.0434657 0 0 0.0765321 0 0.00429826 -0.0975028 0 0.00924236 0 0.112726 0 0.115774 0 0.008101 0 0 0 -0.0807994 -0.099633 0.10899 0 0 0.0949788 -0.0297504 0.0282413 0 0.0845226 0 0 0 0 -0.0136301 0 0.00542594 0.110785 0 -0.00400668 0.0688364 -0.0131724 0 0 0 -0.0927781 0 -0.0043188 0.0770288 0 0.0433416 0.113118 0.111367 0 0 0.0845038 -0.0208011 0.090039 -0.0451368 0.0794614 0.0451176 0.00698849 0 0.0324201 0 0 0.0833361 -0.0103106 0 0 0 0.0569729 0.0625784 0.0181171 0.0383387 0 0.0101681 0.0608152 0.0874023 0 0.00787775 -0.115787 0 0 -0.0526951 0 -0.0997686 -0.00083704 0 0 -0.0465276 
0.0242906 0 -0.0650466 0 0 0 0 0 0.0562753 -0.0883477 0.0836463 0 0 0 0 -0.0158511 0.0337718 0.0317433 -0.100911 0.112857 0 0.0189377 0 0 0.00594052 -0.0052035 0 0.0965171 -0.0561118 -0.0165354 -0.0268389 0 0.0239125 0 0 0.0735495 0 0 0 -0.0649248 0 0 0 0.067479 0 0 -0.0149956 0.0671772 0.0470641 0.0334316 0 0.0609662 -0.0982164 0.052307 0.0556623 0 0 0.106471 0 -0.0766636 0 0 0 0.045443 0.0621268 0 0.0126738 0 0 0 -0.0121394 0 -0.0693829 -0.0489205 0.0774631 0.111624 0 0 0 0 -0.0792392 0.0156541 0 0 0.0623776 0 0.0630305 0 0 0 0.0201495 0 0.0169111 0 0 0.0798572 0.00132059 0.0262012 0 0 
0 0.0278062 0.0285962 0 -0.0850908 0 0.0357323 -0.0469207 -0.0445695 0 0 -0.0729978 0 0.0557798 0 0 0 0.0358789 0 0.000865355 0.0517854 0 -0.0192682 0 0 0 0 0 0 0 -0.11205 -0.0608282 0 0 0 0 0 0.0728821 0.060011 0 0 -0.0379749 0.0967553 0 0.0145341 -0.0340496 0 0.0107727 0.0149743 0 -0.00128438 0 0.0560971 0 0.0890586 0 0 -0.104531 0 0 0 0 0 -0.071304 -0.101787 0 0 0 0 0 -0.109362 0 -0.0455087 0 0 -0.00548022 0 0 -0.0682983 0.099847 0 0 0.102526 0 0 0 -0.107184 0 -0.07506 -0.0460868 -0.0723081 0 0 0.105648 0 0.0104036 0 0.0894661 0.0743012 -0.0155268 
0.0673808 0.0247954 -0.106189 -0.0482043 0 0 0.0555864 0 0 -0.0338951 0.0908978 0 0.0783361 -0.0809496 0 0.00828946 -0.0911344 0 0.0115484 0 -0.101304 0 -0.089283 0 0 0 0.0164705 0 0 -0.0577099 0 -0.0850217 0 0.111524 0 0 0 -0.104831 0 -0.0222405 -0.0679058 0 0 0 0 -0.0220731 -0.10343 0 0 -0.0938687 0 -0.0333689 0 -0.000180947 0 -0.00686657 0 0.0751876 0 -0.0191815 -0.0405823 0.116956 -0.0152566 0 0 0.0438827 0 0 -0.0473104 0.0415645 0 -0.110014 0 0.00801464 0 0 0.0882969 0.0763356 0 0 0.0646354 0 0.0633813 -0.108699 -0.0738966 0 0.00401785 0 0.0749171 0 -0.0205573 -0.114426 0.044575 0 0.103136 -0.0788623 -0.0289272 -0.0979449 0.101966 -0.0652151 
0.0318036 0 0.0761167 0 -0.0380752 0 -0.0813677 0 0.0162847 0.0666724 0 -0.0397385 0 0.091418 0 -0.0557189 0.0897469 0 -0.0402818 0.0720875 -0.0302014 0.0676385 0 0 0.000904393 0 0.0799141 0 0 -0.0323494 0 0.0461218 0.00221521 -0.0536791 0.0818209 0 0.054329 0.00295268 0 0 0 0 -0.0560967 0 0 0.0580454 0.0398718 -0.0388187 0 0.0470415 0 0 -0.0752445 0.112493 0 0 0.0950095 0.012224 0.0742682 0.0738141 0 0.0522987 0.0806173 0.104322 -0.0200139 -0.0780067 -0.0878732 0 0 0 0 0 0 0.0756559 0 0.0335509 -0.0583885 -0.107262 0 0.0847614 0 0.0188504 -0.112705 0 0.0259578 0 0 0 0.0214921 0 0.0341251 0 0.0897231 0.00502389 0 0 -0.0801281 0 0 0.0264952 
0 0 0 0.034431 -0.0838472 0.0553476 0.00989357 0.00827134 0.0679953 0 0 0 0.0016732 0.0884569 0 -0.0789586 -0.108306 0.0114118 -0.041848 -0.0436969 0.0260304 -0.0769734 0.0820081 0 -0.026308 0 0 0.0928726 0 0 0 0 0.0322075 0 0.00402922 0 0 0 -0.0192683 0 0 -0.0890419 0.00393472 0 0 0.10191 0.0668312 -0.0803171 0.0371842 0 0 0 0 0 0 0.114379 0 0.0304955 0 0 0 0 0 0 -0.113088 0 0 0.0668697 -0.109486 0 0 0.117778 -0.11491 0 0.0743717 -0.0877237 -0.0134107 -0.0247352 0.0571507 0 0.0536294 0 -0.0257565 0.114538 0 -0.0968579 -0.0958979 0.035017 -0.00380881 0.0509579 0.0467083 0 0 0 0 0.0165502 0 0.0105055 0 0 
-0.106358 0 0 -0.0421835 -0.00743288 0 -0.0523008 0.0647219 0 -0.0572966 -0.0938785 -0.0542003 0 -0.0242394 0 0 0 0.0282179 0 0 0 0.0866621 0 0 -0.00180453 0 0 0 -0.105186 0 0.113949 0.100909 0.0428808 0.07705 0.0591613 -0.10976 0 0.00682818 0 -0.036571 0 -0.0681186 0 0 0.0394446 0 -0.00913013 0 0.0360463 0 0 -0.0575591 0.0974768 0.0506072 0 0.103418 -0.0980469 0 -0.094372 0 -0.0935018 0 -0.0522526 0.0420559 0.103099 0 0 -0.041414 0.100796 -0.0495055 0 -0.0702384 -0.056733 0.0734875 -0.0445501 0 0 0 -0.0811374 -0.0942236 -0.114119 0.11406 0 0 0 0 0 0.116751 0 0.0358535 0.0294081 -0.0504388 0 0 0.0134678 0 0 0 0 0 
-0.0856579 0.0121726 0 0.102116 0 0 0 0 0 -0.0318416 0 0 0 0 -0.0162628 -0.0815153 0 0.0428462 0 0 0 0 -0.0546034 -0.102792 -0.0735473 0.0011496 0.105448 0 0.0700223 0 0 0 -0.0814478 0 0 0 -0.053895 0.018174 0 0 0 -0.0285359 0 0 0 0 0 0 0 -0.110762 -0.00866461 0.0767827 0 0 0 0 0 0 0.0982552 0 -0.0738494 0 0 0 0.0418281 0 -0.0767193 -0.0136209 -0.0704399 0 0.051867 0 0 0 0 0 0 -0.0940055 0 -0.0110326 0.100985 -0.108397 -0.0277557 0 0 -0.09831 0.0216072 0.0771847 0.0168228 0 -0.0691398 0 0 0 0.0855801 -0.030045 -0.0475223 0 0.0596548 0 
0.0190708 0 0.109525 0 0.0616137 0 0 -0.0516749 0 0 0 -0.0263387 0 0 0 0 0 0.0109814 0 0.0816687 0 0 -0.100615 0 0.0247677 -0.0847098 0 0 0 0 0 0 0.0874338 0 0 -0.111426 -0.0677281 0 -0.0732937 0.0365376 -0.0414765 0 -0.0278409 0 0.0649463 0 0 -0.0194145 0.0648539 0 0 0.017614 0 0 0 0 -0.06069 0.0297527 0 0 0 0.112336 0 -0.00587674 0 0.0172338 0 0 0 -0.0149615 0 -0.0683173 0 0 -0.0799918 0 0 0 -0.060822 0 0.0871403 0 0 0 -0.00961299 0 0 0.00466642 0.00174409 -0.082703 0.0432281 0 0 0.0704375 -0.058251 -0.0302099 -0.0675778 0 -0.0101901 0 
0 0.0358164 0 -0.0535667 0 0.0138015 0.0163699 0 0 -0.109042 -0.0115098 0 0 -0.0180593 0 0.0726657 0 0 0 0.0401331 0 0 0 0 0.0907916 0.0838116 0 -0.0205966 0 0 0.0439909 -0.0377678 0.0360135 0.00549763 -0.0261143 0 0 0 0.0715692 -0.0381199 0 0 -0.11649 0.0826106 -0.0438462 0 0 0 -0.113589 -0.0193196 0.0736199 0.117871 0 0.00515935 -0.0912567 0.0980538 -0.0559972 0.00693422 0 0 0 -0.0715839 0.0519354 0 -0.0180618 -0.0663635 0 0.0779427 0 0 0.0513567 -0.0934331 0 -0.0744478 -0.0227177 0.0866717 0.0750193 -0.0546224 0.0288677 0 -0.0356948 0 0 -0.0514239 0 0.0763398 -0.0143146 0 0 0 -0.0115634 0.104145 0 -0.000897187 0 -0.0324352 0 0 0.0494068 -0.0281712 
0 0.0543437 0.0691085 0 0.0609306 0.0738727 0 0 0 0 0 0.0995625 0 0 0 0 -0.10328 0 0 0 0.0357326 0.084772 -0.103944 0 0 -0.0826993 0 0 0.0265478 0 0.0666356 0.0692834 -0.0575954 0 0 -0.117178 0.0755056 0.0116635 0 -0.0914821 0 0.1115 0.0811324 -0.0811526 0 0 0 0 0.0357504 0 -0.0158237 0 0 0 -0.0666989 0 0 0 0 0 0.0602673 0 0.0869949 0 0.0802848 0 0 -0.0963695 0 -0.0871669 0 0 -0.0232612 -0.0672402 0 0.0426979 -0.0074111 0.00134996 0.0753137 0.113635 -0.0828453 -0.0138435 -0.00369784 0.0297789 0 0 0 -0.0948223 0.00766617 0.0312453 0.0904134 0 0 0.00670297 0.0240804 0.0711403 0.108727 0 0 0 
0 0 0 0.0233696 0 0.0164663 0.108012 0.0720816 0 0 0 -0.093636 0 0.00948191 0 0.0792722 0 0 0.0828592 -0.0215431 -0.0119742 0 0 0 0.0797237 0 0 -0.0269592 0 0 0 -0.0675583 0 0 0.107279 0.0847069 0 0 -0.00771562 0 0 0 0 0 0 -0.101705 0 0 0.00408871 -0.071933 0 -0.039048 0 0 0 0 0 0 0.0171997 -0.0332841 0 -0.105724 0 0 -0.0549452 -0.0895324 -0.0172947 -0.02615 0 0.0961484 -0.023557 0.0865267 0 -0.0345473 0 0.111792 -0.00401842 -0.114488 0 0 0.0933926 -0.0948017 0 0.0517673 0 0 0.0212902 0 0 0 -0.0301021 0 0 0.101714 0 0 0 0 0.0298375 0 
0.0335594 -0.0853486 0 -0.0906088 0 -0.0326045 0 -0.0433248 0 0 -0.0600395 0 0.028068 0.116579 -0.0544202 0 0 0 0 0.0808274 -0.0883472 0 -0.0554861 0 0 0 0.0509114 0 -0.00586912 0 0 0 0.00587186 0.0314926 -0.0451079 -0.117987 7.60349e-05 0 -0.0621009 0.0322892 0 0 0.0216419 -0.098638 -0.0615054 0 0.114424 0 -0.1076 0.109125 -0.0560777 0 0 -0.0613761 0 0.075515 0 0 0 -0.0415282 0 0.0985474 0 0.0649273 0.0287444 0 0 0 0.00845622 0 0 0 0.0732649 -0.0443998 0.10471 0 0 0 0.06197 0 0 0.00773544 0.0259787 0 0 0 -0.103611 0 -0.0855035 -0.0621509 0.0258667 0.105879 -0.0968497 0 -0.0472828 0.0839788 0.0656037 0 0.114867 0.0765263 
-0.011794 0.110676 0 -0.0727428 0.0298114 0 0.0747249 0 -0.0176181 0.0898463 -0.109016 0 0 0 0 0.0885679 0.0711493 0 -0.114836 -0.100803 0 -0.108336 -0.0830358 0 0 0 0.0946136 -0.0394516 0 -0.0516182 0 0 0 -0.0825481 0.0871242 0.00805364 0 0 0.116494 0.0479221 0 0 0 0.00627498 0 0 -0.10495 0 0.0347598 0 0 0.0288543 -0.095568 0.0450292 0 0.0139437 0 0 0 0.081008 -0.109585 -0.10502 0 0 0 0 0 0 0 0.00316393 0.0383237 0.0486853 -0.00571892 -0.0186022 -0.115838 -0.113374 0.0328875 0 0 0.118022 -0.0774783 0.0262188 -0.0656468 0 -0.0753422 0 0 0 -0.0423979 0 0 0 0 -0.0363699 0 0 -0.0535996 0 0 0.051854 
0 0.051666 0 0 0 0 -0.00344833 0 0.0394191 0.0542597 0 0 0 0 0 0.095907 -0.0182207 0 0 0 -0.0273979 0 -0.0937536 0.0578989 0 0 -0.0980988 -0.0239274 -0.0402231 -0.062128 -0.0373933 0.0117169 0 0.0483889 0.0538155 0 -0.0617879 0.040388 -0.0734904 0.051933 0.0166433 -0.091122 -0.0165627 0 0.0777195 0 -0.0139335 0 0.0668829 0.0311464 0.101574 0 0.0371794 0.0083661 0 0 0.0990298 0.0192412 0 -0.0823252 0 0 0.00781268 0.040945 0.0452109 0 0 0.0697455 0 -0.0173178 0 0.0622175 0 -0.098521 0 0 0 -0.0690555 0 0.0819073 0 0.106283 0.0809795 0 0.00371481 0 0 0 0 -0.112643 0.110703 0 0 -0.0677432 -0.09522 -0.0383757 0 0 0 0 
-0.0683382 0 0 -0.0259612 0 0 0 -0.0122249 0 0.0418059 -0.0221411 0.0230186 0 0.0215112 -0.0321217 0 0 0 0.014713 0.0733479 -0.0723561 0 0 -0.0919096 0 0 0.0851199 -0.00186454 0 0 0 0 0.087314 -0.0788941 -0.0874874 0 -0.0901008 -0.107572 0.114237 0 0 -0.0224623 0 0.0606371 0 -0.0906374 0.0198512 0.100273 0.0338062 -0.0939135 0.109319 0.0238751 0.0642294 -0.0315605 0 -0.0209228 -0.0590681 0 -0.0260596 0 0 0.0671458 0 0 0.0446891 -0.0807895 0 0 0 0 -0.0624238 -0.0378243 0.035702 0 -0.114068 0 0 -0.0382178 -0.10602 0.0212379 0.0706916 0.0858442 0 0.0623527 0 0 -0.0335251 0 -0.102977 0.108575 0 0 0 0.0582798 0 0.0588137 0 -0.0976138 0.0903509 -0.0664498 
0.0747857 0 0 0.000444367 0.0277509 0.00239004 -0.0947058 -0.108752 -0.0726643 -0.111342 0 0.0651477 0 0 0.0938648 0.0263476 0 0 0 -0.0631863 0 -0.104712 -0.0751446 0 0.0437482 0 0.0672521 0.106481 0 0.0528288 0.0165923 0 0 0 0 0 0.0776917 0 0 0 0 -0.0395204 0.091413 0.00244672 0 0 0.0600167 0 0 0.0187004 0.0513044 0 0.100417 0 0.0964686 -0.0356348 0.0482238 0 -0.0791306 -0.0514054 0.0262023 0 0 0 -0.0408665 -0.0163143 0 0 0 0.0721973 0 0 -0.0893986 0 0 -0.0782292 -0.0281077 0 0 0 0 0 -0.0231511 -0.0123355 0 -0.0121561 0 -0.00367519 -0.0301106 -0.0990761 0.0038093 -0.0405972 -0.0484022 -0.0760425 0.0611047 0 -0.0370628 0 -0.00880846 0 
0 0.0835526 0.0573036 0 0.0250082 -0.00352857 -0.00421312 0 -0.00611436 -0.0816811 0 0 0 0 0.0654611 -0.11448 0 0 0.0596544 0.112485 0 0 0 0 0 -0.0214676 0 0 -0.101813 0 -0.10628 0.0713994 0 0 0 0.0962573 -0.0161644 0 0 0 -0.0680003 0.00166575 0.00605138 0 0 0.0925522 0 0 0 -0.0620267 0.0378046 0 -0.0300586 -0.0270847 -0.0885208 0.0698335 -0.00666485 0 -0.0263509 0 -0.104592 0 0.0196689 -0.0483811 0 0.108708 -0.0730901 -0.0949512 0 0 0.000314953 0 0.0914399 0.0428874 0 0 -0.0239351 -0.105796 0 0 0 -0.0557309 -0.0169997 0.0509994 0 0.0414978 0.0766036 0.09565 -0.0952232 0 0 0.0913773 0 0 0 0 0.0574375 0 0.0698515 0 
0.103506 0 -0.0335324 0.113712 0.0861626 0.0589648 -0.01462 0.0177848 0 0.0959635 -0.0203439 0.0619945 -0.0330236 -0.0858687 0 0 0.0942655 0 0 0 0 -0.0721798 0 -0.0547127 -0.0511329 0 0 0.0765568 0 0 0 0.00807652 0 -0.0481386 0 0 0.00103027 0.0234942 0 0 0 0 0.0103846 -0.0380942 -0.101654 0.0429771 0 0 0 0 0.0237864 -0.0765692 0 0 0.0470194 0.0436242 0 0 -0.0204594 0.0449488 0 -0.0231749 0 0.0714997 0.0897825 0 0.0145499 -0.014887 0 0 0 0 0 0 0 -0.0285192 0.0728553 0.111755 0 -0.0269137 0.104708 0.00519925 0.111719 0 -0.0764352 0 0 -0.0798096 0 -0.0998752 -0.0445394 0 0 0 0.0773591 0 0.0320048 0 0 -0.101648 
-0.108766 0 0 -0.0336168 0 0.00120652 0 0.00587532 -0.107249 0 0 0 0 0.051351 0.0107219 -0.0293348 0 0 -0.0907795 0 0 -0.022808 0 0.0473753 0 0.111068 -0.103569 0 0 0.0828155 -0.0336716 -0.0889854 0.0901568 0 0 0 0.0238253 0.0782764 0 0 0 -0.1117 0 -0.0646493 0.0726417 -0.090139 0.0816355 0.0780157 0 0 0.06848 0.107169 0.1126 0.0450748 -0.0674501 0 0 0 0.111085 0 0 0.00930853 -0.0652649 0 0 0.0725916 0 0 0 0 0.0535704 -0.100632 0 0 0.0704042 -0.0636427 0 0 -0.040389 0 0 0 0 -0.0481296 0.0819682 -0.0257833 0 0 0 -0.0282994 -0.114756 0 -0.0994997 -0.0974585 -0.0521322 0.0966744 -0.0978003 0 -0.0199796 -0.00986434 
0 0 -0.115623 0 0.00740162 0.0722626 -0.00879309 -0.0143528 0 0 0 0 0.0812402 0.0652833 -0.060982 0 -0.0405726 0 0.0576575 0 0 0.0708874 -0.0072496 -0.0853436 0 0 -0.104111 0.00711366 0 -0.0874477 0.0407893 -0.0125687 0 0.0165393 0 -0.0701275 0 0 -0.0370354 0 0 -0.0426772 0 0.116602 0 0 0.0675028 -0.0394651 0.078085 0 -0.0157239 -0.0579208 -0.0145557 -0.0117533 -0.0919949 -0.0451594 0.0054365 0.00510384 -0.0108567 0 0.0532319 -0.104203 0 0.0815094 0 0 -0.0807323 0.0250849 0 0.0853737 0 0.0476467 -0.0252227 0.0180363 0.0743202 -0.0343673 0 0 0 0.0790203 -0.11554 0 0 0.0563268 0.0889813 -0.114069 0.00111814 0 -0.0317178 0 -0.102281 0 0 0.0190982 0.045901 -0.0965212 0 0.0946741 0 0 
-0.0665742 0 0.117193 0.0766158 0 0.0807562 0 -0.0115597 0.0073471 -0.0748076 0 0 -0.00514325 0.107686 0 -0.107045 0 0.105839 0 0 0 -0.0595786 0 -0.115875 0 0 -0.115203 0 -0.00855278 0 0.117452 0.10997 0 0 0 0 0 0 0 0 0.010645 0 0.0636894 0.0841419 0 0 0 0.0886188 0.0467274 -0.105067 -0.0351367 0 -0.0358947 0.0863181 0.00188521 0.00825779 0.100309 0.00346645 0 -0.0025312 0 0.0817824 -0.0431367 -0.0458721 0 -0.051687 0 0 0 0 -0.114702 0 -0.000338531 0 -0.116663 0 -0.00135991 0 0 0 0.105307 -0.0504552 0 -0.0915083 0.0930889 0 0 0.0473519 0.0307853 0 -0.0487952 -0.117792 0.0119775 -0.0711223 0.116278 -0.106045 -0.108102 0.0902005 0.0138461 -0.062946 
0 0 0 0 0.0484174 0 0.0366852 -0.0147738 0 -0.00245779 -0.0369683 0.00604735 0.0230439 0 0.0352081 0 0.049479 -0.0704944 0 0 0 0 0 0.110402 0.103373 0.00324353 0.0771831 0.0647021 -0.0139881 0 -0.00446838 0 0 0.118137 0 0 0 0 0 -0.0383643 -0.0758267 0 0.0219324 0.0808902 0.104733 0 0.00837149 0 0 0.0272248 -0.0553719 -0.0961952 0.017749 0.0585765 0 0 0 0 0.0891504 0 -0.104886 0 0 0.0591093 0 0 0.0429487 0 0 0.0582764 0 0 0 0.0876549 0 0 0 0 0.104772 -0.0876176 0.0847447 0.0111959 0 0 0 0.0501127 0 -0.102293 -0.0580755 0 0.044032 0 0.0551547 -0.0463643 -0.0710972 0 0.0762666 0 -0.0366249 0.0164182 
-0.0495817 -0.09396 -0.0216507 -0.102822 0 -0.0869051 0 0.0650269 0 -0.0793937 0 0.0973644 0.0633589 0 0.075153 0 0 -0.0523007 0 -0.00418098 0 0 0 0 0 0 -0.0341245 0 0.00954656 0 0.0444893 -0.112094 0 0 0 -0.0947365 0 0.0986261 0 0 -0.0564386 0 0 0 0.0249767 0.0541942 0 0 0.0867435 0.0638549 0.0141195 0 0 0 0 0 0 0 -0.0809378 0 0 0.0299412 0.0716145 -0.0757304 0.0310926 0 0.108751 -0.111525 0 0.0934278 -0.0703246 0 0.0790398 0 0 0.0780092 0 0.0120207 0.0547213 -0.0729661 -0.0605881 0 0 0.0959073 -0.0134356 0.0797995 -0.011592 0.029462 -0.060998 0.0351342 0.0381772 0 0 0 -0.05322 -0.0171775 0.111642 0 0 -0.108945 
0 0 0 0 0 0 0 -0.0950575 0 0 0.0478921 0.0117515 0.0182325 0 0.0929388 0 -0.0784909 0.047653 0.0183491 0 0.0964435 0 -0.00371632 0 0.103591 -0.0927767 0 -0.00851072 0 -0.0788283 0 0 0 0 0.0982265 0.0828812 0 0 0 0.00203358 -0.026413 0 0 -0.0306833 0.100075 0 0 0 0 0 -0.0841861 0.0130966 -0.105507 0 0 0 0.0576197 -0.0788118 0 0.0289867 -0.0754915 0 0.0783845 0 0 0 0 0 0 0 -0.0108729 0.0517638 0 -0.0533492 0 -0.0935069 0.0518466 0 -0.0136581 0 -0.0911832 0 -0.0484651 -0.0114912 -0.00858485 -0.040589 0.0353603 0.0885652 0 0 -0.0574241 0.0187691 -0.103373 0 0.0707859 0 -0.0520651 0 0.0457607 0.0835799 
0 0.0518988 0 -0.0748958 0 0.0402807 -0.00353491 0 -0.108404 0 -0.0719128 0 -0.0570756 0.0199688 0 0 -0.0383548 -0.0509065 0.0152008 0.10954 0.0845721 0.0109626 0 0.101424 0.104205 -0.0576163 -0.010515 0.00420593 0.0323555 0 0 0 0.110626 0 -0.0459383 0 -0.0385325 -0.0911112 -0.0296156 0.0347719 0 0.110181 0.0530944 -0.0557595 -0.11643 0 0.00598513 0 0.11623 0 -0.108185 0.0319629 0 0.107234 0 0 0 0 -0.0683285 0.0801486 0.0734785 0.113999 0 -0.05997 0 0.110175 -0.0603587 -0.0168773 0.0278958 0 0 -0.0444084 -0.0185725 0.0528256 -0.0940968 0 0 0 -0.036888 -0.0811033 0 0 0.0853186 -0.0688989 0 -0.0324898 0 0 0 0 -0.00752863 0 0 0 0 0 0 -0.0718749 0.0295404 -0.00921386 
-0.10759 -0.0879351 -0.0393992 0 0 -0.111364 0.0346494 -0.00944834 0 0.00503934 0.0356694 0 -0.0162676 0 -0.00537875 0 0.029623 0 0 0.0913951 0.116418 0.0468389 0.0792041 -0.0395488 -0.0264742 -0.0578048 0 -0.0146068 0.0757334 -0.0636691 0.00479506 -0.103547 0.0556596 0 0.0356768 0.0494484 0.0670855 0.0123222 0 -0.0266833 -0.0330837 0 -0.0379831 0 0 0.105164 0 -0.110193 0 0 0 0 0 -0.0588019 0 0.0950846 0.0907162 0 0.0201629 0 0 0 0.100297 0 0.011128 -0.0859065 -0.0581927 0 0 -0.0909349 0 0 0 0.0240577 0.0464112 -0.0246265 -0.0780759 0 0 0.0862526 -0.102435 0 0 0 0 0.00899077 -0.0767061 -0.114417 -0.0202833 -0.0301737 0 -0.108296 0 0 0 0.0372751 0 0 0 -0.0895139 
0.0717349 0 -0.0518039 -0.0561707 0.0234369 -0.00160308 -0.0339434 -0.110718 0 -0.0226816 0 0 0 0 0 0 -0.0187646 0 0 0 0 -0.0111642 0.0574631 0 0 0 0 0 0 0 0 -0.0842819 0.0493596 0 0 -0.111554 0 0 0 0 0 0.047486 0 0.10613 -0.0284232 -0.105581 -0.0884411 0 -0.0915997 -0.040543 0 0 -0.10801 0 0 0 0.0773621 0 -0.0269378 0.0639058 -0.0629551 0 -0.113063 0 -0.0232768 0 0.00576319 0.0547369 -0.103972 0 0.108719 -0.0509253 0 0.117969 0 0 0 -0.0590647 0.0855165 0 0 -0.00197677 -0.0905018 0 0.00443108 0.0419072 0.0428227 0 0 0.0489532 0.0475695 0.0135221 0.112243 0 0.0555233 0 0.114668 -0.00664213 0 0.0159193 
0 0 0 -0.116302 -0.0845659 0 0 -0.0959607 0.0153171 0.00297761 0.11553 0 0.109564 0.031841 -0.116237 0 0.0243483 0.0446358 -0.0510405 0.0429718 0.0224075 -0.0775649 0 0 0 -0.00726688 0 -0.0542744 0 -0.0569537 0 -0.0655994 0.117307 0.0886584 0 0 0.10824 0.00992654 0 0 -0.0684241 0.0977776 0 0 0.071118 0.0609949 0 -0.111489 0 0 0.087646 0.00237707 -0.060162 0.0265705 -0.10994 0 0 0.031294 0.0725189 0 0.0899256 0 0.0451738 -0.0992384 0 0.00930716 0.0815279 -0.0126047 -0.108725 0.0336717 0.104393 0 -0.016989 -0.00466541 0 0 0.0139251 0.110821 -0.0890682 0.0556204 0 0.0745916 0 -0.0343109 -0.00989991 0 0.0213948 0.0184882 -0.0373814 -0.0458162 0.105892 -0.0680797 0 0 0 -0.0960968 0 -0.0669553 0.0166541 0 
0 0.0964056 0.0569349 0.0945981 0 -0.00221682 0 0 -0.0776969 0 0.0953082 0 0 -0.0965201 -0.0142226 -0.0263859 -0.0458005 0.0626792 0 0 0 0.0104245 0 0.0915778 0 0 0 -0.0950283 -0.0827144 -0.0615147 -0.077417 0.0293428 0.0243134 0 -0.10073 -0.00926393 0 -0.0647944 0 0 0 -0.0962301 0 0 0.0689373 0 -0.0666269 0 0 0 0 0.0113972 0 0 0.0282232 0 0 0 0 0 0 0 0 -0.100636 0 0.0222052 0.0494295 0.102461 0 -0.111947 0.0705395 -0.0976014 -0.0507495 0 -0.107389 0 -0.0215061 -0.0578139 0 0 0 0.0257402 0.0562614 0 0 0 0.0376913 0 -0.0803614 -0.0279181 0 -0.0194039 -0.0913978 0.0239922 0.0588766 0 0 -0.0453524 -0.117192 0.0306765 
0 0 -0.0222431 0.0418455 0 -0.0386729 -0.00919024 0 0 -0.029446 -0.0565123 0 0.109754 -0.0671065 0 0.00644007 0.0379181 0 0 0 0.0103036 -0.0117767 -0.0792991 0.0442841 0 0 0.0547113 -0.0193179 0 0 0 0.0418758 0.0708442 -0.083165 0.111679 0 0 0 -0.0567652 0 0.071748 0.10473 0.0105129 0 0 0.00798515 0.0109161 0.0549912 0.0778917 0.107819 0.0669433 -0.0882431 0 0 0.0252629 0 0 0 0 0 0 0 0 -0.00727318 0 0.0968194 0 -0.0652908 0 0.10791 0 0 0.116514 0.0214358 0 0.00521407 -0.00669845 0 0 0 0 0.0790646 -0.0474994 0 0.0634371 -0.10216 0 0 0.0949657 0 0 0.0527895 0.0391586 0 0 -0.00835816 0.0658085 -0.0655725 -0.0823083 0 
0 -0.0565921 0 -0.0931956 0 0.00146496 -0.00474133 0 -0.0279853 0.0986152 0.0440597 0 -0.0230564 -0.0799856 -0.0758462 -0.0357155 0 0.0001859 0 -0.06254 0 0 -0.0722343 -0.101344 0 0.0121245 0.019259 0 0 -0.0773898 0.0114318 -0.111321 0 0.0936841 -0.0757132 0 -0.111814 -0.027042 0.113824 -0.0396118 0 -0.0353891 0 -0.0217245 -0.0362592 0.072398 0 0.113218 0 -0.104752 0 -0.0480783 0 0 0 0 0 0.0780583 0 0.0736728 0 0 -0.0579098 0 0.0294252 -0.0572947 0.0875992 0 0 -0.108098 -0.0247806 0 -0.0216901 0.10718 0.0881188 -0.0464581 0 0 0 0 -0.117777 0.0571269 0.061851 0 0.033706 0 0.00309551 -0.092093 0 -0.051519 0 -0.0244841 0 -0.0355139 0 0 0.0131886 -0.0579173 0 0 
0.111859 0 -0.0638276 0.0713881 -0.0958929 0.109655 0 -0.100648 -0.0890385 0.0582093 0.0597681 0.0472069 0 0 0 0 0 0 0 0 0 0 0.0911511 0 0 0 0.0036267 -0.0371652 0 0 0.0126332 0 0 0 0.0739177 0.0440094 0.0626981 0 -0.0578973 0.086278 0 -0.10396 0.109725 -0.110036 0 -0.0728677 0.0508221 -0.0324897 0.00247967 0 0.0259538 0 0 -0.00273698 0 -0.0582486 -0.116839 -0.0773461 0.00207306 0 -0.0737427 0 -0.0655688 -0.0803757 0 0.0886561 0 0 0 -0.0101146 -0.101826 0 -0.00195475 0.0385454 0 -0.059928 0 0 -0.0465678 -0.0278089 -0.0636772 -0.0919977 0.0247554 0 0 -0.0837173 -0.0414806 -0.0528836 0.0418626 0 -0.0906688 0.0794962 0 0 0 0 0 -0.0129061 -0.0147269 0 
0.0398056 -0.0368646 0 0 0 0.00599004 0.0724027 0.00850615 0.0311238 -0.0169811 -0.0403001 0 -0.0924235 0 0 0 0.0683617 0 0 0 0 0.0934404 0.0713805 0 0 0 0.0739832 0.0739089 0 0 0 0.100901 0.116059 0.0210108 0 -0.0902583 0 -0.0369481 -0.0990496 0.10252 -0.11201 -0.109946 0.0817506 0 0.0832568 -0.0182516 0.0705234 0.0141744 0 0 0 0 -0.00657765 0.0437497 0.00588172 0.102635 -0.0551781 0 0 0 0 0 0 0.0803682 0 0 0 -0.11237 -0.107039 0.0985458 -0.0651178 -0.0653287 -0.0538299 -0.0640053 0 -0.0201338 0.0206781 -0.0474409 -0.0147969 0 -0.0642275 0 -0.0374009 0 0 0 0.0321082 0 0.0124444 -0.0715591 0 0.0571053 0.0786396 0 0 -0.0270338 0.0652291 0 0.00677441 -0.0207978 
0 0 0 -0.100561 -0.0847948 0 0 -0.0464772 0 0 -0.031834 0 0 -0.0454782 -0.0998385 -0.0935769 0 0 0 0 -0.0215734 -0.100221 0.0633176 0.011042 -0.104784 0 -0.0586173 0.0735937 0.0697377 0.0674834 0.112497 0.0674192 0 0 0 -0.0157465 0 0.109665 -0.0509191 -0.0234453 0.0630409 0.00369659 -0.087321 -0.0905513 0 0.101252 0 0 0 0 0.0701754 0.0535587 -0.0116764 0.0435468 0 0.0142011 0 0 0.081965 0.0741463 0 0 -0.0656163 0 -0.0379579 -0.0704992 -0.0984824 -0.0972373 0 0.0911478 0 0 0.0243209 -0.05718 0.0256612 0 0 0.0385129 0.0223475 0 -0.0326742 -0.114135 0 0 0.00954081 0.0294114 -0.0694675 -0.0483518 0 -0.0123545 0 0 0 -0.0163752 -0.0245873 0 0 0.0973684 0 -0.0263918 
0 -0.0723091 0 0.00776998 -0.105558 0.0819847 -0.0521176 0.111777 -0.0807289 0 0 0 0 0.0619103 -0.0182147 0 0.0520298 0.102738 -0.0446769 0.08633 0 0 -0.109216 -0.0161178 0.0515044 0 0 -0.0988405 0 0.000582319 0 0.111972 0.00692052 0 0.0094767 0.0929613 0 0 0 0 0 0 0 0.0587246 0 0 -0.0169244 -0.0498013 0 -0.0304321 0.00765095 -0.111982 0.0821218 0 0.0779278 -0.0309416 0 0.0784597 -0.0359894 -0.101381 0 -0.0471419 -0.0705552 0.0346261 -0.0663299 -0.0119684 -0.0456072 0 0 0 0 -0.111545 0 0.0845926 -0.0364514 -0.0359722 -0.108508 0 -0.0916796 0 0 0 0 0.0742145 0 -0.110325 0.106112 0 0.0475969 0 -0.00469053 0 0 0 0 0.00957642 0 0.0918139 -0.0171372 0.0302469 
0.117605 0.106991 0 0.0629955 0 0.0708801 0 0 0.0317735 0 0 0.0697611 0 0 0 -0.0240389 0.0420602 -0.0568725 0 0.0811894 0 0.0805844 0.0483691 0 -0.00684509 -0.0528705 0 0 -0.0190234 -0.0697737 -0.0696598 0 0.0633049 0 0 -0.0705425 0.106598 0 0 -0.0462255 0.0981719 0 0.0283313 0 -0.0967235 0 0 0 -0.108531 0 0 0.0109345 -0.060108 0.0154846 -0.00782347 0 0.0261551 0 -0.0527516 -0.107937 0 -0.0735785 -0.028193 -0.0635539 -0.109511 0.0788144 0 0 0.0237595 0 0 0.0980344 0.109633 0.0304717 -0.0546459 -0.0288958 0.0038751 0 0 0.114513 0 -0.0318899 -0.071465 0 0.0188848 -0.038514 -0.0508895 0 -0.0128526 0 0 -0.0473915 0 0.116993 -0.00566874 0 0.116416 0 0 0 
-0.0838024 0 0 0.0630378 0.0630503 0 -0.0936734 0.0560688 0 -0.0749934 0.025513 0.0417845 0 0.0405674 0.000694573 0 -0.00109906 0 0 -0.0660232 0.0393981 0 0 0 -0.0847881 0 0 -0.0876446 -0.0504701 -0.0423308 0.0611302 -0.0377191 -0.0855184 0 0.0333859 0 -0.0859229 0.0362015 0.0986583 0.09479 0.109879 0 0 -0.0912543 -0.0351609 0 0.0325787 0.0927432 0 -0.117348 0 0 0 0 0.0669387 0.10259 -0.0220211 0 0 0 -0.105222 0 -0.0262054 -0.0595691 0.0882093 0.0582704 -0.0621513 0 0.00913346 0 0 -0.0261398 0 -0.00906167 0.01062 0 0.106809 -0.0380358 -0.0804284 0 0 0.0669565 0 -0.0505032 -0.0829683 -0.0139122 0 0 0.100433 -0.0902558 0.0840823 0.104036 0 0 0 -0.106137 0 -0.0259632 0 0.0671986 
-0.0810666 0 0 0.0836518 0 0.091419 0 0 0 0 0.0061873 -0.053827 0 -0.0680011 -0.0424557 -0.0207896 0 -0.0927586 0 0 0.0108523 0 0 0 0 0 -0.052065 0 -0.0620318 0.0978337 0 -0.0141887 -0.0320926 -0.0515934 0 0.0241606 0 0.111987 0 0 -0.0579691 -0.0517167 0 0 -0.0565019 0 0 0 0 0 0 0 0.0595169 0 0.0186855 0 0 0.0216647 -0.00874729 0.0816099 -0.0535141 0 0 0 0 -0.111975 0.082245 0 0 0 0 -0.0176641 0 0.0129396 0 -0.0888551 0.0762868 0.0704909 -0.0171211 0 -0.0537209 0 0 0.0874447 -0.106817 -0.0925851 0 -0.0246424 -0.0282096 0.029313 0.0781395 0 0 0 -0.00357945 -0.0209846 0 0.076967 -0.0743526 0.047429 
0.0375975 0 0.0569871 -0.100155 0.110889 0 0 0.0302799 0 0 -0.0473674 0 -0.00272431 -0.0521073 0 -0.0520459 -0.0649733 0 0 -0.0216766 0.115768 0 0 0 0 0 0 0.0437003 -0.0853594 -0.0485901 0 0.0222521 0.00985849 -0.0836744 0.0466358 0 -0.0623526 0 0 0 -0.0668673 0 0 0.101591 0 0 0 0 -0.105917 0 -0.0319373 0.0474102 -0.0907861 0.0363075 -0.117192 0.0935871 0.0179737 0 0 -0.0962493 0.0241254 0.0032161 0 -0.038887 0 0.0561673 -0.115759 0 0 -0.00310956 0 0 -0.10601 0.0712653 0.0273289 0.0250385 0 0 0.0180856 0 -0.0759987 0.0857727 -0.076829 -0.115427 0 0.0146457 0 0 0.00450421 0 0 0.115976 -0.0834725 -0.034123 0 0 0.107369 0 0.00724452 0 
0 0.0767843 0 0 -0.0475973 0 0 0 -0.0527242 0 0.0699896 0 0.0714565 -0.0825276 -0.0459401 0 0.0697347 0.039209 0 0 0 0 0 -0.075797 0.0898787 0.116584 0 0 0 0.0211387 0 -0.0270813 0 0 0 -0.113545 0.0486164 0 0.000141448 0.00340858 -0.0352197 0 0 0.0275614 0 -0.000769577 0.031372 0.0330714 0 0 0 0.0698521 -0.0922597 0.071504 0.0435002 0 0 0 0 -0.0697866 -0.0401461 -0.115086 0.000228856 -0.0124588 -0.0882939 0.0645982 0 0 0 0 0 -0.103318 0.110381 0 -0.00553151 -0.118102 0.0287413 -0.0217734 0 0.0562902 0 -0.109428 0.0552418 0 0.0851575 0 0 0 -0.0164076 0 0 0.0426555 0 -0.0218278 0.054664 0.0326469 0 -0.0173919 0 0.00404069 
0.0352528 0.0251343 0 -0.0967527 -0.0674228 0 0 -0.112577 0 -0.0374431 0.0857221 -0.0411435 0 -0.104689 0 -0.00464346 0.0284353 0 -0.0857337 0 0 -0.00309374 0 0 0 -0.0407203 0 0.0927916 0 -0.100561 0 0 0 -0.102127 0.0631133 -0.0480708 0.0249595 0 0 0.0290517 0 0 -0.00549423 0 0.0212083 0 0 0 0 0.0732796 -0.0855168 -0.110081 0 -0.0601478 -0.111275 0 0 0 0 0 0.0128627 0 -0.0537047 0 0.0590107 0 0 0.00956974 -0.0575027 0.103643 0 0 0.106705 0 0.0645845 0 0 0 0.113231 0 0 -0.0518095 0 -0.104951 0 0 0.097951 0.0685879 0.0867101 0.00245768 -0.0710921 -0.0546877 0 0 0 0 0.0534911 -0.0935855 -0.0904817 -0.0170601 
0 -0.0426247 0.0164571 0 -0.00722175 -0.117287 0 0 0 -0.0797346 0.0519579 -0.0386721 0 0.0499083 0 -0.0148103 0.0411686 0 0 0 0 -0.0188353 -0.0498085 0 0.110393 0 0 0.0517661 0.0807388 0.111947 0.108564 0 0.107557 0.107991 0 -0.0250293 0 0 -0.109925 0 -0.0485248 -0.0821031 0.0101429 0.0120598 -0.101461 0 0.0902211 0.108915 0 0.0992701 0.00432211 0 -0.00589695 0 0 0 -0.0407255 0 -0.00936901 0.103784 0 0 0.0132951 -0.100699 0.0719858 0 0.0439972 -0.061357 0 0 0 0.059143 0 -0.0649636 0.0619088 0.0479614 0.0911309 0.0118143 0 0.0149665 0 0 0 0.0905958 0.0977121 0 0.0234997 -0.0713203 0.0402548 -0.0590221 -0.0250866 0 0 0.0407014 0 0.0618847 0 0 0 0 
0 0 0 0.116927 0 0.0408168 0 0.0308535 -0.0157346 -0.0433138 0 0.0158738 0 0 0 -0.1019 0 -0.0568783 0 0 -0.0654678 0 0 0 0 -0.0962946 0 0 0.00230452 -0.0246243 0 -0.0650911 0 -0.0207554 0.0769791 -0.107029 -0.103406 0 0 0 0 0 -0.0398762 0.0566305 -0.0177384 0.00523657 0 0 0.0869299 0 0 0 0 0 -0.112164 0 0.083025 -0.0771986 0 0 0 0.0469292 0 0 0 0 0 -0.0616132 0.0117844 0 0 -0.106618 0.0799778 0.0123249 0.0331891 0.0207989 0 0 0 -0.021728 0.0356823 0 0 -0.0574364 -0.0787496 0.0184174 0 -0.0352782 0 0 0 -0.0905594 -0.0179747 0 0.114988 -0.0849426 -0.0117476 -0.115018 0 0 
0 0.0146319 0 0.0754052 0.0926844 0 0 -0.0727405 0 -0.0566821 0 0 0 0.0944198 -0.00249568 0.05112 -0.00943434 -0.11691 0 0.0683093 0 -0.0352685 0 0 0.041696 0 0.0758989 0 0 -0.0260439 -0.04881 0 0 0.0625609 -0.0614279 0.0776002 -0.0920947 0.0888526 0 0 0 0 -0.114526 0 -0.0743893 -0.111264 0 0.0069741 0 0.0991399 0 0 0.0905146 0.0116321 0.0153212 0.0763854 0 0 0 0.0931685 0.11247 0.0844051 0 -0.117683 0 -0.110738 0 0 0.0961765 0 0 0.0421751 0.0678604 0 0 0.0160358 0.0248212 0 0 0 -0.0666933 -0.0497321 0.114379 0 0 0 0 0 0.0887307 0 0.0666975 -0.10422 0 0 0 0 0 -0.05787 0 0.0851609 
-0.00566405 0.00976423 0 0 -0.0797196 0 -0.035678 0 -0.0246729 0 0 0 -0.0645622 -0.109888 0 -0.0332411 0.0122094 0.033515 0.035474 0 0 0 0.0105758 0 -0.0293921 0.0209266 -0.0397353 -0.104719 -0.0318057 0.116765 0.0540877 -0.0291529 -0.0873711 -0.111465 -0.0629081 -0.00989669 -0.0774841 0 0 -0.116719 -0.0822345 0.0739807 0 0 0 0 0.0880469 -0.0169097 -0.0199016 0 0 0 -0.0633294 0 0 0 0 -0.0301781 0.0402661 0.0370044 0.0804371 0 -0.065674 0 0 -0.0131508 0 -0.0433136 -0.012564 0.0518857 -0.0508793 0 0.00400106 0 -0.0162804 0.0541825 0 -0.0237611 -0.0931313 0 0.0219111 0.047251 -0.0408212 -0.0386359 0 0.0362601 0 0 0 0 -0.0895402 -0.0557165 -0.0869295 0 0.102935 0 0 0 0 0 
0.035755 -0.0984205 0 0.112514 0 -0.0443319 -0.0497944 -0.0703594 0 0.0667069 0 0.0883948 0.0146073 -0.0787246 0.104401 0.000929185 0 0 0 0.0394854 0.0948673 0.0448697 0 -0.078217 0 -0.0098018 -0.010621 0 0 -0.0208016 -0.0919386 -0.013421 -0.0589667 -0.104282 0.0185057 0.0373567 0 -0.0413676 -0.0935562 0 0.113825 -0.0110091 0 0 -0.0409875 0.0985308 -0.0459321 0 -0.019661 0.0258077 0.0385203 0 0 0 0 0 0.0837443 -0.0500739 -0.0506401 0.0550807 -0.0947844 -0.0145704 0 0 0.0664297 -0.10651 0 -0.0672818 0.0605882 -0.109298 0 0.0309143 0 0.0258345 0.0293345 0.112475 -0.100099 0 0 0.0740416 0.0667249 -0.0967991 -0.0457101 0 -0.0252126 0.0737941 0 0.0323199 0 -0.0839797 0 0.0980299 -0.109454 0.110035 0 -0.108273 -0.0195595 0.00946904 -0.078463 1.03409e-06 
0 0.0249934 0 0 0 0 -0.0564411 0 0 0 -0.0797738 0 0 -0.0536884 -0.0466635 0 -0.0367273 -0.026518 0 0 0.0942509 -0.0479265 0 0 0.100735 0.108363 0 0 0.0735739 -0.0931478 -0.0759158 0.00880334 0.027139 0.0753509 0.0867341 0.0976509 0.0931279 -0.105921 0 0 -0.0220856 0 0 0 0 -0.0276708 -0.0164951 0 0.00856673 0 0.0893942 0.109125 -0.0367418 -0.0252049 0 -0.0457637 0.0798081 0 0.0307675 0 -0.109528 -0.0899217 0 0 0 0 0.0615851 -0.0522912 0.0845355 -0.0768733 0 0.03966 0 -0.103755 0 -0.0313086 -0.0597204 0.0818474 0.1172 0 0.100838 0 0 0 0 0 0.10024 0 0 0 0 -0.0246906 -0.0260739 0 0 -0.0887852 0 0 0 0.00309759 
0 0 0.0301237 -0.0461262 -0.0285176 0 0 0.0294448 0 0 0 0 0 0 0 0 0 -0.0835797 0.0879737 0 0 0.0621702 0.0356796 0.0866779 -0.112992 -0.0363019 0.0690676 0 0 0.0140768 0 -0.0788233 -0.0024846 0 0.017176 0 0.0518059 -0.0711387 0.0340356 0 0 0 -0.0832954 -0.111262 0.108147 0 0 0 0 0 0.0875637 0.0913742 -0.115847 0.0356268 0.106066 0.0349296 -0.0109441 0.0373125 -0.0747657 0 0 0.013838 0 0 0 0 -0.00613961 0 0 -0.0917313 0 0.117853 -0.0298008 0 0 -0.0418213 -0.0372484 0.0607285 0 0 -0.0300135 0.0307951 0 0.106541 -0.0363256 0 0.0757445 -0.0685464 0 0 -0.0655946 0.0621944 0.0569369 0 0 0 0 -0.105254 0.0763497 -0.0890558 
0 0.059949 0 0.0482806 0 0 0 0 0 -0.113782 0.0133399 0.0304931 0.0590757 0.0386812 0.0039437 -0.00696687 0 0 0.111891 0.0857306 -0.0593716 0 0 0 -0.0245555 0 -0.0697912 0 -0.0653636 0.117754 0.104184 0 -0.0789277 0 0.0432256 -0.0261553 0 0 0 0.0189627 0 0.0778008 0 0 0.101163 0.0748233 0 0 0.0289939 -0.110302 0.0993893 0 0 -0.0850453 0 0 -0.0146443 0.0369471 0 -0.00881462 -0.0452069 0 0 -0.0416062 0.0813679 -0.0668467 -0.096393 0.0349413 0.111698 0.0526581 0 0 0 0 0 0.0969247 0 0 0.0961277 0 0 -0.0667012 0.108976 0.068892 0 0 0.0186694 -0.00250021 0 0 -0.0022627 0 0 0.0543386 0 0 -0.113336 -0.108723 -0.11819 0.00503448 
0 0.0565429 0 0 0 0 0 0 0 0.083948 -0.0270565 -0.0080007 0 0 0 -0.0813412 0 0.0761033 -0.0542117 0.0546866 0.072995 -0.0473249 0 0 0 0.086311 0 0.05123 0 0 0 -0.0606729 -0.0213703 0.000996937 -0.0159939 0 0 0 0 0 0 0 0.0734525 0 0 0 -0.0984596 0 0 0.116047 0.0390814 -0.00539055 0 0 0 -0.0915033 0.0755138 -0.0538397 0 0.00980685 0 -0.0989679 0 0 -0.00979751 0 0 -0.0911897 -0.1146 0.0946172 0.0539528 0 0.110002 0.0785917 -0.00557275 -0.094596 0 0 0 0 0.00971158 0.0159548 0.00246499 -0.0460179 -0.00894844 0.0367548 0 0 0 -0.0374979 0.102093 0 -0.0483957 0 0.0642412 0 -0.058779 0 0.052722 0 
0 0.107859 0.0720778 0 0 0 0 0 -0.0592376 0 0.00500175 -0.0788566 0 0.0185151 0.0102621 0 0.000337513 0.0641614 0 0 0.0692233 0 0.0588727 0 -0.0792483 0.103967 0.101199 -0.0491359 0.0380993 0 0 -0.055249 -0.0222421 0 0.0417446 0 0.0566068 0 0 0.071016 0 0.0210929 0.0302692 0.0257372 0 0 0.0538509 0.104913 0 0 0 0 0 0 0.10843 0.0625653 0.0171606 0 0 0 0 0.0423093 0 0 -0.0462958 -0.0115599 -0.000570481 0 -0.0649293 0.00198318 0 0 0.0375461 -0.0499186 0 0 -0.0729755 0.0944314 0.0907973 0.0281854 0 0 0.000586275 0 -0.0708455 0 0.0467937 -0.0564604 0 0 0 0.0592546 0.100805 -0.0416342 0.00955381 0 -0.106431 0.117868 -0.0406267 0 
0.0674074 0.0872403 0 0 0.044091 0.0631885 0.0799936 0.0766715 0.108311 0.0338009 0 0.110376 0.066564 0.0666678 0 0 0 0 0 0 -0.0517674 -0.118025 -0.0293079 0 0.107146 0 0 0.00661113 0 -0.00328719 -0.108172 0.0129298 0 0 0 -0.0259626 0.0696692 0 0 0.0163228 0 0 -0.102743 0 0 0 -0.0251319 0.0602927 0 0 0 0 0.0726252 -0.0336626 0.0322768 0 0 -0.0340459 0 0 0 -0.0357615 0 0 0 0.101342 0.0238116 0 0 -0.109428 -0.0757318 -0.0301008 0 -0.0756853 0 0.00986967 0.0823887 0 -0.0698669 0 0.0546602 0.0469194 0 0.0280946 0 0.0950733 0.0615345 0 0 0 0.0619397 -0.0525135 0.0852381 0.098828 0.11809 0.0216794 -0.0620021 -0.0366549 0.00647273 0 
0 -0.11429 -0.037466 0.0725564 0 0 0 -0.0542921 0 0 -0.114396 -0.00795049 0.0515789 -0.00629473 0 0.0502946 0 0 -0.00247381 -0.0456655 0 0 0 0.0758217 -0.00304593 0.00213196 -0.0562937 -0.104398 -0.0271391 0 0.0831201 0 -0.103749 0.0516035 0 0 0 0.0690904 0 0 0 -0.103095 0.0154991 0 -0.105756 0.110551 0.0937806 0 -0.016005 0.00137608 0.114372 0.0761335 0 0 0.0963126 0 0 0.0243146 0.106871 0 -0.114433 0.0523461 0 0.0647992 0.0119698 0 0 0 0.0861431 0 0.031313 0 0 -0.00981136 0.116974 0 -0.0814674 0.0302119 0 0 0 0.0475638 0 0.0240668 0 0 0.0207581 0.0163729 0 0 0 0.0913577 0 0 0.0048562 -0.0616983 0 0 0.0403626 0 
0 0 -0.0658474 0 0.0415225 0 0.0503108 -0.0208724 -0.0512751 0 0 0 0.000290883 0 0 0.117415 0 -0.0624926 0.111224 -0.0739444 -0.0256729 0 0 0 0 0 0 -0.0766994 0 0 -0.0468277 0.0161383 -0.0303804 0.115651 0 -0.0663893 -0.0083465 0 0.113766 -0.100384 0.0859894 -0.0112725 0 0 0.116578 -0.0334329 -0.0308422 0.0605161 0 0 0 -0.113738 0 0 0.0639708 0.0478614 -0.117201 -0.0670293 0 -0.0272079 0.0757507 0 0 0 0.0141982 0.0261153 0.0325959 -0.0036171 0.0282095 -0.00738358 -0.0907824 -0.11807 0.1147 -0.0893971 0 -0.0382167 -0.0390493 0 0 0 0 0 0.073853 -0.0416865 0.101964 0 -0.0198631 0 0 0.0566616 -0.0376081 0 -0.0644198 0 -0.0356072 0 0.0443858 0.0406612 0 0.0773626 
0 0 0 0.0834155 0 0 -0.0785391 -0.0709032 0 -0.0177289 0 0 0 0.0994729 0 -0.0527988 -0.0687508 -0.110978 -0.0506367 0 -0.0914837 0 0.117174 0.0360121 -0.0227543 -0.0308139 0.0322785 0.0285592 0.115069 0.0774223 0 0 -0.023714 -0.0794888 0.0472618 0 0 0 0 0 -0.106606 0 0 -0.0351391 0.0354272 0.0392263 0 -0.00608159 -0.00333911 0 -0.0441265 0.112051 0 0 0 0 0.0614529 0 0.058078 0 0 0 0 0 0 0 -0.0626351 0 0.0948009 0.0955454 -0.117166 0 0 0.0480798 -0.0844233 -0.0704152 -0.0861213 0 0.0303007 0 0.0606582 0.0125179 0 0 0 0.0260262 0 0 0 -0.080479 -0.117482 -0.0274171 -0.0394901 0 0 0.100491 0.0422736 -0.105276 0 0.115985 
-0.0128809 0 -0.028471 -0.0248467 -0.0954601 0 0 0.0589983 -0.0756233 0 0.0151693 0.0768 -0.0589496 0.0181134 0 0.0324833 0.0286543 0 0.111447 0 0.088548 -0.0683248 0.0918836 0 0 0 -0.0849395 0.0410112 0 0 -0.00347179 0 0 -0.117677 0 0.113902 0 0 0 -0.0778977 0 0.0934735 -0.0347914 0 0 -0.0204267 0 0 -0.0590436 0.0190093 0 0.0751898 0 0.0489926 -0.0558681 -0.0679985 -0.0529013 0 0.0486519 -0.0182436 0 0.0878889 -0.0240347 0 0.0737483 0 0.0517464 -0.00398199 -0.0961012 -0.0904738 -0.0462198 -0.0975608 0 0 0.0741562 0.00610083 0 0.0998633 0 -0.0675298 0 0.0266452 0.0350735 0 -0.0122254 0 0.102002 -0.0496791 0 -0.115299 -0.0272689 0.0820852 -0.0237905 0 0 0 0.0320732 -0.0217653 0 -0.0320016 
0.0412891 -0.043112 -0.0808778 0 0 0.0466649 0.034075 0 0 0.106602 0 0.0704773 -0.0814557 0 0 0 -0.0462602 0 0 0 0.0128925 0 0 0 0 0 0.0188345 0.113044 0.045507 0.106138 0 0 0 0 0.0467976 0 0 0 0 0.103756 0 0 0 -0.0734615 0 0.0837096 0 0 0.0645809 0.0295618 0.0112293 0 0 -0.0577521 -0.0245223 0.0442386 -0.0223479 0 0 -0.0831499 -0.0686795 -0.0428503 0.00867425 0 0 -0.0824359 0 0 0 0 0 0.112596 0 -0.00645602 0.0476842 0 0 0 0 -0.0552747 -0.0963903 -0.0226218 0 0.0527376 0 0.0532203 0.0447692 0.00427844 0.071139 0 0 0.100032 0 -0.0246339 -0.064361 0.00529949 0 0 0 0 
-0.105993 0.0819418 0 0 0 -0.0336216 0.0249465 -0.0777353 0 0.111613 0 -0.0121068 0 0.112267 0 0 0.0364463 0.0754681 0 0 -0.041515 0 -0.0777829 0 0.0568965 -0.0198012 0.0213959 -0.0693585 0 -0.0759548 0 0 0.0657641 0 -0.0785968 0 0.0760592 0.0293704 0 0 -0.111534 -0.0412565 -0.0392284 0.103999 0.0709725 0 -0.0558908 0 0 0 -0.0216906 0.11542 -0.0220308 0 0 -0.0246819 0 -0.113521 0.116076 0.0964015 0 -0.0929157 -0.105088 -0.0617231 -0.112961 0 -0.0699441 0.0216838 -0.0755592 0.0125379 0.0608677 0 0 0 0.0937364 0 0 -0.0148023 0 -0.112728 0.0687388 0.0312438 0 0 0 -0.0400817 -0.103083 -0.0711946 0 0 0 0 0 -0.0412641 0.111456 0 0 -0.018032 0 -0.0404674 
0 0.0958646 0 0.00889867 0 -0.112183 -0.0392625 0 0 0 0 0 0 -0.0969963 0 -0.0200507 0.0376853 0 0 0.0481346 0.102247 0.0655222 0.103532 0.0312982 0 0.0321174 0.0863229 -0.086604 -0.0221483 0 -0.0884511 -0.0846843 0 0.0134747 0.0457609 -0.060896 0.00956628 0.0480605 0 0 0.0025557 -0.0835571 -0.114748 0 0.0897848 0.0286297 0 0 0 -0.0509746 0 0 0.110321 -0.114678 0.0264093 0 0 0.0118315 0.0532092 0 0 0.11454 -0.0656683 0 0.0495655 -0.0402718 0 -0.00279526 0 0 0.0826294 0 0.0747402 0.0158763 0.0196911 0.0962975 -0.029657 -0.00933375 0.0449341 0.113224 0 0.113016 0 0.0843836 0 0.0614167 0.0889079 0 0.0533276 0 0 0 0.0643846 -0.00229542 0.100558 0.111449 0 0.110132 0 0.105146 
0 0 -0.0698259 0.0661264 0.0918737 0 0 -0.0524487 -0.00231009 -0.0389123 0 -0.0927373 0.0262106 0.112367 0.0416077 0.00540991 0 0.0958786 0.0570485 0.00220955 0 -0.0498737 -0.112295 -0.113459 0 0 -0.0520331 -0.00337232 -0.0139903 -0.0326764 -0.0477411 0.0918023 0 0 0.0273968 0 0 0 0 0.0500731 0 -0.11801 0.0437373 0 -0.00598574 -0.0522481 -0.0576166 -0.102504 -0.0335204 0.0588231 0.0627195 0.0308147 -0.106791 0.100023 0 0 0.0918714 -0.0925274 -0.0800719 0 0.116007 0.0492359 0.0295264 0 0 0.00692284 0 0 0.0304859 0.0526717 0 0 -0.0438897 0 0 0 -0.0630488 0.0921635 -0.0906538 0 0 -0.108321 0 0.110775 0 -0.0823749 -0.106266 0 -0.116314 0 0.0545675 -0.0931489 -0.0612144 -0.0736169 0 -0.018456 0 0.062387 0 -0.0418363 
0 0 -0.115015 0 0 0 0 0 -0.0589422 0.0220546 -0.0197325 0 0 0 -0.0994978 -0.115636 0 0 0 -0.110845 0 -0.097363 0 -0.073993 0 -0.0580578 0.0227966 -0.0748381 0 0 0 0.0320208 0 -0.00626256 0.099613 0 0 0 -0.0231633 -0.108679 0.0145997 0 0 -0.0752949 0 -0.0607133 0 0 -0.0150805 -0.113171 -0.107074 0 0 0.093471 -0.00954816 0 0 0 0 -0.06185 -0.0202156 0.0415462 0 0.0608144 0.0948752 0.111723 0 0.0738063 0 0 -0.0093086 0.030684 -0.00482248 0 0.103839 0 0 -0.096748 -0.114907 -0.086006 0 0 0 0.032559 0 0 0 0 0 -0.0713574 0 -0.110722 -0.100721 0.0381072 -0.0740927 -0.00170406 0 -0.0547614 0 0 
0.0765968 0 0.0483414 0 0 -0.00241632 0.0157158 -0.054389 -0.100728 0 0 0 0 0.063141 0 0.107258 -0.0190726 0 0 0 0 0 0.100561 0 0 0 0 0 0 0 0.00909888 0 0 0 0.0932452 0 0.00315668 0 0.0693851 0 0 -0.0546573 -0.0563325 0 0.00451622 0.000169696 0.0861663 0.0933358 0 0 -0.104253 0 0 0.0926873 0.0316117 0.0328144 -0.0319194 0.104154 0 0 0 0 -0.00881858 0.0515984 -0.0315983 0 -0.0636417 0 0 -0.0113343 0.103681 0 0.0420479 0 -0.0445501 -0.0320174 0.0690744 -0.0238378 0.0497532 0 0.083533 0.101595 -0.107655 0.0686898 0 0 -0.0613323 0 0 0 0 0 -0.11282 0 -0.03916 0 0.069268 0.091389 0.0937022 0.0691062 
-0.0117441 -0.0435034 0 0.0264933 0 0 0 -0.03887 0 0 0.0922706 0 0 0 0 0 0.117661 0 0.0915827 0 0.0670752 -0.112324 0.0581648 0 0.0633424 0 0.0190001 -0.0621851 -0.068459 0 0.104628 0 -0.0167145 -0.0691739 0 -0.069723 0 0 0.096295 0 0 -0.0872301 0.106159 0.00759441 0.0687775 0 0 0.0867952 0 0.0353288 0.0753569 -0.0674046 0.0963883 0.034164 0.0301178 0.0270394 0 0 0 0.109562 0.0336142 0.0857321 0.0305936 0.0719792 -0.0427213 0.0607358 0 0.0388986 0 0 0 0 0 0 -0.0492797 0 0.0959694 0.00480275 0 0 0 0 -0.0245428 0 -0.112159 0 0.106936 0.0088703 0 0 -0.0298488 0.000371021 0 -0.105843 0 -0.0369131 0 -0.0591534 0 0.0889495 
0 0 0 0 0 -0.0409797 0.0446839 0 -0.117628 0.00933909 0 0.0977 0 -0.0788645 0 0 0.00290456 -0.0696618 0 -0.0382186 0 0.0511477 0 0.113842 0.0381821 -0.0890323 0 0.107264 0 0 0.0861442 0 0.0943213 0 0.0517763 0 -0.0635288 -0.000108057 -0.0532111 0 0.0915792 0 0.0836963 0.0640908 0.081315 0 0 0.0823223 0.0178872 -0.0985028 0.0585991 -0.046093 0.0475948 0 0.102276 -0.0911459 0 0 0 0 0 0 0.0975021 0.013626 0.0913263 -0.0487139 0 0 0 0 0.0227654 -0.0260979 0.00164528 0 0 0 0 0 -0.0142442 0.102009 0 0.115815 -0.0264126 0.104272 0 0 -0.024102 -0.104411 -0.0857967 0 0 0 0 -0.0444475 0 0 -0.0145953 0.071976 -0.0697125 0 
0.0229901 0 -0.000958736 0 0 -0.0990098 0 -0.00490212 -0.0419186 0 -0.0738228 0.082084 -0.0596795 0.0777003 0 0 0 0.013134 0 0.0474808 -0.0578208 0.0510315 0.0196566 -0.0736758 0 0 -0.0842553 0.0651077 0 0 0.0801676 -0.0667038 0 -0.107213 0.103726 -0.0644501 0.0659743 -0.0720785 0 0 0 0 -0.0647517 0 0 0 0 0 0 0 -0.0341935 0 0 0 -0.00240276 -0.0273433 0 -0.0418268 0 0.0750333 -0.0783909 0 0 0 0 -0.0704955 0 0 0.0643188 0 0.0723779 -0.088689 0.117797 -0.0340513 0 0.032411 -0.018197 0.0951346 0 0 0 -0.0842091 0 0 -0.0265405 0 0 0.100019 -0.108427 0 0 0 0.0894924 0.02227 -0.031916 -0.079896 0 0 0.0460164 0 
0.0401983 0.0613636 0 0 0 0 0 0.0998073 0 0 -0.0185904 0 0 0 -0.00189051 0.0103625 0 -0.0394822 0.0342845 0.00343455 0.111676 0 0 0 0.0764885 0 -0.0967848 -0.00909136 -0.0764596 0.0880872 -0.022944 0 -0.0348515 -0.083984 0 0 0 0 0 0 -0.0734295 0 0.01462 0 0.0458235 0.0123477 0.0463841 0.106922 0.00601138 0 0 -0.0225856 0 0.0607726 0 0.0362836 0 0.090522 0 0.0741855 0 0 0 0.0968835 0 0 0 -0.0232166 0 0 0.0994237 -0.034146 -0.0867153 0 -0.0890241 0.0272889 0 -0.0220907 -0.105573 0 0 0.00662125 0.0199285 0.0175138 0 0 0 0 -0.0470456 0 -0.0658316 0 0 0 0.00657824 -0.105422 0 -0.0443193 -0.0436486 0 
-0.0737734 -0.0860162 0 0 0 0 0.0917535 0 -0.0729836 0 0.11322 0.0899754 0 0.024642 0 0 0 0 0 0 0 -0.0894113 0 0 0.0230472 0 0 0 -0.00308237 -0.0809388 0 -0.0357127 0 0 -0.0311375 -0.0935833 -0.103456 0 0 0.0170662 0 0.0344657 0.0917948 0 -0.0713899 0.0336033 0 0 0.0498199 0 -0.0436697 -0.0193211 -0.0805608 0 0.027761 0 0.0425152 0 0.0330645 0 0 0 0 -0.0485636 0 -0.00174374 0 0 0 0.0375313 0.0398526 0 -0.0590545 0 -0.0214056 0 0 0 0 0.0488705 -0.0507178 0.0325687 0.0597863 0.0305238 0 0 0.00947903 -0.0044679 0.00426515 0.0434064 0.0869863 0 -0.114831 0.0818672 0 0.0882226 -0.105019 0 0 0 
0.0452593 0.0423952 0.0207114 0.0752151 -0.0551127 0.0715747 0 0 -0.0692784 0 0.0314367 0 0 -0.0429249 0 -0.0729119 0.00442093 0 0.0851038 -0.0883711 0 -0.0390606 -0.0936162 0 0 -0.00387402 0.0932153 -0.00637081 -0.0312831 0.0553735 -0.0925825 -0.0807904 -0.0959617 -0.0659438 0 0.0368452 0.0754785 0 0 0 0 -0.0471622 -0.0177263 0 0.107684 0 0 0.0394707 0.0501476 0 0.0757748 -0.011463 -0.0883093 0.0902081 0 0 0 0 -0.0426823 0.103665 -0.0707851 0.0487185 0.0970315 0 -0.00564432 0 0 0.117872 0 -0.0492202 0 0.0575264 0.0480138 0 -0.0136267 0.0287735 -0.0686946 0 -0.0832388 -0.0335027 -0.0984591 -0.0479136 0.0153684 -0.0973677 0 0 0 -0.00927067 0 0 0 -0.108429 0.039381 0 -0.086525 0 0 0 0 0 
0 0 0.0894353 0 -0.076688 0 0.106173 0 0.0864419 0 0 0 0 0 0 0.0362127 0 0 -0.0503192 0 0 0.00280708 0 -0.117442 -0.00647044 0 0.0732402 -0.0891619 0 0.0954105 0 0 0 0 -0.114201 0 -0.0272401 0 0 -0.116853 0 0 0 0 0.0583255 0 0 0 0 0 0 0 0 -0.0728713 -0.00372946 0.0991937 -0.037249 0 0.0983912 0 -0.0843849 -0.100211 0 0 0 0 0.0622243 0.0178327 -0.0106545 0.0827866 0 0.0925801 0.0985979 0.112917 0.0848367 0 0.112703 0.0132833 -0.0799198 -0.117471 0.0822892 0 0 0 0.0390115 0 0.00731043 0 0 -0.0416223 -0.0537422 -0.0840755 0.0697322 -0.101472 0 -0.106978 0 0 0.0460414 0.0490174 
0 -0.115734 0.0506624 -8.0679e-05 0 -0.11098 -0.0117498 0 0.0419961 0 0.0761302 0 -0.0558041 -0.107379 0 0 0 0.0517329 0 -0.0174593 0.00164046 0 0 0 0.00957121 0 0.016801 0 0 0 0 0.0395027 0 0.0149882 0 0.00721114 0 0 -0.0603215 -0.0558113 0 0.044939 0 -0.088254 0 0 -0.0459404 0 0 0.00838165 0 0.0980646 0.00628136 -0.0971201 0 0 0 0.0718494 0 0 0 -0.0166652 0.0185027 -0.0493335 0 -0.104845 0 -0.0325759 0 -0.0617154 0.0451689 0.0494667 0 0 0.0810924 -0.0321317 0 0 0 0.000240807 0.0886514 0 0 0 -0.100468 -0.0481308 -0.0762556 0 -0.0150254 0.0550249 -0.0422011 0 -0.100408 0 0.0988941 0.0072463 0 0.046964 -0.116408 -0.0580414 
0.0470756 0.115436 -0.0737492 0.0959243 -0.0987345 0 0 0 -0.110444 0 0.111819 -0.0189994 -0.11161 0 -0.078292 -0.0310122 -0.0933805 0 -0.108003 0.00250593 0.0608811 0 0.0385957 -0.023996 0.0865605 -0.0720985 0 0 0.0879355 0.0184701 0 0 0 0 0 -0.106275 0 -0.039078 0 -0.0430146 0 -0.100343 0 0 0 -0.0802438 0.104688 0.117414 0 -0.0815356 0.0408555 0 0 0.095081 -0.0217508 0 0 0 0.0690455 0.10742 0.00602197 -0.0743124 0 0.100359 0 0.0534529 0 0 -0.0238229 0 0 0 0.0262661 0 0 0 -0.106568 0 -0.0100184 -0.0013208 -0.0766067 -0.0721735 0 0.0550139 0.050757 0 0 0.0957014 -0.0795519 0 0 -0.0196241 0 -0.0578838 -0.0790264 -0.107621 0 0 -0.10187 -0.0776256 
-0.0469313 0.0759791 0 0 0 0 0 -0.0597765 0 -0.0211187 0 -0.011339 0 -0.0935028 -0.0479424 0.0774511 0 -0.111079 -0.0740328 -0.11441 0 0 -0.0583206 -0.00436529 0.100876 0 0 -0.0522066 0.0199813 0 0 -0.116633 0 -0.0392275 -0.0209702 0.0240524 0 -0.012732 0.0990531 -0.0832561 0.0814876 -0.102155 -0.0674865 0 0.0353884 0.00788397 0 0 -0.112534 -0.00604215 0 0.07294 -0.0373856 0.0822741 0 -0.0486676 -0.0990581 0 -0.111447 0 0 0.10101 0 -0.0753188 -0.0568497 -0.0323386 -0.0750537 0 0.0371138 0 -0.00815584 -0.100613 0 0.105288 0 0 0.0422578 -0.0551281 0 -0.0230168 -0.107141 0.0933762 0 0 0.104735 -0.0787302 0 0.110878 0 0 -0.0595707 0 0.0434371 0 0 0.0537759 0.108801 0.00480105 -0.0317842 0 
0 0 0 0 0 0 0 0.0107156 0.0494507 0 -0.0019641 0 0.0566749 0 -0.0180976 0 0 -0.0907546 0 0 0 0 0.0538277 0 0 0 0 0.0663572 0 -0.0320828 -0.0285692 0 -0.109699 0 -0.024968 0.0238969 0.0539811 0 0 0 0 -0.0949554 0 -0.0163063 0.0415143 -0.0388361 -0.0223315 0.0145307 -0.00456173 0 0 -0.114463 -0.0899997 0 0 0.0696567 -0.0821496 0 0 0 -0.0441437 -0.0335125 0 0 0 0 0 0 0.0604764 0.0183223 -0.0031281 -0.0405091 0 0.0805391 0 0 0 0 0 0 0 0 0 0 0 -0.116584 0 0 0.10227 0 0.0761824 0 0 -0.010136 0 0 0 -0.0340437 0 0 
0.0490778 0 0 0 0 -0.0748249 -0.0802768 -0.000869981 0 -0.0596053 0 -0.0918551 -0.0384467 0.115785 0 0 -0.00455242 -0.00475563 -0.0228045 0 -0.0919364 0 -0.0793215 -0.0493117 -0.0975012 0 0.0198385 -0.0864171 0.09659 0.104797 0 0.102694 -0.082114 0.0544793 0.0306619 -0.0070528 0 0.0764051 0.0395597 -0.0451908 0.016153 0.0381402 -0.0688554 0.0329543 -0.0999978 0 -0.11341 0 0 0.0893892 -0.0384718 0 0.1104 -0.0623868 0.0612599 -0.0840314 0 0 0 0.095636 0.0381818 -0.0427859 0.0151548 0 0 0 -0.117247 0 0 0 0.0632401 0 0.00790608 0.0320751 -0.0559879 0 0 0.075945 0 0 0 0.111457 0.116857 -0.0260905 0.107032 0.0402917 0 -0.118064 -0.0387193 -0.115778 -0.112128 0.0934389 0 -0.0807587 0 0.0156413 0 0 0.0470043 -0.0239337 
-0.0304908 0.0168725 0.0335598 0.0236031 0 0.023749 0 0 0 -0.0494754 0 -0.0742461 0 -0.0367951 0.000476073 0 0 -0.0383348 0 0 -0.0447748 0 0 0 0 0 -0.0978232 -0.0829783 0 0.0727009 -0.0442055 -0.0399257 -0.0510206 0 0.030394 0 0 0.0733686 0 0.10384 0.0268466 0.0646926 -0.0870464 0 0.108415 0 -0.0927726 -0.0626653 0.00685206 0 0 0.0963578 0 0 0 -0.10214 0 0 0 -0.0373272 0 0.107729 0.087367 -0.0711221 -0.0940303 0 0.00639647 0.00207416 -0.0755511 -0.0449299 0.0940623 -0.00205426 0.0814666 0 0.0456625 0 0 0 0 0 0 -0.0196894 0 0.0273982 -0.052553 0 0 -0.108998 0.0157843 0.0448677 0 0.0207203 0 0 0.103749 0.0772502 0 -0.0334319 -0.0167444 0 
0 -0.0887349 0.0673751 0 0 0.00335475 0.0868751 0 0 0.0644376 0 -0.0742986 -0.0224138 0 -0.0368747 0 0 0 0 -0.075565 -0.066871 0 -0.0373962 0 -0.0987329 0.000705765 0 0 0 0.0321411 0 0 0 0 0 0 0 0 0 0.0260903 0.0805829 0 -0.113192 0.0119177 0.101194 0 -0.0311318 -0.0994397 0 0 -0.0610548 0 0 0.0338544 0 0 0 0 0.10626 0.0112777 0.00570503 0.0677954 0 -0.104148 -0.0037699 0 -0.113028 -0.0532785 0 0.081761 0 0.0157794 0.0036187 0 0.0419292 0 0 0 0 0.0964382 0 -0.0481206 -0.0693346 0 0.0270768 0 0.0980098 0.0378229 -0.0440883 0 -0.0574624 0 0.0421885 0.0736959 0 0 0.0950663 0 0 0 
-0.0818259 -0.0914395 0 0.0755279 0.0940758 0 0 0 0.0453603 0 0 0 0 0.102835 -0.00688649 -0.0117715 0 -0.0654692 0 0.0961182 0 0 0.107317 -0.00673215 0 -0.0711035 0 0 0.105849 0 0 0 0 0.114926 -0.0149092 -0.107871 -0.100522 0 -0.0477819 0 0 -0.0428414 0 0 0 0 0 -0.0828731 0.0343459 0 0.021985 0 0.0100215 0 0.0067382 -0.111422 0.0743421 -0.0643252 0 0 0.0112405 0.054439 0 0 -0.0853346 0.0547545 0.108767 -0.0486155 0.0789844 0.0118085 -0.016609 0 0.108339 0 0 -0.0394881 0 0 0.0440491 0.115028 0 0.0834269 0 0.116302 -0.0420545 0 0 0.102935 0.0764774 0 0 0 0 0 0 0 0 -0.0420592 0 0 
0 0 0.0062552 0 -0.0894118 0 0 -0.0200017 -0.110066 0 0 0.116274 0.0821145 0 0.022388 -0.0183319 0 0 0.0390396 0 0 -0.0564397 0.0233621 0.00809157 0.096823 0 0 0 0.0879538 -0.0166652 0.0425927 0 0 -0.0624431 0 -0.0465897 0 0.0190879 0 -0.0755033 0.10257 0 0 -0.0639178 0.0850474 0 0 0.0617169 0.089767 -0.00799255 0 0 -0.0279852 -0.089037 0 -0.017417 0 0 0.112406 0 0 -0.0458721 -0.0342405 0 0 0 0.117841 0 0 0.0617882 0 -0.064414 0 0 0 0 0 0 0.0346487 -0.116667 0 0.11395 0.0850056 -0.105978 0 0.0922923 0 0.0209805 0 0 -0.0930644 0 0 -0.0484003 0 -0.0211986 -0.0101766 0.111422 -0.0440765 0 
0 0 0 0 -0.088593 -0.0392125 0 0 -0.0643923 -0.111249 -0.106729 0 0.101441 0.093866 0.112675 0.0818385 0 0.0750509 0 0.0698063 -0.057891 0 -0.0945433 0.00278927 0.0062063 0 0 -0.0164038 -0.050143 0 0 -0.0216921 0.0677797 0.0420002 0.115562 -0.106339 0.0350501 0 0.0384103 -0.0339084 0 0 0 -0.0923426 -0.097349 0.00403025 -0.0301486 0.117743 0.0460105 0 0 0 0 0.017818 0 0 -0.0368896 0.105327 -0.0106009 -0.0467983 -0.0719324 0 0 -0.0467818 0.00741862 0 0 0.0293453 0.0138041 0 0 0.0709364 0 -0.0294553 0 0 -0.0689984 0 0 0 0 0 0.0459318 0 -0.00935167 0 -0.0437744 0 0.0444694 0.0567564 0 0 0.0796563 0.0848389 0.0763153 0 0.0979863 0 0.070646 -0.0261552 
0.0351836 0.0786367 0 0 -0.0521065 0 0 0 0 0 0 0 -0.084225 -0.0727459 0.0969645 0 -0.0840712 0 0 0 0.013096 -0.116225 -0.0685115 0 0 0.0456646 0.0712677 0 0 -0.0988132 0.0620717 -0.0996082 0 0 0 -0.10971 0 0 -0.115853 0 0.0304959 -0.0895105 0 0 -0.00216742 0.0835618 -0.0900341 0 0.0109895 0 -0.0544262 -0.0779764 0 0 0.0282405 -0.0397314 0.0230473 0 -0.089415 0.0910428 -0.0724189 0 0.00597842 -0.0532648 0 -0.0250892 -0.0683492 0 0 0 -0.0551437 0 0 0 -0.07611 0 0 0.0231986 0 0.0519933 0 0.0996313 -0.0974359 0 -0.0942899 0.0678431 0 0.0757935 0.00125037 0 0.0509342 -0.0490239 0.00641864 0 0 0 0 0 0.0678488 0 
-0.00561753 0.0631834 -0.0685846 0.0632196 0.0791169 0 0 -0.0295631 0.0957172 0.1028 0 0 0 0 0 -0.0362913 -0.00878449 -0.117838 0.066073 0 0.0949243 -0.098056 -0.0524244 -0.0183253 -0.0219834 0 0 0 -0.0195427 -0.097935 0 0 0 0 0.025069 0 -0.101925 -0.0491145 -0.0518214 0 0 0.060127 0 0 0.114113 -0.0838145 0 0 0 0 0 -0.0193657 -0.0915085 -0.0477196 0 0 0 0 0.111844 -0.00397136 0 0.029048 -0.0501446 -0.00790149 0 -0.0119983 0.0130632 -0.107314 -0.115705 0 -0.0168613 -0.0232984 0 -0.0126729 0 0 0 0 0.0223696 -0.0242539 0 0 0.115397 0 0 0.0941321 0 0 0 0 0.0393936 0.0848557 0.101189 -0.0339044 0 0 0.0369073 0 0.0381195 0 
-0.0828492 0.0869197 0 0.0841069 0 -0.0176177 0 0 0 0 -0.0693415 0 -0.102695 0 0.0838696 0.117121 0.0903272 -0.11294 0 0 0.0289237 0 -0.00236633 0 -0.0364691 0.0959218 0 -0.0843709 0 0 0 0.115276 -0.0386317 0 -0.0729717 0 0 0.0404777 -0.0979062 0 -0.0321886 0 -0.048487 0 0 0 0 0 -0.0341851 0 0 0 0 0 -0.0726247 -0.111767 0 0 0 0 0 -0.032331 -0.0311923 -0.0660491 -0.0619899 0 -0.00561897 0 -0.103927 0 0 -0.0864263 0 -0.0379074 0.00618249 0 0.012625 0 0.0643056 0.110954 0 0 -0.0183826 -0.0702828 -0.0667192 0 0 -0.0289586 0 0 0 0 0 0 -0.116849 -0.0823641 0 -0.0876728 0 0 
0.0844734 0 0 0 0.10218 0 0 0 0.0673166 0.039925 0.0250439 0 0 -0.00728975 0.06958 -0.0214646 -0.018738 0 0 0 0 0.00725816 0 0 0.0697931 0 -0.0877256 0.0113285 0 0.065331 0 0 0.0651139 0 -0.0603855 0 0 0 -0.0934216 0 0 0 0.0768121 0 0 -0.0884907 0.000905304 0.0966629 0.0365921 0 0 0 0 0.0706932 0 0.0812608 0.0130755 -0.0141807 0 0.0106074 0.105847 0 0.0644499 0 -0.00443786 0.117911 0.10466 0 0.0230428 0.0868673 0 0 0 -0.0678825 0 0 -0.0546686 0.06701 0 -0.0405923 0 0 0.0777963 0 0 0 0.0834725 0.0840284 0 -0.00632444 0 -0.0376668 -0.070892 -0.0325772 -0.0101965 0 0.0533445 0.00942611 0.0657993 -0.0225416 
-0.0768105 0 0 0.0155212 0 0 0.00230756 0 0.114193 0 0 -0.0679659 -0.102346 -0.035367 0 0 0 -0.0533963 0 -0.105807 0 -0.0124584 0 0 0.0903716 0 0 0 -0.0247342 0 0 -0.117505 0 -0.0672612 0.0636387 0 -0.0489036 0.0425186 0 -0.0410063 0 0 0 0 0 0 0.108768 0 0.081726 0 0 -0.0922206 0 0 -0.0500231 0 0.00260371 -0.0901621 -0.027459 0 0 -0.0466876 0.0667614 0 -0.0340834 0 0.0899985 0 0.0998992 -0.0666184 -0.0331954 -0.0281344 -0.0139357 0 0 0 0 0.0917539 0 0 -0.111518 -0.0557652 0 0 -0.106254 0 0.00327448 -0.0156612 0.0338521 0.0257765 0.0973755 -0.0231743 0 -0.101332 0 -0.0586761 0 0.00384324 0.117594 -0.10411 
0 0.0103472 0.0505586 0 -0.0643766 0.0483041 0 0 -0.0644148 -0.0783786 -0.0778982 0 0 0 0 0 0 0 -0.115853 0 0 0 0 -0.0667156 -0.0957499 0 -0.0317846 -0.0512923 0 0 -0.041025 0.0707193 -0.0779882 0.0128483 -0.0681994 0 0 0.032834 0 0 0 -0.0544384 0 0 0 0.102684 -0.105148 0 -0.0382303 -0.0339407 0 -0.0326612 0 0 0 0 0 -0.0356559 0.0351715 0 0 0 0 0.0314184 -0.0941699 0.0063647 0 0.105473 0.0488054 0 0 0 0.0569027 0 0 0.109607 -0.107251 0 -0.024697 0.039903 -0.0119294 -0.0662916 -0.0991569 0 0 0.0675918 0.108602 0 0.0391973 0.107533 0 0.0462255 0 0 -0.00519337 0 0 0 0 0 
0.0814667 0.0937682 0 -0.0316264 0 0.103438 0.0616009 0.0910311 0 0.0120187 0 0 0 0 0.0726393 -0.041446 0 0 0 0.0235423 0 0 0.0041303 0.0559004 0 -0.0923651 0 0 0 0.0252877 0 0.0418621 0 0 0 -0.0951817 0.016774 0 0.08422 0 -0.0405015 0 0 0 0 -0.102991 -0.0013107 0 0.0478203 0.0505136 0.111971 -0.0870986 0 0 0 0.0870677 0 0 0.0720214 -0.0483576 0 0 0 0 0 0.0745735 0 0 0.0577752 0 0 0.0118552 -0.0904814 -0.0210888 0 0.00363456 0.00641349 0 0 0 0 0.0767505 0 0 0 0 -0.104488 0 0 0 0 0 0.0555784 0 -0.0507761 0.027487 0.0856949 0.114291 -0.0104345 0 
-0.00334823 0 -0.0424503 0.0479235 0 0 0 0.062638 0 0 0 0 0 -0.0362406 0.0293672 -0.0890112 0 0.114893 -0.0178855 0.0145365 -0.0885842 0 0 -0.031262 -0.020714 -0.0964267 0 0.0844211 0.0384214 0.00691153 0 0 -0.0398114 0.00186382 0.0992771 0 -0.112171 0 0.0205748 0 0.031763 0 0 -0.0139408 -0.0901391 0.0968947 -0.0259464 0 -0.0424994 0 0 0 -0.106622 0.0568618 0 0.0447592 0 -0.103439 0.0206595 0.0426284 0 0 -0.0652862 -0.0301517 -0.0235142 0 0.0687491 0.0698227 0 0 -0.00319404 0 0 0 -0.102636 0 -0.115591 -0.0729632 -0.0936338 0 0 0 0.0618667 0.084076 0.0927062 0 0.0306942 0 -0.0176928 0 0.103529 0.0453275 0 0 0.0154925 -0.0566904 -0.0665198 0 -0.041944 0 
