{
    "layers": [
        {
            "name": "input",
            "type": "input",
            "size": 11
        },
        {
            "name": "lstm_level_0",
            "type": "lstm",
            "size": 10,
            "bias": 1
        },
        {
            "name": "output",
            "type": "softmax",
            "size": 8,
            "bias": 1
        },
        {
            "name": "postoutput",
            "type": "multiclass_classification",
            "size": 8
        }
    ],
    "weights": {
        "lstm_level_0": {
            "input": [
                0.954219,
                0.789386,
                -0.556366,
                0.0034665,
                0.74377,
                0.549402,
                0.398083,
                0.477704,
                -0.506572,
                -0.613831,
                0.402399,
                -1.49856,
                -1.54809,
                0.229674,
                0.0725502,
                1.58939,
                0.265429,
                0.825292,
                0.433764,
                -0.314468,
                -2.48249,
                1.1856,
                1.74551,
                1.55005,
                0.503444,
                0.011456,
                0.641487,
                0.47561,
                0.397301,
                0.492197,
                -0.278468,
                -1.09149,
                1.70866,
                -2.38169,
                -2.32277,
                2.25919,
                0.108328,
                -1.88118,
                -0.566153,
                0.805611,
                0.897267,
                0.498453,
                0.105759,
                3.14232,
                -0.384277,
                0.047943,
                -1.73212,
                -0.182581,
                0.341269,
                0.491065,
                0.779878,
                0.879176,
                1.45751,
                1.49,
                -0.632928,
                0.354806,
                0.287366,
                2.51576,
                0.116303,
                -0.147644,
                -0.256159,
                0.0734711,
                -0.0208599,
                0.0668836,
                -0.286193,
                2.36616,
                2.15631,
                1.67373,
                1.61209,
                0.0983929,
                1.89368,
                1.22225,
                0.609083,
                0.482478,
                -2.15794,
                -0.493942,
                2.43613,
                1.0089,
                0.861955,
                3.22582,
                0.120735,
                0.407233,
                0.0663951,
                0.00705931,
                0.0881267,
                -0.340929,
                -1.1948,
                3.10053,
                0.538472,
                0.445479,
                1.16375,
                0.0465313,
                -0.466792,
                -0.954717,
                -0.25382,
                0.148653,
                -0.909496,
                -2.79191,
                1.56674,
                -0.421174,
                -0.464956,
                -1.33262,
                -0.0506739,
                -0.517639,
                -0.168231,
                -0.600302,
                -0.51798,
                0.57,
                2.51764,
                -2.15192,
                0.0259929,
                0.10261,
                -0.0613379,
                -0.104689,
                0.00454108,
                0.186327,
                0.121652,
                0.0819403,
                -0.0533859,
                -0.101042,
                -0.03877,
                -0.137503,
                -0.247479,
                0.0758592,
                -0.0271495,
                -0.136343,
                -0.0861009,
                -0.154764,
                -0.0055946,
                -0.303466,
                -0.0532705,
                0.162327,
                -0.481408,
                -0.513787,
                0.726997,
                0.0111738,
                0.67675,
                -0.119423,
                -0.0622234,
                -0.0116526,
                1.25737,
                -0.576068,
                0.448438,
                0.256492,
                0.10848,
                0.45273,
                0.45785,
                -1.12064,
                -0.48513,
                0.148914,
                0.124575,
                0.613043,
                -0.680915,
                0.643006,
                0.820993,
                0.554099,
                0.0778495,
                0.094311,
                1.36082,
                0.700771,
                0.546528,
                0.491413,
                0.825723,
                0.352966,
                0.726822,
                0.474948,
                0.559317,
                -1.20331,
                0.111109,
                0.27271,
                0.34163,
                0.50552,
                0.137946,
                0.260832,
                0.232857,
                -0.779895,
                -1.19848,
                -1.25708,
                -1.29489,
                0.155678,
                0.111116,
                0.533617,
                0.942596,
                1.03306,
                0.866269,
                -0.234922,
                -0.416298,
                0.0469798,
                0.0242544,
                -0.790427,
                -0.0915986,
                0.397277,
                0.492008,
                0.848188,
                0.765481,
                0.36639,
                0.266802,
                0.477696,
                1.27397,
                1.30181,
                -0.269378,
                -0.0837163,
                1.62429,
                3.41031,
                0.0517376,
                -0.0721359,
                -1.0138,
                -0.953652,
                -0.25451,
                0.23033,
                0.306899,
                -0.459805,
                -0.00754711,
                0.246342,
                0.384391,
                0.564444,
                0.545605,
                0.268871,
                0.32456,
                0.146154,
                0.0826713,
                -0.0142844,
                -0.115012,
                -0.0935648,
                -0.0135874,
                -0.0699469,
                -0.0262222,
                0.183901,
                -0.0596776,
                -0.132488,
                0.080133,
                0.0515705,
                0.197521,
                -0.221494,
                -0.0374758,
                0.0484474,
                0.143302,
                0.0560848,
                -0.0739739,
                0.0238246,
                -0.0219586,
                0.0989891,
                -0.245976,
                -0.411227,
                0.306815,
                -0.0364291,
                0.751842,
                0.405738,
                0.425243,
                0.401346,
                1.01171,
                -0.165891,
                0.545042,
                0.0657794,
                0.0254369,
                1.1404,
                -0.149039,
                -0.91544,
                -0.668425,
                -0.940744,
                -0.81225,
                -1.17995,
                -1.05995,
                0.245579,
                0.869382,
                0.802002,
                -0.208235,
                -0.0609635,
                1.89089,
                1.1157,
                0.896766,
                0.756854,
                1.32781,
                0.876679,
                0.974777,
                0.367982,
                0.158482,
                -0.773067,
                -0.103845,
                0.872039,
                0.709953,
                0.768537,
                0.678549,
                0.247955,
                0.12602,
                0.0868263,
                -0.395277,
                -0.267777,
                -0.233183,
                -0.0364442,
                -1.34432,
                0.128586,
                -0.484398,
                -0.468417,
                0.622409,
                0.354141,
                -0.912382,
                0.0314686,
                -0.24306,
                -0.298129,
                0.0118504,
                0.471928,
                0.385777,
                0.637743,
                0.606287,
                0.13876,
                0.0945145,
                0.845824,
                1.77195,
                1.65416,
                0.447052,
                0.14766,
                2.35537,
                2.15691,
                -0.377604,
                -0.233234,
                -0.032853,
                0.318242,
                0.0296128,
                0.395398,
                0.409626,
                -1.09049,
                0.0184963,
                0.460289,
                0.718304,
                1.02227,
                0.658793,
                0.614858,
                0.46403,
                0.324046,
                0.360845,
                0.216675,
                -0.946684,
                -0.0639779,
                0.521684,
                0.535571,
                0.797793,
                0.860179,
                0.499893,
                0.419343,
                -0.101594,
                0.971367,
                1.04034,
                -1.13395,
                -0.139366,
                1.34531,
                1.43671,
                1.204,
                1.3718,
                1.49969,
                1.95869,
                0.742362,
                -0.0474436,
                0.124506,
                -0.0992888,
                0.0854567,
                1.06677,
                1.08848,
                0.930284,
                1.15464,
                1.01657,
                0.546631,
                1.03036,
                0.179782,
                0.410094,
                -0.582128,
                0.274984,
                0.610878,
                0.823215,
                0.896023,
                0.664122,
                0.504385,
                0.280485,
                0.525133,
                -0.863573,
                -0.917383,
                -0.706035,
                0.182467,
                -1.77487,
                -0.835678,
                -0.253013,
                -0.281653,
                -0.416723,
                -0.0402152,
                -0.843918,
                0.293642,
                0.439899,
                -0.729008,
                0.208715,
                0.848371,
                0.891983,
                0.675346,
                0.586016,
                0.457594,
                0.128001,
                0.440109,
                -1.67199,
                -1.70039,
                -2.02089,
                0.0602264,
                -0.029365,
                0.67272,
                0.79189,
                0.786153,
                -0.153216,
                -1.68333,
                -0.795551,
                0.499737,
                0.358845,
                -0.137465,
                0.049244,
                0.713692,
                0.65777,
                0.626537,
                0.757852,
                0.405713,
                0.00389672,
                0.72246,
                0.83536,
                0.617945,
                -0.873253,
                -0.0281023,
                0.285511,
                0.583083,
                0.636545,
                0.6731,
                1.06834,
                0.853843,
                0.135502,
                0.0448368,
                0.133806,
                0.544834,
                0.0989989,
                0.0519096,
                0.0522911,
                0.114672,
                0.119999,
                0.216805,
                0.45359,
                0.217841
            ],
            "bias": [
                0.870321,
                0.924711,
                0.805567,
                0.874189,
                0.987417,
                -0.112052,
                0.791467,
                -0.404457,
                0.519619,
                -0.630351,
                0.267437,
                0.0218416,
                -0.14702,
                0.130369,
                0.659314,
                0.550484,
                1.06686,
                1.06511,
                -0.137622,
                0.81651,
                0.271783,
                0.182956,
                0.379486,
                -0.760979,
                0.960153,
                1.26226,
                -0.603273,
                0.92491,
                -0.519504,
                1.18499,
                0.836338,
                1.70744,
                1.25766,
                1.16401,
                0.191904,
                1.08826,
                1.44096,
                1.07918,
                0.908387,
                -0.157127
            ],
            "internal": [
                0.409932,
                0.379953,
                -0.501048,
                -0.639305,
                0.419346,
                -0.210941,
                -0.273193,
                -0.290221,
                -0.0264858,
                0.215964,
                0.315749,
                0.257754,
                1.41016,
                0.599849,
                -0.11777,
                0.632033,
                -0.0123616,
                -0.160804,
                0.555904,
                -0.493751,
                0.525035,
                -1.01427,
                1.10347,
                -0.821112,
                0.530286,
                -0.110326,
                -0.286935,
                -1.13249,
                0.260877,
                0.610062,
                -0.867385,
                -1.31398,
                -0.902431,
                -1.43483,
                0.876363,
                0.0876881,
                -0.686107,
                -0.84229,
                0.542683,
                0.447315,
                0.0391806,
                -0.242947,
                0.0398886,
                0.0624148,
                -1.24448,
                -0.464188,
                -0.304364,
                0.0963698,
                0.0738958,
                0.434689,
                0.318993,
                -0.134295,
                0.51082,
                0.282355,
                0.387429,
                0.422798,
                0.135603,
                -1.4021,
                0.407687,
                0.28557,
                0.105074,
                -0.0333464,
                -0.810472,
                0.0192954,
                0.199138,
                -0.089038,
                0.274008,
                -0.128237,
                0.975178,
                0.01706,
                0.732507,
                0.0853803,
                0.371386,
                0.120791,
                0.19382,
                0.659467,
                0.134772,
                0.0593694,
                0.479729,
                -1.39246,
                0.140825,
                -1.68993,
                1.17673,
                -0.120955,
                0.330156,
                0.0591479,
                0.82352,
                -0.229866,
                -0.134722,
                0.209333,
                -0.701565,
                -0.258937,
                -0.354618,
                0.228866,
                -1.30664,
                0.350801,
                -0.168549,
                -0.560762,
                -0.933955,
                0.644256,
                -0.136506,
                -0.295129,
                0.0294381,
                0.223997,
                0.208828,
                -0.159303,
                0.0796132,
                0.0572935,
                0.150638,
                0.160241,
                -0.0555022,
                -0.293458,
                -0.0869885,
                0.825934,
                -0.0845437,
                -0.371208,
                0.0748741,
                0.112944,
                -0.0910995,
                0.219505,
                -0.0413841,
                2.47907,
                0.454191,
                0.386368,
                0.269787,
                -0.0113197,
                -0.430859,
                0.238854,
                0.608607,
                0.00365335,
                0.0950241,
                -0.584029,
                0.866086,
                0.37837,
                -0.0884449,
                -0.0293049,
                0.771661,
                0.192743,
                -0.224068,
                0.113453,
                0.276746,
                0.279497,
                0.25247,
                0.584126,
                -0.00992211,
                0.154681,
                -0.412468,
                0.0486373,
                -0.192606,
                0.19103,
                0.135676,
                0.199789,
                -0.133169,
                -0.00129316,
                0.0633338,
                0.507863,
                -0.434337,
                0.825783,
                0.643498,
                0.0596794,
                -0.298107,
                -0.464955,
                0.376186,
                0.537499,
                -0.212931,
                -0.227528,
                -0.344268,
                0.214669,
                0.488798,
                0.220403,
                0.22803,
                -0.15148,
                -0.159768,
                -0.141511,
                -0.0861436,
                -0.409566,
                -0.580643,
                -0.0287649,
                0.0587218,
                0.164382,
                0.099656,
                -0.0385983,
                -0.0338098,
                -0.737112,
                0.034465,
                0.565667,
                1.96318,
                0.40139,
                -2.3182,
                -1.10804,
                0.0854935,
                0.039367,
                0.0429625,
                -0.0926397,
                0.0148174,
                -0.459755,
                -0.195011,
                0.059651,
                0.273157,
                0.0358524,
                -0.170473,
                -0.0728806,
                -0.158652,
                -0.0352257,
                0.0500718,
                0.00369877,
                -0.233257,
                0.093841,
                -0.203153,
                0.423777,
                0.0751112,
                -0.453828,
                0.139103,
                0.0881194,
                0.101076,
                -0.220053,
                0.293104,
                0.0985123,
                -0.171531,
                0.136233,
                -0.121817,
                1.15581,
                1.51785,
                0.125466,
                -2.14545e-05,
                -0.127588,
                0.00709251,
                0.248932,
                0.681872,
                -0.292924,
                -0.0207049,
                0.447607,
                -0.189541,
                0.0687896,
                -0.0893713,
                0.279207,
                0.398045,
                0.0615864,
                1.62547,
                -0.569408,
                0.0969375,
                0.236904,
                0.419467,
                0.882404,
                -0.164036,
                0.24745,
                -0.579514,
                0.194479,
                -0.504022,
                0.341366,
                0.298216,
                0.111276,
                0.318963,
                -0.262517,
                -0.00795812,
                -0.252052,
                -0.0690349,
                -0.161411,
                0.00301041,
                0.181837,
                -0.117872,
                -2.63771,
                -0.468637,
                -0.504456,
                -0.0168367,
                0.290526,
                -0.0659079,
                0.0111014,
                0.799609,
                0.0554208,
                0.15161,
                -0.183817,
                -0.181544,
                -0.0845956,
                -0.411081,
                -1.05769,
                -0.464056,
                -0.0587233,
                -0.503164,
                0.087567,
                -0.175359,
                -0.203602,
                -0.102877,
                -0.75712,
                -0.100844,
                -0.629409,
                1.45734,
                0.0170934,
                -1.87331,
                -0.0993469,
                0.255676,
                -0.299209,
                -0.0954327,
                -0.139769,
                -0.021827,
                -0.610311,
                -0.431999,
                0.613226,
                0.442292,
                -0.0497284,
                -0.128225,
                0.31833,
                -0.379381,
                -0.548637,
                0.387553,
                -0.659279,
                -0.650954,
                0.16804,
                -0.184355,
                0.462874,
                -0.366043,
                0.512422,
                0.612783,
                -0.171221,
                0.0110404,
                -0.238388,
                -0.243738,
                0.0551746,
                -0.183873,
                0.00524701,
                -0.0318769,
                0.372655,
                0.48616,
                0.302726,
                0.104473,
                0.106251,
                -0.459179,
                0.254331,
                -0.0434137,
                0.125169,
                0.0157257,
                -0.340989,
                0.0764188,
                0.221732,
                0.371745,
                -0.292904,
                -0.353273,
                0.135517,
                -0.0397227,
                0.0342412,
                -0.602428,
                -1.07348,
                -0.896203,
                -0.372306,
                -0.576876,
                -1.28641,
                0.205149,
                0.339148,
                -0.0647099,
                0.20592,
                0.33446,
                0.0989309,
                0.227055,
                -0.0109067,
                -0.0166042,
                -0.0734963,
                -0.0476308,
                0.140157,
                0.369762,
                0.0845917,
                -0.157064,
                -1.40522,
                -0.0610532,
                -0.494595,
                -0.16885,
                -0.604549,
                0.264598,
                0.213225,
                0.406056,
                0.552661,
                -0.112919,
                -0.180209,
                0.0534679,
                -0.0459892,
                -0.472976,
                -0.355665,
                -0.23878,
                -0.113452,
                0.242095,
                0.198935,
                -0.0215256,
                -0.590704,
                -0.295286,
                -0.46505,
                0.368798,
                0.327049,
                -0.568951,
                0.62172,
                0.251649,
                0.498377,
                0.0771611,
                -0.22443,
                0.140484,
                0.212977,
                0.293357,
                -0.00844068,
                0.102106,
                -0.567366,
                0.266177,
                0.504644,
                11.473,
                -0.324053,
                1.29694,
                -6.13469,
                0.026274,
                1.36039,
                -1.18852,
                32.629,
                1.31529,
                -1.46396,
                2.01475,
                -1.04836,
                -0.561899,
                -5.70372,
                0.753933,
                0.212869,
                0.334662,
                0.41751,
                -0.426228,
                -1.46705,
                -8.25203,
                -17.058,
                -0.197913,
                -0.460749,
                -2.93607,
                -0.901376,
                -0.427279,
                -2.18218,
                -0.0180309,
                2.34153
            ]
        },
        "output": {
            "input": [
                -0.138142,
                1.82775,
                3.22722,
                2.20955,
                0.241544,
                -0.547794,
                2.08566,
                -3.2198,
                -3.16856,
                -1.06955,
                2.0963,
                4.29676,
                3.49878,
                4.5114,
                -1.27691,
                4.06524,
                1.70772,
                4.06777,
                6.47099,
                -2.05786,
                -0.911035,
                7.85549,
                3.08089,
                -1.52214,
                -0.809174,
                0.637899,
                -2.10161,
                1.26304,
                -1.5743,
                -0.489629,
                -0.858467,
                -0.669974,
                -3.55022,
                -3.74877,
                -1.29192,
                0.978686,
                3.61182,
                1.81559,
                -7.27959,
                1.65949,
                -1.02173,
                -5.90275,
                -3.43158,
                1.57628,
                1.10435,
                -1.58757,
                -3.55796,
                -1.54145,
                -6.46157,
                0.506346,
                -0.684152,
                -4.09103,
                -2.11318,
                3.58338,
                1.63119,
                -1.13574,
                -4.84277,
                -1.19556,
                6.75099,
                2.50324,
                1.91644,
                -2.14693,
                -2.08156,
                -4.54724,
                0.235224,
                -1.1377,
                1.70571,
                -0.332951,
                3.5234,
                -0.297725,
                -0.232966,
                -1.23718,
                1.54361,
                -2.18242,
                0.44028,
                -1.17702,
                1.24356,
                -0.847593,
                1.37691,
                -0.797019
            ],
            "bias": [
                1.65146,
                1.88816,
                2.07828,
                0.146665,
                -4.40794,
                0.475293,
                -0.181344,
                -1.52179
            ],
            "internal": []
        }
    }
}