{
    "layers": [
        {
            "name": "input",
            "type": "input",
            "size": 8
        },
        {
            "name": "lstm_level_0",
            "type": "lstm",
            "size": 10,
            "bias": 1
        },
        {
            "name": "output",
            "type": "softmax",
            "size": 8,
            "bias": 1
        },
        {
            "name": "postoutput",
            "type": "multiclass_classification",
            "size": 8
        }
    ],
    "weights": {
        "lstm_level_0": {
            "input": [
                0.240928,
                -0.918501,
                -0.394896,
                -0.516186,
                -0.0654249,
                0.161536,
                -0.0662707,
                -1.77915,
                0.122332,
                -1.45403,
                -0.402281,
                -1.0157,
                0.140015,
                -0.288866,
                -0.474416,
                -1.89503,
                -0.888154,
                -2.6427,
                -1.75931,
                -1.19925,
                -1.77049,
                0.28429,
                0.802656,
                -1.71963,
                0.349478,
                -1.06218,
                -0.693689,
                -0.737762,
                0.465862,
                -0.583906,
                -0.386013,
                -2.03491,
                -0.26388,
                1.2037,
                1.11385,
                0.415624,
                0.0219918,
                -0.969988,
                0.252172,
                2.70508,
                0.148637,
                -0.764335,
                -0.865916,
                -1.0881,
                0.486044,
                1.18619,
                -0.100577,
                -2.23532,
                -0.0946853,
                0.845419,
                0.720836,
                0.515347,
                0.309528,
                -1.10855,
                0.15975,
                1.55279,
                -0.656396,
                1.53685,
                1.39827,
                1.34443,
                0.0944245,
                -0.976255,
                0.752687,
                1.97081,
                -0.119193,
                0.777943,
                0.567857,
                0.334586,
                0.157425,
                -0.511967,
                -0.00676059,
                1.24894,
                -0.412546,
                1.78685,
                0.816932,
                1.18998,
                0.105869,
                -1.04766,
                -0.0256558,
                2.885,
                -0.127295,
                -0.435683,
                -0.0542077,
                -0.184608,
                0.0369126,
                0.115168,
                0.0233401,
                -0.78214,
                -0.1143,
                -0.189565,
                0.0887742,
                0.161074,
                0.0130732,
                0.319876,
                0.141759,
                0.0365066,
                -0.0923569,
                -1.56931,
                -2.36932,
                0.512831,
                2.87984,
                1.1052,
                2.36359,
                3.75039,
                0.0919282,
                0.254073,
                0.401496,
                -0.0761312,
                0.282953,
                0.119195,
                0.255894,
                -0.132898,
                0.0128621,
                -0.25739,
                -0.269777,
                -0.0509005,
                0.0887528,
                0.285366,
                -0.195713,
                -0.188352,
                -0.122991,
                0.0993454,
                -0.242747,
                0.0966115,
                0.237944,
                0.00768964,
                -0.232819,
                0.0419776,
                -0.0167243,
                0.216066,
                0.178578,
                0.0957228,
                0.0739553,
                0.0463293,
                -0.0773434,
                0.206113,
                0.296134,
                0.301555,
                0.404042,
                0.123263,
                0.062344,
                -0.121632,
                0.0257456,
                -0.0600924,
                2.04499,
                -0.951527,
                0.114146,
                -0.692262,
                3.95575,
                2.88521,
                0.828813,
                -0.359082,
                -0.000404812,
                0.20336,
                0.172528,
                -0.107378,
                0.235483,
                -0.0174161,
                0.0969269,
                0.0574685,
                0.255832,
                -0.997395,
                0.985402,
                -0.257524,
                -0.437521,
                0.350503,
                0.561028,
                -4.03858,
                0.0190037,
                -0.0418861,
                -0.529383,
                0.582398,
                0.418083,
                2.14846,
                0.111957,
                -0.215678,
                -2.54436,
                2.488,
                -4.70764,
                -3.17545,
                4.16655,
                1.1399,
                -0.581519,
                6.47904,
                -0.0467315,
                0.182108,
                0.0224177,
                0.123257,
                -0.1163,
                -0.0242269,
                -0.0924287,
                -0.168486,
                -0.20256,
                -0.140113,
                0.126021,
                0.141449,
                0.0324507,
                0.136204,
                0.00340244,
                -0.136049,
                -0.0583349,
                0.0230841,
                0.13401,
                -0.00946917,
                -0.00156439,
                0.0446053,
                -0.0352256,
                0.100609,
                -0.0694895,
                0.165312,
                0.00724627,
                -0.00908002,
                -0.0745917,
                0.0415808,
                -0.194739,
                0.260852,
                -0.261551,
                0.012541,
                0.203384,
                -0.167133,
                0.16358,
                -0.0998484,
                0.00166121,
                -0.0643244,
                2.43563,
                -0.0635124,
                0.651539,
                -0.0833831,
                0.866626,
                1.0626,
                0.30727,
                -0.49752,
                -0.130116,
                0.306118,
                0.00490906,
                -0.130292,
                0.148542,
                -0.0336122,
                0.0213623,
                0.0619226,
                -0.485117,
                2.96112,
                -1.45851,
                0.528369,
                0.28608,
                -0.11241,
                -0.790617,
                5.82202,
                -3.26979,
                -2.32014,
                -2.02178,
                -9.75438,
                4.85898,
                -3.29527,
                -4.08391,
                -6.09138,
                5.25815,
                10.225,
                9.85151,
                4.60137,
                -3.44732,
                -6.2379,
                -1.20792,
                10.3737,
                0.212032,
                0.108229,
                0.242789,
                -0.0112408,
                0.218106,
                0.0149934,
                0.161123,
                -0.152077,
                1.41895,
                -1.1688,
                -0.590334,
                -0.18824,
                -0.209469,
                0.283106,
                -0.301414,
                -0.424265,
                1.77178,
                -1.26027,
                -0.625198,
                -0.192009,
                -0.147961,
                0.261764,
                -0.728902,
                -0.0694497,
                0.00773106,
                0.22973,
                0.202428,
                0.0473804,
                0.206311,
                -0.0531923,
                0.115978,
                0.0429908,
                0.575663,
                -0.0350503,
                0.413901,
                0.180239,
                0.0967127,
                -0.0744042,
                0.140436,
                0.0300227,
                0.246816,
                -0.109907,
                -0.262779,
                -0.447493,
                2.38771,
                1.05318,
                0.100757,
                0.105888,
                -0.0690752,
                -0.190205,
                0.0313314,
                -0.248531,
                0.146665,
                0.373991,
                0.189429,
                -0.4115
            ],
            "bias": [
                1.71684,
                0.222265,
                -1.57714,
                -1.31486,
                -1.02989,
                1.57945,
                -0.273348,
                -0.184655,
                0.148778,
                0.840485,
                0.971193,
                0.0115114,
                -1.06338,
                0.758403,
                0.801995,
                1.24457,
                0.78344,
                1.44501,
                -0.648099,
                1.23874,
                2.76616,
                -1.06985,
                0.0768313,
                0.778516,
                0.514436,
                0.419357,
                1.02278,
                1.76719,
                -0.025841,
                -0.180039,
                -0.118565,
                -1.37551,
                -0.25876,
                0.895009,
                0.967936,
                1.33271,
                0.193008,
                1.16065,
                -1.25868,
                1.12802
            ],
            "internal": [
                -0.188813,
                0.162055,
                -0.514992,
                -1.21702,
                0.271367,
                0.547157,
                0.308084,
                -0.708917,
                1.94271,
                -0.237575,
                -0.0937079,
                0.974021,
                -1.22353,
                -1.84039,
                -0.0337808,
                0.256611,
                0.806115,
                -0.789458,
                1.31525,
                1.70606,
                -0.526737,
                -1.00175,
                0.0891866,
                0.719379,
                0.0346695,
                -0.247695,
                -1.19372,
                0.363479,
                -1.6885,
                0.324868,
                -1.13596,
                0.125755,
                0.097667,
                0.626972,
                0.282914,
                0.309446,
                -1.20266,
                -0.18535,
                -0.792828,
                0.502891,
                -0.143905,
                -0.776864,
                0.623971,
                -0.313315,
                1.28947,
                0.949064,
                -0.162722,
                -0.96045,
                -0.56138,
                -0.211696,
                -0.28705,
                0.507705,
                0.048304,
                -0.467631,
                -0.39702,
                1.18079,
                0.657465,
                -0.25071,
                0.550181,
                1.01149,
                -0.25389,
                -0.00458342,
                -1.06432,
                0.209383,
                -0.210925,
                -0.311793,
                0.574283,
                1.98833,
                -1.34376,
                1.12007,
                -0.558445,
                -0.206534,
                0.122458,
                0.861769,
                0.0634222,
                0.0306334,
                -0.814785,
                1.18957,
                -1.85699,
                0.631493,
                0.0106863,
                0.00808484,
                -0.444108,
                -0.564567,
                0.464985,
                -0.0760024,
                0.995623,
                -0.308051,
                1.80398,
                0.893503,
                0.511455,
                -0.0456519,
                -0.238261,
                -1.45581,
                0.325269,
                -0.550074,
                -0.0026982,
                -0.934681,
                -0.184676,
                0.893806,
                -0.126411,
                0.29829,
                -0.230514,
                -0.898795,
                0.25776,
                0.077905,
                0.227072,
                -0.0468413,
                0.98682,
                1.04901,
                0.0743129,
                1.81517,
                -0.527589,
                -0.412312,
                0.272834,
                0.369221,
                -0.254854,
                -0.0581434,
                1.21003,
                0.548056,
                -0.211664,
                -1.23922,
                -1.83913,
                -0.0372221,
                -0.138472,
                0.844096,
                -0.0143115,
                0.774393,
                1.13442,
                -0.173304,
                -0.0203095,
                -0.00508893,
                -0.228066,
                -0.229382,
                -0.037621,
                0.0718635,
                0.246246,
                -0.034617,
                0.550604,
                0.18907,
                -0.171662,
                0.0152621,
                -0.0804314,
                -0.715237,
                0.046538,
                0.32281,
                -0.138371,
                -0.409014,
                0.439496,
                0.642784,
                0.0866444,
                0.0824487,
                -0.0858864,
                -0.613333,
                0.0150081,
                0.149729,
                0.322149,
                -0.402818,
                0.768892,
                0.820312,
                0.117726,
                0.0810376,
                -0.160341,
                -0.149333,
                -0.204273,
                -0.130524,
                0.0456064,
                -0.142558,
                0.352964,
                -0.102187,
                0.39115,
                0.0529259,
                -0.285826,
                -0.778153,
                0.004829,
                0.333823,
                0.0969236,
                -0.192921,
                0.537735,
                0.215347,
                -0.580436,
                1.32559,
                0.44653,
                0.863577,
                0.29757,
                -0.11973,
                -0.198578,
                -0.512706,
                -0.0527316,
                -1.08895,
                -0.0940884,
                -0.0900114,
                -0.0824768,
                -0.110498,
                -0.386311,
                0.229991,
                0.647523,
                -0.0491356,
                0.78391,
                0.0413426,
                -1.83336,
                1.06806,
                1.16141,
                -2.52691,
                0.108248,
                0.252394,
                0.614106,
                -1.09639,
                0.794438,
                2.61521,
                -0.0125591,
                2.44531,
                1.68586,
                1.09788,
                0.0839046,
                0.257213,
                -1.66079,
                -0.12175,
                0.857586,
                -1.00348,
                -0.0274468,
                1.27807,
                -5.5589,
                -0.565821,
                0.790374,
                -0.152486,
                0.0187782,
                0.366716,
                -5.37789,
                0.441725,
                -0.0937902,
                -0.0162901,
                -0.0723061,
                -0.428518,
                -0.097167,
                0.0722107,
                0.189225,
                -0.0108916,
                0.556997,
                -0.0324604,
                -0.143822,
                0.000937042,
                -0.0191792,
                -1.27832,
                0.126934,
                0.759539,
                -0.383114,
                -0.86688,
                1.02522,
                1.02473,
                0.021574,
                0.0706532,
                0.226764,
                -0.472936,
                0.0673396,
                0.388566,
                0.156885,
                -0.303141,
                0.288869,
                0.620151,
                0.125834,
                0.136928,
                -0.262535,
                0.0251378,
                -0.0101216,
                -0.070674,
                0.166124,
                0.07677,
                0.51834,
                0.223234,
                0.12696,
                -0.12464,
                -0.425887,
                -1.3642,
                0.154109,
                -0.100983,
                -0.0316371,
                -0.0436455,
                1.15194,
                0.496121,
                -0.528893,
                -0.975613,
                0.983141,
                0.441594,
                0.0767514,
                -0.0606385,
                0.41378,
                -0.28254,
                0.325647,
                -0.394825,
                -0.315732,
                0.0340828,
                0.191429,
                -0.129964,
                -0.236537,
                0.244794,
                -0.267028,
                -0.0560854,
                -0.311773,
                0.363127,
                2.24267,
                -2.09005,
                -4.41304,
                0.570033,
                0.81506,
                0.288414,
                -0.280912,
                0.543302,
                0.314845,
                0.120774,
                -0.612033,
                10.3141,
                0.307907,
                0.279053,
                -0.173259,
                0.0587235,
                -0.14412,
                0.116279,
                -1.57753,
                -0.332258,
                -1.53783,
                1.57345,
                -4.1949,
                0.592019,
                -0.101786,
                -0.248321,
                -0.0563627,
                0.133814,
                1.72732,
                0.0682454,
                0.0256281,
                0.0762211,
                -0.299634,
                -0.363321,
                -0.0748767,
                0.0662227,
                0.326639,
                -0.00526987,
                0.554736,
                0.223658,
                0.0131408,
                -0.168769,
                -0.269514,
                -0.659642,
                0.482168,
                0.26652,
                -0.254571,
                -0.322251,
                0.544966,
                0.523024,
                0.164458,
                -0.125893,
                -0.363486,
                -0.492749,
                0.498535,
                -0.25826,
                0.480248,
                0.0555987,
                0.834562,
                0.616091,
                -0.2016,
                0.211656,
                0.121734,
                1.08554,
                0.089533,
                -0.209805,
                0.615105,
                0.904521,
                -0.651489,
                0.281212,
                0.293498,
                0.00145593,
                -0.26833,
                -0.658484,
                -0.325988,
                0.0357943,
                0.00970028,
                0.333686,
                0.420638,
                0.102156,
                -0.0561898,
                1.12678,
                -0.439358,
                0.605011,
                0.32846,
                -0.130239,
                -0.886492,
                -0.0479742,
                0.328096,
                -0.499634,
                -0.496483,
                -0.0312979,
                -0.0418691,
                -0.282041,
                -0.0688697,
                -0.204908,
                0.880134,
                -0.127689,
                1.14941,
                0.492245,
                0.90349,
                -0.0849012,
                -0.193478,
                -0.496796,
                0.0114164,
                0.183926,
                0.374937,
                -0.312659,
                0.11943,
                0.257963,
                0.272933,
                -4.31855,
                1.00142,
                -0.61942,
                -0.240616,
                0.763338,
                0.700846,
                -1.04776,
                2.24537,
                1.00687,
                -3.19904,
                -1.86294,
                0.131404,
                -0.980498,
                0.730587,
                -0.790037,
                1.89967,
                1.62116,
                1.98872,
                1.02143
            ]
        },
        "output": {
            "input": [
                1.63414,
                -2.20778,
                -1.04628,
                -0.821165,
                -2.54931,
                3.59362,
                -0.569506,
                -1.69746,
                -0.288869,
                0.813596,
                8.83438,
                -7.39404,
                -20.263,
                2.70035,
                1.47736,
                -2.95511,
                0.214858,
                2.30427,
                -6.89139,
                -1.30262,
                -0.679426,
                -6.18449,
                5.04122,
                -2.59757,
                0.610238,
                -1.12204,
                1.19976,
                3.3323,
                -8.50389,
                2.55438,
                -2.477,
                10.9087,
                -0.266517,
                -0.70637,
                0.168797,
                -0.878584,
                2.24855,
                -0.121927,
                -7.98427,
                -0.203671,
                -1.32903,
                14.2766,
                8.61572,
                0.692238,
                -0.0620226,
                0.911358,
                -0.512188,
                -0.692469,
                6.55803,
                -1.16337,
                -1.16751,
                -2.07881,
                13.1808,
                -1.22316,
                0.0787539,
                1.11711,
                -0.311655,
                -0.889589,
                8.13276,
                1.24456,
                -4.98705,
                -6.94805,
                -5.34423,
                1.49178,
                0.549751,
                -0.239014,
                -1.53704,
                -2.39541,
                10.3738,
                -1.32689,
                0.278219,
                -0.693113,
                0.215891,
                0.459582,
                -0.0611339,
                -0.187788,
                -0.46191,
                0.455007,
                -0.579076,
                -0.519697
            ],
            "bias": [
                1.63983,
                -2.56815,
                2.29069,
                1.75814,
                0.542349,
                0.556549,
                -0.794932,
                -3.36547
            ],
            "internal": []
        }
    }
}