{
    "layers": [
        {
            "name": "input",
            "type": "input",
            "size": 8
        },
        {
            "name": "lstm_level_0",
            "type": "lstm",
            "size": 10,
            "bias": 1
        },
        {
            "name": "output",
            "type": "softmax",
            "size": 8,
            "bias": 1
        },
        {
            "name": "postoutput",
            "type": "multiclass_classification",
            "size": 8
        }
    ],
    "weights": {
        "lstm_level_0": {
            "input": [
                1.85389,
                0.358528,
                -0.498044,
                0.921331,
                -0.191172,
                2.92268,
                0.61297,
                0.97842,
                3.20322,
                2.36126,
                -1.20873,
                -5.49352,
                1.43531,
                5.97377,
                -0.113563,
                0.99007,
                -0.443153,
                -0.350218,
                1.70387,
                0.808402,
                -0.365287,
                3.26709,
                -2.03703,
                -0.938734,
                -0.614592,
                0.109895,
                -0.727281,
                -0.0625513,
                -0.880555,
                -1.98062,
                0.88545,
                0.320145,
                -0.676485,
                1.009,
                -1.89881,
                -0.79431,
                -0.683013,
                -2.1638,
                -0.0279825,
                0.590069,
                0.330057,
                0.155008,
                -0.208056,
                1.81833,
                -0.4352,
                3.26932,
                0.700332,
                0.114918,
                -0.370808,
                -0.208857,
                0.191468,
                -0.200818,
                0.179099,
                -1.82444,
                0.00963671,
                0.875726,
                -0.364286,
                0.673295,
                -1.52657,
                -0.960815,
                -0.698392,
                -1.92971,
                -0.237444,
                -0.0445025,
                -0.157323,
                -0.0189906,
                0.038171,
                0.410198,
                0.0198637,
                -1.07798,
                -0.341148,
                -0.174132,
                -0.146784,
                1.21345,
                -2.84695,
                0.450793,
                0.30381,
                -4.49331,
                -0.835186,
                1.91347,
                -1.31355,
                -1.11237,
                -0.583107,
                6.72906,
                -0.273076,
                2.74304,
                -0.0837545,
                -0.314428,
                0.282331,
                0.107567,
                -1.3284,
                2.69516,
                6.57932,
                7.69502,
                -2.2041,
                0.828935,
                0.715792,
                -0.390885,
                0.382849,
                0.450796,
                0.703698,
                2.40555,
                0.568996,
                -0.178733,
                -0.11811,
                0.108765,
                -0.0651125,
                0.0664202,
                0.107259,
                0.588261,
                -0.0890616,
                0.313292,
                -0.150039,
                -0.318757,
                5.55736,
                -0.252558,
                4.45639,
                1.94104,
                -1.50352,
                -3.34368,
                0.0503415,
                -0.203927,
                0.208032,
                -0.166479,
                0.0423849,
                0.402265,
                0.0268389,
                0.130439,
                -0.258972,
                0.274013,
                -0.148194,
                -0.240064,
                0.035598,
                0.365171,
                -0.034735,
                0.0613306,
                0.0223462,
                -0.00727829,
                0.479752,
                0.0208463,
                0.202485,
                0.315448,
                0.202352,
                -0.44494,
                -2.06655,
                -0.847425,
                3.12849,
                3.00079,
                0.835426,
                -0.494844,
                -0.794097,
                -2.01253,
                -0.252619,
                5.46705,
                3.86527,
                1.60661,
                0.744631,
                6.60729,
                2.38392,
                -3.00798,
                -0.480901,
                -0.189354,
                -0.282054,
                0.0267391,
                -0.120517,
                0.280682,
                -0.223606,
                0.23564,
                -1.13948,
                -0.708243,
                -0.415957,
                1.68322,
                2.2479,
                -1.86718,
                -3.81937,
                0.278648,
                0.298026,
                -0.905506,
                -0.664195,
                0.815191,
                1.45001,
                -1.95052,
                -1.10249,
                0.555421,
                -0.193092,
                -0.0466233,
                -0.0109494,
                -0.155451,
                0.247846,
                -0.19687,
                -0.752298,
                -0.0136063,
                -0.498535,
                -0.438209,
                0.594272,
                -3.69211,
                1.52538,
                0.275372,
                -1.98613,
                -0.292491,
                0.0635137,
                -0.00602657,
                0.168844,
                -0.203178,
                0.152095,
                0.111495,
                -0.0922496,
                0.133982,
                -0.0193101,
                0.158669,
                0.242211,
                0.0290893,
                0.0172126,
                0.392895,
                0.193784,
                0.0634675,
                0.114757,
                0.00499369,
                -0.404727,
                -0.320188,
                -0.230983,
                0.0390047,
                0.0737933,
                0.224858,
                -1.65231,
                -0.268669,
                0.869864,
                0.932227,
                0.419346,
                -0.0577339,
                -0.328222,
                -0.364824,
                -0.524698,
                -0.958905,
                0.519186,
                -6.53303,
                0.634517,
                0.567544,
                0.0747447,
                -0.177506,
                -0.270695,
                -0.226597,
                -0.250878,
                -0.0214666,
                0.0876245,
                0.210962,
                0.0787388,
                0.00219976,
                -0.173928,
                -0.193707,
                -0.218957,
                -0.223644,
                0.0525279,
                1.85676,
                0.239695,
                -0.0265667,
                0.276486,
                0.298956,
                0.407771,
                0.184257,
                0.31662,
                0.811109,
                -0.0854895,
                -0.336354,
                0.0830626,
                -0.367557,
                0.0196567,
                0.0718347,
                0.126337,
                0.557969,
                0.309893,
                0.529268,
                -0.615662,
                -1.38627,
                1.41582,
                0.981522,
                0.648955,
                1.31541,
                -0.197038,
                -0.689352,
                0.582261,
                -0.539042,
                0.230857,
                -0.748203,
                -0.202808,
                0.953634,
                0.209176,
                0.107381,
                -0.054317,
                -0.00476148,
                -0.147904,
                -0.0811252,
                -0.1277,
                0.584182,
                0.072139,
                0.22571,
                0.00426047,
                -0.1342,
                -0.0203419,
                -0.155354,
                0.16268,
                0.242819,
                0.0949498,
                -0.202886,
                -1.88926,
                0.262171,
                1.49749,
                2.63298,
                0.23044,
                -0.599218,
                -0.219942,
                -1.01378,
                -0.791422,
                0.119252,
                -0.89119,
                -2.20543,
                -0.88435,
                -2.84607,
                0.329435,
                0.296558
            ],
            "bias": [
                0.587084,
                0.364746,
                -1.0139,
                2.514,
                -1.5167,
                -1.55364,
                0.42691,
                -0.370026,
                2.39538,
                3.27557,
                -4.77185,
                -3.79283,
                -2.1323,
                1.32885,
                -1.93582,
                1.41063,
                0.392409,
                1.27738,
                -2.06882,
                -3.41663,
                1.71861,
                3.23391,
                -0.321638,
                1.3482,
                3.76126,
                -1.90811,
                -0.0154212,
                1.39529,
                0.116523,
                1.42003,
                2.95642,
                1.37825,
                0.195132,
                2.23178,
                2.46351,
                0.188246,
                1.02896,
                1.10825,
                -1.2555,
                3.46974
            ],
            "internal": [
                1.42572,
                0.56477,
                0.584362,
                0.019134,
                0.240162,
                -0.618532,
                -1.00282,
                -1.34348,
                0.286036,
                0.461247,
                2.02984,
                -7.04897,
                -0.414111,
                -0.0381035,
                0.362734,
                -2.70044,
                0.130288,
                1.24999,
                -1.70813,
                0.0491379,
                -1.14329,
                -0.0152968,
                -1.57809,
                -0.650032,
                0.176797,
                0.502042,
                0.375067,
                0.151467,
                0.886081,
                0.311881,
                1.07924,
                0.535261,
                -0.369864,
                1.17838,
                0.0876981,
                0.514185,
                -0.757425,
                -1.44369,
                -1.12371,
                -0.823698,
                -0.72902,
                0.200785,
                0.344902,
                0.440526,
                1.34476,
                -0.607646,
                1.03179,
                1.24177,
                -0.634628,
                0.231766,
                0.17519,
                -0.314923,
                0.655023,
                -1.13939,
                0.0905839,
                0.07089,
                0.711645,
                0.520288,
                1.38829,
                0.828618,
                -0.743394,
                -0.0585996,
                -0.08761,
                0.326949,
                1.14622,
                1.83331,
                0.43564,
                1.05972,
                -0.0189671,
                -2.0425,
                -0.518487,
                0.0503377,
                0.0960483,
                0.90024,
                -0.0722416,
                0.239881,
                0.132885,
                1.33657,
                -0.993505,
                0.65282,
                1.03284,
                0.150716,
                -0.134349,
                0.784321,
                -0.187984,
                0.452814,
                -0.729258,
                -1.00991,
                -0.468809,
                0.425125,
                1.30571,
                -0.389592,
                -1.38865,
                1.68268,
                1.33607,
                -0.542807,
                -0.674862,
                -0.0344133,
                -0.393043,
                0.00120849,
                -1.39356,
                2.26212,
                1.09004,
                -0.806041,
                2.76538,
                3.85384,
                2.67766,
                1.39429,
                2.38454,
                -4.59703,
                1.60345,
                0.216407,
                2.39386,
                -0.0870112,
                0.554651,
                3.79416,
                3.41176,
                0.0157178,
                -2.09175,
                -5.39922,
                2.88922,
                4.70808,
                0.359239,
                -0.0502093,
                5.54398,
                2.27192,
                1.29451,
                3.2856,
                -0.925997,
                -1.99511,
                0.978155,
                0.254596,
                -0.111151,
                0.704955,
                -0.202974,
                0.0805081,
                -0.26459,
                -0.322551,
                -0.253459,
                -0.511821,
                -0.243436,
                -1.53977,
                -0.991001,
                -0.600526,
                1.71229,
                -0.235651,
                2.49844,
                3.69702,
                -0.0923174,
                5.30935,
                2.41068,
                -0.329008,
                -1.18282,
                -0.217474,
                -1.13886,
                -0.386302,
                -0.855432,
                -0.964976,
                0.257184,
                -1.75999,
                0.16363,
                -0.513989,
                0.272635,
                -0.530692,
                -0.177255,
                -0.579389,
                -0.39179,
                -0.237447,
                -0.103302,
                0.73343,
                -0.0734111,
                -0.0842399,
                0.318166,
                0.0327573,
                0.288087,
                0.0801464,
                -0.0641213,
                0.129937,
                0.227086,
                0.897964,
                -1.39934,
                0.170307,
                1.16526,
                -0.585644,
                -1.54122,
                0.529864,
                1.26854,
                2.08963,
                2.65798,
                0.0462802,
                -1.33447,
                5.72868,
                0.72201,
                -2.06148,
                1.57734,
                2.24056,
                -0.399317,
                1.0496,
                -0.06078,
                2.37111,
                1.84862,
                1.90753,
                -0.23733,
                -0.533549,
                -0.0481917,
                -1.77325,
                -3.01254,
                -2.67412,
                0.27156,
                -2.82357,
                3.1152,
                1.40642,
                -0.856102,
                -0.1284,
                0.311047,
                -0.416088,
                -4.5724,
                -3.38643,
                0.420397,
                2.37746,
                5.22229,
                5.49425,
                1.6271,
                -0.268895,
                3.34261,
                -0.831949,
                -0.119029,
                0.0574412,
                -0.758396,
                -2.26541,
                1.60864,
                0.732342,
                -0.115655,
                0.337047,
                0.0346123,
                0.682657,
                -0.573588,
                -1.29714,
                -0.255796,
                -0.926396,
                -0.342315,
                -0.10506,
                -2.0237,
                -0.420657,
                -0.227864,
                -1.63305,
                -1.65706,
                -0.489194,
                -0.755778,
                3.92717,
                -1.59889,
                -0.620769,
                0.730671,
                -0.6914,
                -1.13606,
                0.037082,
                1.29934,
                1.57444,
                0.00518428,
                -0.237929,
                -0.0573142,
                -0.42458,
                0.235371,
                0.0176233,
                -0.0594273,
                -0.619633,
                -0.396118,
                -0.567853,
                -0.176713,
                0.0274949,
                0.0867569,
                0.245721,
                0.389363,
                -0.0673548,
                0.266418,
                0.437493,
                -0.0666334,
                -0.630837,
                -0.077112,
                0.552996,
                -0.919293,
                0.906449,
                0.288854,
                -0.570609,
                -0.218754,
                -1.0539,
                -1.18974,
                -0.188937,
                1.64071,
                -0.58085,
                -1.03288,
                1.84993,
                0.106209,
                -0.283807,
                -2.61609,
                -2.01148,
                -0.777074,
                -1.17146,
                -2.69002,
                -0.10014,
                -0.553946,
                0.122131,
                -0.220427,
                -0.358388,
                -0.0790784,
                -0.287891,
                -0.251984,
                -2.32582,
                0.27281,
                -0.618302,
                0.945627,
                -0.569022,
                0.382072,
                -0.398006,
                -1.93562,
                -2.85234,
                -2.25898,
                -1.12914,
                -0.10242,
                0.944624,
                2.0013,
                0.427939,
                0.0586986,
                0.0749306,
                -0.0187047,
                0.134358,
                0.0246853,
                -0.092278,
                -0.116403,
                0.0375201,
                0.860488,
                0.524579,
                -0.0945533,
                0.655351,
                -0.180185,
                0.0728651,
                -0.229616,
                -0.590292,
                -0.396218,
                -0.425409,
                5.1996,
                0.249369,
                -0.432747,
                -0.13387,
                -1.09239,
                -2.08874,
                -0.0273668,
                -4.32794,
                0.802073,
                -8.85522,
                3.1971,
                -0.646186,
                -1.19817,
                -0.1748,
                -1.50415,
                -0.640845,
                0.524542,
                0.583496,
                0.753941,
                -1.36966,
                -0.202358,
                -0.59215,
                0.113334,
                -0.317971,
                -0.40813,
                -0.858091,
                -0.820763,
                0.237474,
                -0.0316108,
                -0.733432,
                -0.256328,
                0.520801,
                0.196766,
                -0.0491842,
                1.44375,
                0.772615,
                0.338842,
                -0.702567,
                0.186267,
                1.65137,
                -1.04809,
                -0.429111,
                0.950948,
                -0.450678,
                -1.53765,
                -0.736841,
                -0.129465,
                0.975256,
                0.863806,
                -0.600001,
                -2.35148,
                -5.20094,
                -1.04277,
                -1.00739,
                -3.36276,
                -4.16621,
                -1.82265,
                -0.420244,
                -0.448419,
                -1.05581,
                -1.41691,
                -2.91435,
                -1.7499,
                1.66566,
                6.56949,
                -0.843922,
                -0.799874,
                0.505184,
                1.40325,
                5.01674,
                5.13765,
                3.17607,
                3.24759,
                1.19045,
                0.344543,
                -0.757811,
                -1.80868,
                -1.18025,
                -0.945103,
                -4.37199,
                1.86051,
                1.35148,
                -12.9048,
                -0.825871,
                0.26112,
                0.579969,
                -1.50604,
                -3.42263,
                1.30443,
                -1.17418
            ]
        },
        "output": {
            "input": [
                -3.39692,
                0.923611,
                1.67603,
                3.41273,
                -1.35923,
                -0.922329,
                1.95956,
                0.103537,
                1.10265,
                -0.770501,
                -15.3333,
                -0.0308942,
                4.0284,
                -1.44652,
                2.06346,
                0.817041,
                -4.19518,
                3.56596,
                -4.04569,
                8.00216,
                -3.51071,
                -2.66521,
                4.10968,
                -0.0669609,
                -7.40461,
                -0.00977785,
                1.53477,
                0.856195,
                9.25957,
                -1.38657,
                8.25316,
                -15.5529,
                -0.691411,
                0.430248,
                5.69826,
                -3.43602,
                -0.244635,
                -1.90539,
                -1.00782,
                0.784953,
                5.16535,
                4.73469,
                -6.09657,
                0.0780936,
                -4.05832,
                -2.27716,
                2.59943,
                0.437999,
                -1.86987,
                8.13269,
                2.49427,
                9.75967,
                2.77254,
                -2.45412,
                -4.38673,
                3.32396,
                -0.98276,
                0.45585,
                -2.0776,
                -0.625427,
                3.94387,
                2.17064,
                -3.8758,
                0.641843,
                8.42128,
                2.40069,
                0.312464,
                -2.54089,
                -0.950808,
                -10.1733,
                1.87785,
                0.767918,
                -2.13103,
                -0.476383,
                0.331313,
                -0.28272,
                -0.962573,
                -0.528777,
                -0.646249,
                -3.55241
            ],
            "bias": [
                5.20493,
                7.899,
                1.17331,
                -0.967361,
                -2.75957,
                -0.685471,
                -6.32721,
                -3.08331
            ],
            "internal": []
        }
    }
}