0.00569692 -0.131285 -0.0250225 0.0824091 -0.233246 0.0127734 -0.0307739 -0.0252192 0.181183 0.0068646 0.00638491 -0.00210185 0.220197 -0.00109284 0.0248786 0.00877208 -0.00248286 -0.129699 0.00349569 0.0212233 -0.19321 -0.00797747 -0.00857406 0.00648387 -0.0481221 0.0144297 0.00887277 0.00255422 0.159596 -0.00880429 0.00694158 0.0430555 0.0810863 -0.0113009 -0.173666 -0.0173007 -0.130814 -0.10975 0.328565 -0.0620575 -0.00118373 0.00332747 -0.0189674 0.174678 -0.00617467 0.043419 0.28046 0.189472 -0.0717855 -0.00574217 -0.0878819 0.00490776 -0.0048245 0.020525 0.0207878 -0.096725 0.0130685 0.00122066 0.00533896 0.235738 -0.0252998 0.183049 0.0318037 -0.101449 0.0173062 0.0668258 -0.207921 0.0515473 -0.136004 0.0287283 0.00666765 0.00944847 -0.00193748 0.130772 -0.0152883 0.000981344 0.00262515 -0.0806156 -0.146417 -0.011375 0.0102631 -0.00432146 0.00160516 -0.0280627 0.0110359 0.0190079 -0.00831959 -0.0642167 0.0114851 0.00573966 -0.00463906 0.0396262 0.00127699 0.0269264 -0.0015363 0.00636911 -0.0151981 -0.00502149 -0.015071 0.00186702 
0.0361958 -1.18166 -0.166509 0.253273 -2.0471 0.104178 -0.340633 -0.129647 3.01154 -1.40413 0.0238033 -0.281048 1.5452 0.311521 0.378583 0.233606 0.156314 -1.86133 1.83134 0.0808353 -0.350869 4.00997 -0.138253 0.737579 -0.775616 -0.25959 -0.125909 -0.726495 0.414389 1.5372 0.41875 -0.219561 -3.15561 0.769326 -1.34319 0.135268 2.49497 0.107179 -0.428003 -0.611547 -0.0119352 0.766938 6.09106 3.19222 -0.100948 -0.940447 3.16528 1.64096 -0.692039 -0.326768 -0.841093 -1.13092 -0.359688 -6.7938 -3.64688 -0.945859 -4.16845 -1.18717 1.6632 2.16334 -0.149062 1.42006 -0.0361129 -0.969115 -4.77981 0.774612 -1.63831 -2.4986 -0.998431 0.124417 -0.040216 2.38777 -0.548431 1.91868 -0.216357 3.07296 -0.623215 -0.863019 1.46195 -0.112754 -0.896085 -0.348053 -4.89568 0.601183 0.56226 -6.06614 -0.543603 -0.331444 0.168431 0.00613088 0.0920645 -0.0516486 -0.344596 6.83433 0.246713 -0.0487084 3.67717 -1.1674 1.33969 -0.423439 
0.00349446 0.321168 -0.255465 -0.215198 -1.76437 1.46122 -0.552442 -0.209776 -0.895513 0.172073 0.0690638 -0.0373774 0.0409634 0.285957 0.210447 -0.0038673 -0.223011 1.02901 -1.0181 -0.103168 -3.16541 0.0494261 -0.497653 0.448505 -2.52807 0.178692 0.0470347 0.030579 1.87581 -2.50339 1.50538 2.91379 4.22611 -1.4444 -0.0101247 -1.82995 0.47696 -0.705463 2.6014 -2.98683 -0.0271132 -1.38248 0.250647 -4.19521 0.141267 4.14702 -1.53683 -0.0444812 -2.99844 -0.363551 3.83837 2.04402 -0.144704 0.0810346 0.0454998 0.00303906 -0.44535 -0.236429 0.698814 -1.18308 -0.287032 -0.0717358 0.589367 0.112017 -0.0329765 -0.114607 0.390136 0.371125 0.511694 0.354922 0.156817 -0.11365 -0.136585 -1.54245 0.102151 0.668472 -0.447418 -2.90654 0.152644 -0.151709 -0.0736625 0.148254 -0.088233 -1.87281 -2.22433 0.0841997 -0.382006 -5.24207 -0.010911 -0.0443311 0.167094 3.95319 -0.0834164 0.310052 -0.188555 0.0951641 -0.0187196 1.11069 -0.523929 0.0170773 
0.11282 -0.29157 2.9991 1.14877 -0.915893 0.348914 0.368271 1.64952 -0.229969 0.141187 -0.268178 0.0933027 0.187111 -0.0460142 -1.57119 -0.067777 -0.0754052 0.307304 -0.0260808 -1.54722 -0.785085 -0.193104 -0.0289053 -0.124079 0.201269 0.0481672 0.0120568 0.0371477 -1.51843 -0.636821 -0.125056 -1.92729 -1.40212 0.0706943 -0.25506 0.0155517 -3.35203 -1.5469 -0.180267 -0.000228129 0.0983875 -0.0121732 -1.47308 1.63363 -1.17949 -0.171883 -0.358958 -0.913527 -0.318014 0.0786055 0.155608 0.742246 -0.92844 0.188257 0.00454082 0.887961 -0.315955 1.07428 -0.0375349 -0.209589 2.66282 -0.0216576 -2.20408 0.132943 0.184913 -0.0729128 0.156416 -0.16671 0.301838 -1.55832 -0.524661 1.14283 0.119808 -0.14726 0.107319 1.04916 0.0894185 1.57568 -0.0901482 0.690496 -0.0229312 0.723545 0.534995 0.227139 -1.49595 0.110447 1.22898 -0.0831379 -0.190698 -0.0934736 0.479175 -0.2923 -0.0258743 -0.0933592 -0.121372 -0.166297 0.262631 0.786403 0.0429234 0.300327 
-0.0869424 0.406327 -0.0636931 -0.272276 0.367997 -0.1734 -1.87267 -0.188415 1.40548 0.585153 0.0517357 -0.0994874 0.420214 0.841196 0.232101 0.131601 -0.271854 -0.25374 -0.0253442 -0.816661 -0.0686654 0.144094 -1.46443 1.52299 0.774283 0.567817 0.199851 -0.0204948 5.23004e-05 -1.56362 -0.461312 -0.147059 -0.0926514 -0.107278 -0.141473 -1.31615 0.237029 1.12159 -1.48769 0.245869 -0.00120878 0.0816704 -0.0168673 0.442291 -0.0430304 -0.149289 1.82366 -0.151281 0.343131 -1.15235 0.0288106 -0.140384 -0.880253 0.554742 0.155755 0.096938 -0.425021 -0.102051 1.53775 -0.570192 -0.137578 0.327414 0.35906 0.141741 -0.0545078 -0.168735 -0.0236137 1.42215 1.66475 0.426477 0.179132 7.74324e-05 -0.532656 0.098183 0.0523413 0.0872035 -1.21158 -0.00432796 -0.0455732 -0.118752 0.0996942 0.471421 -0.282254 0.456199 -0.127563 0.62395 -0.77965 -0.609896 0.0247582 0.160152 0.622916 -0.386583 -0.100123 0.53108 -0.42133 0.199426 0.121127 1.01387 -1.62406 -0.0535155 
0.0961716 -0.732173 -0.152595 -0.0387036 -0.14603 -0.08276 -0.168191 0.12719 1.12521 -1.00005 0.00109075 0.016311 -0.704539 0.386772 -0.0659127 -0.00594945 0.435884 -0.0116836 0.803726 -0.0840558 0.696157 0.132157 0.361967 0.785024 -1.02644 -0.828323 -0.302165 0.437655 -0.0554009 -0.463166 0.718676 -0.0559233 -0.423901 0.141767 0.286807 -0.472446 0.025632 0.447075 -0.711694 -0.0764265 -0.00411359 0.104866 0.711493 0.817554 0.0378234 -0.307122 0.449978 0.398401 -0.38219 -0.272095 -0.442609 -0.221615 -0.288734 -0.283558 -0.405511 -0.292708 0.869866 -0.548863 1.14384 0.00065051 0.0576394 -0.340042 -0.247052 -0.310715 0.396984 0.171238 -0.252522 0.50208 0.00355351 -0.312587 -0.279246 0.0124053 -1.01565 0.188251 -0.162146 -0.0345681 -0.925063 0.101268 0.537494 0.123141 -0.527597 -0.871307 0.545582 -0.688196 0.263379 0.0975265 -0.787597 0.08591 0.0841468 -0.579084 0.00737716 0.0629724 0.0105709 -0.564818 0.715787 -0.261239 -0.293701 0.838291 -0.732944 -1.23141 
-2.62937 0.102568 -0.338306 -0.983738 0.67103 -2.42912 -1.88249 -0.156991 -1.45857 0.944762 -0.289599 0.0205235 0.865113 -0.648162 0.309746 1.1464 -0.156425 -4.36052 -0.103121 0.483625 -0.236789 1.03523 -0.377241 -0.435705 0.451955 1.81451 0.259319 0.0864253 0.222036 -0.0819836 -0.0340911 0.150044 -0.738022 -1.70979 0.358255 0.309123 0.18366 -0.0192434 1.64281 0.0375132 -0.00632075 -0.0651996 0.00794942 -0.169332 -2.11103 -0.315443 -0.462152 -2.9176 -1.10369 0.198791 0.252026 0.595073 0.348566 0.0695857 0.136157 0.00973505 1.31246 0.0837282 -0.539325 0.154119 -0.218833 1.34803 0.628136 -0.0650674 0.00987044 -0.158343 0.0753052 1.5601 0.956541 0.486802 -0.0311296 -0.382836 0.399201 -0.0682587 -0.699889 1.11444 0.888046 -0.316714 0.0508771 -0.368102 0.258126 0.51028 -1.26003 -3.87761 0.0745932 -0.0920344 0.779508 -0.183138 0.188432 0.0297951 -0.238176 -2.36222 0.0672856 0.197327 -0.398152 0.0796732 -0.180279 -1.33279 0.322878 0.54351 
-0.0018758 -0.000442531 0.000405483 -0.000135584 -0.00150805 -0.000934713 -0.00160948 0.000264472 0.00367396 -3.24618e-05 -0.000374064 4.76746e-05 0.00074385 6.01906e-05 -0.00051584 0.000345498 1.4208e-05 -0.00627531 0.00269702 -0.000517718 0.00318105 0.00061298 -0.000561823 0.000885655 -0.00122701 0.000597103 -0.000102615 0.00010112 -0.00379896 0.00399395 -0.00389352 -0.00143726 -0.00295469 0.0025794 -0.000273437 0.00247551 -0.000644967 0.00244281 0.00184024 -0.00136135 7.93867e-06 0.00300049 0.000314092 0.000729787 -0.00140311 -0.00462255 0.00518472 -0.00209204 -0.00191519 -0.000150464 0.00132766 -0.00429633 -0.000212114 -8.71898e-05 -0.00020479 8.10855e-05 0.000609266 -0.000177725 0.00111607 0.00194331 0.000403303 0.000506324 -0.0011193 -0.000195253 -1.15143e-05 0.000169921 0.000529185 0.00174111 0.0006838 -0.000498505 -0.000101106 0.000372068 -0.00019438 0.00337036 -0.000213697 0.00122269 -0.000742164 -0.00122641 3.44222e-05 8.03889e-05 -0.000204388 0.000213879 -0.000217826 0.00166291 0.00435309 -4.07431e-05 0.00014293 0.00232529 -0.000288609 -0.000178023 0.000234456 -0.00200595 -2.90223e-05 0.000250445 -4.28456e-05 -0.000131219 -5.41822e-05 -0.00121177 -0.000784112 -3.88697e-05 
