-0.0580158 -0.0754093 -0.28347 1.4334 -0.117373 0.0387448 -0.3321 0.977633 0.375387 0.747842 -0.118755 0.135594 -0.344597 -0.272289 -0.145339 -0.858352 0.216375 -0.0784905 -0.0745506 0.0521734 -0.458753 0.182048 0.364132 0.792774 0.119129 0.458918 0.278714 -0.0673403 0.318761 0.0187001 0.0613176 0.185907 1.08896 0.104566 0.18625 0.573394 0.0141239 1.00287 0.54118 0.214398 -0.534764 -0.179328 -0.238589 1.3413 -0.357503 0.124731 0.0540711 -1.0164 -0.13488 0.361352 0.0439201 0.0677376 -1.15562 0.332935 -0.533122 -0.0654466 0.972024 -0.231914 0.0166905 -0.400725 0.133405 1.23692 0.810608 0.367231 -0.0855345 0.293755 -0.303166 1.28289 0.827189 -0.0404326 0.0429846 1.16122 -0.0196247 0.253568 0.0057724 0.314678 -0.00587816 0.0832034 0.365679 0.158237 0.00395425 -0.38849 0.487111 -0.160118 -0.272084 -0.256377 -0.243945 -0.0553836 0.33987 0.428991 -0.194635 -0.237276 0.219697 -0.505013 -0.0597523 0.823702 0.071173 -0.218658 -0.0993496 -0.313759 
-2.74995 -3.09916 8.18925 -16.3639 8.44829 -2.80813 21.3374 -8.83771 -67.1938 -0.411046 -8.85996 3.62324 -1.81078 2.03895 9.02646 26.7143 -6.74199 -11.9922 -4.13736 -64.6363 19.7302 4.53483 14.4518 -18.7285 -8.63407 -23.7586 -12.7367 0.0343547 -7.46371 4.66269 6.38569 -19.8469 -9.85051 -6.60192 10.0079 -8.52028 -3.8493 -31.9021 -2.99549 -3.3804 4.896 6.79873 1.96787 -2.42512 -17.7225 -1.5915 -6.00759 -3.77476 -19.7616 -18.8481 2.46133 -7.27092 19.5894 -8.92681 10.3592 -11.8338 -14.5461 25.8182 -2.71217 -4.1545 14.4108 -25.2145 -10.0512 1.4694 12.3369 5.21203 -11.8582 -5.28637 -5.62742 -5.27488 8.95802 -17.4434 15.3446 -20.0056 2.7749 0.719206 -2.23434 7.52381 -3.79066 -7.0483 -105.174 21.4874 -12.5448 -7.4726 9.95879 -14.6409 6.10631 9.74478 2.66613 -16.284 0.00254405 10.3069 1.25012 1.00295 4.5931 -1.40806 -14.7342 7.18085 7.36295 -3.21833 
1.61967 8.33335 -1.42701 11.1506 -7.54425 1.12394 16.2098 31.6706 0.0286164 3.77207 6.6665 1.98233 -6.73142 2.85871 0.836614 1.85197 4.60046 1.20784 8.06499 -4.02869 11.4936 -8.90144 0.661046 -9.78371 -16.1508 9.21894 2.13995 2.60806 1.95182 -1.6122 1.93123 8.70027 -5.55746 1.31003 -7.05185 3.49701 31.0111 15.8077 -15.3182 3.45942 -1.64973 -5.12987 0.473243 25.4982 5.34847 2.78261 12.1944 -26.6912 11.1261 -7.97122 -3.84967 3.9606 -7.19222 2.83453 -11.414 3.0858 43.2375 5.39996 -4.80469 -18.8318 -9.35305 11.9164 -15.106 5.77134 17.7362 -3.41711 1.43865 13.0462 -24.2597 10.5548 1.9684 22.924 -6.17379 0.180175 -13.4723 -0.631619 4.53433 3.69247 -2.83994 0.632633 11.8584 -4.1725 3.52792 3.74221 -6.64212 3.95622 -1.05222 -12.0586 -27.3955 -4.92703 -0.886918 -6.01039 -6.86284 2.88105 7.42791 2.6504 6.58684 -7.54223 -4.47575 3.87868 
-2.72755 -8.12046 -4.95863 -2.41126 -0.364439 -5.84278 -22.6905 -12.2371 -3.50582 -27.4085 -1.56918 -3.49946 -40.9478 4.23841 -3.16593 0.547903 14.6308 6.69713 -18.1553 6.64885 15.4832 -3.67009 -8.3199 0.560024 -7.37805 -4.66821 4.93073 -0.220245 6.43572 9.71976 -5.04793 -2.66354 2.7416 1.22494 1.85535 14.7777 -9.23657 -3.75027 4.80542 0.488909 0.540362 2.23012 21.208 14.5218 -20.4605 -10.5574 12.5672 2.69019 -6.38895 1.42142 2.64509 4.93839 -3.41808 2.399 1.55739 -1.0612 -8.74695 -6.57662 17.8995 3.8328 3.72007 2.74841 0.0605124 -4.20534 -8.80314 6.78183 -6.4296 -1.82151 7.18547 -0.42985 -3.92211 -5.44172 6.51754 17.0191 6.8741 -4.36335 -2.19884 -0.950937 -0.388315 3.90457 -1.85776 -7.3639 4.26369 2.70103 -1.23631 -16.8885 0.448433 6.36219 6.68523 -18.9701 -4.48497 76.9035 12.2642 0.521813 30.1373 5.26348 -8.3216 11.9675 -8.49772 -1.04137 
4.09082 -0.81412 0.648055 -3.04366 0.122915 5.78266 4.26919 -3.58304 -2.94101 -3.55405 -44.9758 -3.18734 27.4648 -13.153 -0.869519 33.3874 -10.9317 9.79196 -1.70411 11.8153 -4.76845 -2.73584 -3.20456 -5.26396 2.89231 4.67529 1.01629 -4.26291 10.5384 9.10442 -2.82349 -0.630384 42.4269 1.23543 -37.1897 9.53438 -9.93161 -1.33718 4.13999 0.642393 0.00976164 3.67049 -9.47367 -7.14869 -10.227 -34.2736 -12.4093 4.30824 -9.85038 0.150814 2.43755 6.55178 5.25021 -2.94886 34.9589 -11.0656 22.8068 -3.94131 -8.45485 -1.57088 4.99673 -2.23041 3.18052 -35.7364 -6.90783 -0.45942 28.5904 3.85908 3.42544 -1.4367 6.82648 -5.25459 2.27133 -4.5448 6.15459 -21.7698 -4.1155 1.96206 38.7366 -4.97417 -5.70314 -3.95232 10.8533 7.70822 -0.25744 7.46759 2.96659 1.6087 9.74654 -16.4026 -1.7832 21.0081 -0.749846 2.74319 6.24476 -2.25399 -5.36362 -0.280296 -32.3775 -2.30071 
0.0896001 -1.24043 -5.23252 0.0362443 3.98134 -0.931083 -2.10591 1.5003 1.09884 -0.585831 -3.88618 -1.35281 2.46526 -3.6303 2.32325 -0.978652 10.4065 4.03369 2.95681 0.498208 -2.04756 11.9942 3.64689 -2.99805 -8.11997 -1.68183 -8.98116 8.5433 -3.13565 -7.60485 -5.85357 -1.15255 4.03613 8.44089 -0.814631 4.64212 2.59974 -3.4429 -6.60184 -0.902035 -2.1259 1.2631 -0.339896 -0.709982 -9.55285 -1.93126 18.5023 -2.63328 -2.14469 5.88872 -2.94966 -5.42995 -0.712464 13.0422 0.380337 -2.85177 -3.19144 5.91794 -4.81843 -3.99779 3.22024 -4.7667 -2.71729 6.43883 2.16996 -11.2544 -0.843212 -9.64686 -2.83062 -5.04741 -4.7711 -0.762499 2.61326 -2.36966 -6.20202 -9.91774 6.76643 7.81886 -1.10033 -1.15919 5.36634 23.3111 0.166819 -9.57473 -0.161254 0.127914 -2.90367 5.73066 6.03389 10.8259 -3.40466 0.444625 -3.0527 -4.39132 8.63367 0.755529 -4.34222 1.40836 5.55827 4.39436 
6.27074 14.4167 -9.48076 9.07152 -0.586513 23.3535 3.07628 -3.2905 -12.5249 9.13809 4.69322 3.73501 -19.6229 2.75859 -16.0978 1.83678 -1.06051 1.26551 6.29789 5.3855 -0.828906 0.659317 8.6817 0.420019 4.08884 -1.7766 8.48314 -11.8941 18.1482 -12.6937 9.9876 1.6339 6.51805 -0.403388 -9.87836 62.2153 13.3764 -7.92843 3.13375 -4.40596 5.81746 1.48752 -17.3065 21.253 14.1854 5.74272 3.00004 -15.8579 -0.138905 16.1564 3.62607 9.79412 8.3518 -8.92347 -9.56268 -17.4645 5.02139 -8.3863 7.70745 -4.16234 -20.1952 -1.067 7.83669 -13.0303 -17.6765 12.2857 10.2957 9.6367 -9.1051 8.29632 5.53138 12.8534 -10.968 -5.2556 3.9625 9.55811 9.54525 -0.0778425 -5.69544 11.4557 -23.0482 -13.3354 -1.35185 8.74232 -14.0077 7.18626 -5.10096 3.54216 -9.40386 -12.8942 5.04506 19.4862 -27.6654 21.7398 -48.7496 6.178 12.9404 5.39773 -3.31208 5.76638 
-0.124118 0.037087 -0.351486 0.440735 -0.148858 0.060821 -0.0939792 0.232438 0.0787044 0.341423 0.131038 0.149598 -0.135118 -0.108678 -0.124419 -0.366195 0.172339 -0.12742 -0.0153099 0.0579262 -0.396651 0.166311 0.293937 0.422982 0.0471049 -0.0253171 0.19473 -0.0814967 0.151038 -0.0844821 -0.128057 -0.0287034 0.234781 0.285215 0.140461 0.204986 0.0751826 0.484773 0.250647 0.210444 -0.246464 0.0771261 0.0836224 0.501854 -0.265275 -0.0481543 -0.0676547 -0.37612 -0.0574395 0.227108 0.0975388 0.172292 -0.502631 0.104303 -0.39876 -0.1918 0.367061 -0.263408 0.184763 -0.151952 -0.0632924 0.531777 0.489375 0.0295982 -0.127506 0.00550588 -0.115335 0.616521 0.363231 0.175947 -0.0164105 0.435228 -0.287311 0.00140366 -0.14822 0.0484961 0.162996 0.214885 0.295797 0.173165 -0.0141895 -0.411008 0.214352 0.131411 -0.275724 0.137395 -0.109599 0.0383807 0.0916325 0.0375288 -0.0661673 -0.11677 -0.0717128 -0.0780764 0.054767 0.350614 0.0855791 -0.101546 -0.136122 -0.0751833 
